tree
version=v2
num_class=1
num_tree_per_iteration=1
label_index=0
max_feature_idx=3
objective=regression
feature_names=Column_0 Column_1 Column_2 Column_3
feature_infos=[-1.9462235920380646:1.5482852144629311] [-1.9229081470925566:1.5470443565500014] [-1.9476046792276043:1.5492394233009925] [-1.9147837646134873:1.5480919560221442]
tree_sizes=1659 1675 1670 1630 1615 1606 1574 1578 1578 1586 1587 1594 1556 1597 1573 1612 1589 1595 1618 1608 1613 1621 1611 1593 1624 1594 1614 1627 1586 1614 1613 1609 1609 1623 1610 1597 1618 1593 1593 1613 1581 1604 1605 1607 1618 1610 1602 1614 1607 1612 1595 1612 1603 1619 1633 1603 1605 1611 1610 1619 1616 1623 1617 1585 1608 1609 1636 1600 1604 1628 1605 1610 1593 1608 1615 1626 1596 1626 1618 1613 1626 1618 1596 1626 1629 1612 1592 1603 1609 1600 1596 1618 1623 1623 1617 1632 1603 1586 1623 1627

Tree=0
num_leaves=20
num_cat=0
split_feature=3 3 2 0 3 3 3 2 3 3 3 3 3 3 3 3 0 2 3
split_gain=5.17946e+10 8.59394e+09 5.7624e+09 1.154e+09 7.26642e+08 6.0809e+08 5.08628e+08 9.90857e+07 8.70554e+07 8.35907e+07 8.00765e+07 7.95538e+07 6.94747e+07 3.46472e+07 2.30421e+07 1.56054e+07 1.54553e+07 1.21332e+07 1.11964e+07
threshold=-0.1039979768566011 0.6768168617373882 -1.0219741293972782 1.1118683562486835 -0.55788627734009877 0.28958348649971871 -1.4720109664257446 -0.39538600059997392 -1.2530019263323087 0.86725950529689777 -0.78641427556745158 1.3449563102693929 -1.6656276540445794 0.51335359268214253 0.080096578584258157 -0.24682678548217465 -1.1543253656783927 -1.366912316774646 0.77203818351714293
decision_type=2 2 2 2 2 2 2 2 2 2 2 2 2 2 2 2 2 2 2
left_child=2 5 6 9 10 14 12 -6 17 18 -4 -5 -1 -7 -2 -9 -10 -8 -3
right_child=1 3 4 11 7 13 8 15 16 -11 -12 -13 -14 -15 -16 -17 -18 -19 -20
leaf_value=240900.26630414958 244462.13943526303 245812.8610111656 242666.96930912157 246892.6004032479 243430.33169116371 245218.81307488822 241584.20561460586 243795.70401596391 242012.53326097445 246280.80924492623 243033.01438061995 247196.90457293921 241321.30429486418 245565.97717986596 244658.34623471368 244035.42517791493 242294.40387331296 241792.75553944398 246019.83174090975
leaf_count=199 503 148 252 569 203 155 138 180 132 332 367 345 193 134 213 109 77 141 117
internal_value=0 3015.63 -3810.82 4522.91 -2296.73 749.477 -5722.35 -1389.61 -5040.96 3441.58 -3017.74 5229.2 -6570.6 1973.83 255.288 -1013.49 -4552.97 -5406.53 3022.75
internal_count=4507 2516 1991 1511 1111 1005 880 492 488 597 619 914 392 289 716 289 209 279 265
shrinkage=1


Tree=1
num_leaves=20
num_cat=0
split_feature=1 3 2 1 1 3 1 3 3 2 3 3 1 3 2 3 3 2 3
split_gain=1.30025e+10 2.0083e+09 1.53643e+09 2.36224e+08 2.00203e+08 1.98723e+08 1.53529e+08 3.73668e+07 3.5234e+07 2.64767e+07 1.59089e+07 1.51711e+07 1.48161e+07 1.35531e+07 8.28668e+06 8.09118e+06 7.31312e+06 5.72293e+06 4.95893e+06
threshold=-0.027168040744718767 0.71490539044929002 -0.92703701360534196 1.0408769729911331 -0.61451002879017658 0.37528267610149801 -1.5265663519953074 -1.3101347194001616 -0.30713679665341126 1.4020868938234916 -1.7894153723582604 0.92439229836475068 0.14155760388423391 -0.85942046297598884 -1.1580506620323865 0.57842466994236685 1.2703631008311931 -0.45551600517205915 -0.70071826000973092
decision_type=2 2 2 2 2 2 2 2 2 2 2 2 2 2 2 2 2 2 2
left_child=2 5 6 11 13 12 10 -8 17 16 -1 -3 -2 -4 -9 -7 -5 -6 -15
right_child=1 3 4 9 8 15 7 14 -10 -11 -12 -13 -14 18 -16 -17 -18 -19 -20
leaf_value=-1883.6466552734375 62.914967031909192 799.45981799271021 -905.11431837081909 1200.7608502787928 -505.2966214925936 490.66747763218024 -1391.3809733640026 -1203.8451693095858 -209.58884195050041 1456.5825145600609 -1626.841889050542 973.15695888713253 256.8077000116898 -763.04681371873426 -1033.1590474446614 650.94413210311029 1303.1881275272849 -365.95264369043809 -650.35648388596053
leaf_count=80 597 269 128 310 202 156 287 189 273 221 245 236 118 248 114 159 398 116 161
internal_value=0 1546.62 -1865.33 2311.76 -1084.28 481.374 -2828.2 -2524.18 -682.701 2611 -3380.11 1761.27 189.828 -1526.25 -2279.25 1143.14 2516.68 -908.933 -1437.37
internal_count=4507 2464 2043 1434 1128 1030 915 590 591 929 325 505 715 537 303 315 708 318 409
shrinkage=0.5


Tree=2
num_leaves=20
num_cat=0
split_feature=2 2 1 1 1 1 2 0 1 2 1 1 1 1 1 2 2 2 2
split_gain=3.26712e+09 5.67414e+08 3.29163e+08 8.11241e+07 3.82177e+07 3.70915e+07 3.40207e+07 9.88355e+06 9.02031e+06 5.05976e+06 4.73935e+06 4.71315e+06 4.33784e+06 3.94047e+06 3.13177e+06 2.74247e+06 1.96624e+06 1.39611e+06 1.24608e+06
threshold=-0.18652751042824009 0.62677027942653873 -0.95195495116275552 0.99153361170080301 -1.5902352052731525 -0.65748968819538522 0.19955009379230024 1.4451321388850182 -1.3355597921617723 1.247022938029996 0.81962770785062122 0.036500812533126335 -0.44738247237849638 -0.8866975599956276 0.4503483588391195 -1.8194459020495415 -1.199190078875559 1.4796188717202396 -0.73716278202146968
decision_type=2 2 2 2 2 2 2 2 2 2 2 2 2 2 2 2 2 2 2
left_child=2 6 4 10 15 13 11 9 -6 -5 -3 -2 -7 -4 -8 -1 -10 -9 -15
right_child=1 3 5 7 8 12 14 17 16 -11 -12 -13 -14 18 -16 -17 -18 -19 -20
leaf_value=-965.5356735479636 -31.094628854468464 351.54193218065348 -474.55223018287592 560.14312789240489 -704.41829702787311 -252.90626208496093 167.16337400967959 736.8202995137965 -622.09556530367945 649.81405547964721 445.88681252395048 53.272575711158616 -161.17426762903543 -398.3633903466561 272.95378096510723 -844.97085424569934 -540.34901210239957 857.44014319595021 -343.82568524918469
leaf_count=61 250 230 117 203 321 250 122 47 155 699 316 490 266 207 164 208 140 49 212
internal_value=0 739.157 -980.71 1122.19 -1430.15 -602.612 162.745 1291.73 -1292.83 1259.27 812.289 49.5403 -411.236 -786.847 455.653 -1744.62 -1166.6 1596.77 -741.538
internal_count=4507 2570 1937 1544 885 1052 1026 998 616 902 546 740 516 536 286 269 295 96 419
shrinkage=0.5


Tree=3
num_leaves=20
num_cat=0
split_feature=3 1 3 1 3 3 3 1 3 3 3 3 1 3 3 3 0 3 1
split_gain=8.19658e+08 1.13505e+08 1.0628e+08 1.46206e+07 1.43033e+07 1.36431e+07 1.12991e+07 3.06285e+06 2.393e+06 1.73111e+06 1.72418e+06 1.5716e+06 1.25092e+06 937504 801943 633080 566329 454625 417374
threshold=0.019789741457080113 0.74163336258526091 -0.90385707980654117 1.214377781615924 -1.4085300852392415 -0.49440539615359563 0.42289651103543396 -1.7271264232631827 1.4258912597381259 -0.21826356299230681 0.959309957061386 -0.69119295378769696 -1.0792958411611087 1.2925845832905278 0.1642087461563749 1.4988942731026047 1.1118683562486835 -0.1039979768566011 -0.14495541930873218
decision_type=2 2 2 2 2 2 2 2 2 2 2 2 2 2 2 2 2 2 2
left_child=2 6 4 10 7 11 14 -1 13 -7 -3 -4 -6 -5 -2 -10 -12 18 -11
right_child=1 3 5 8 12 9 -8 -9 15 17 16 -13 -14 -15 -16 -17 -18 -19 -20
leaf_value=-465.85160669103846 23.756873751319322 203.56471696916643 -194.5035274951903 300.68004231825671 -304.37532544136047 -86.334645804365934 146.58858118355275 -380.81686849369061 368.35609640286663 -31.066198171713413 273.72260256847704 -143.62778698446181 -250.4521071822555 336.64975173863985 69.600840312139738 442.67826884501687 192.99967895507814 -45.073235200001641 44.725652912083795
leaf_count=154 537 333 359 371 320 321 320 339 127 39 166 263 162 354 116 37 25 130 34
internal_value=0 402.076 -452.311 583.067 -694.998 -245.837 139.238 -814.759 661.162 -126.961 450.572 -345.984 -572.504 636.486 63.8013 770.248 526.314 -54.684 8.46823
internal_count=4507 2386 2121 1413 975 1146 973 493 889 524 524 622 482 725 653 164 191 203 73
shrinkage=0.5


Tree=4
num_leaves=20
num_cat=0
split_feature=1 3 3 1 3 3 3 3 2 1 3 3 1 3 3 3 3 3 3
split_gain=2.05742e+08 3.23542e+07 2.18224e+07 4.78531e+06 4.32631e+06 2.76537e+06 2.52884e+06 988004 817732 652670 613374 418148 340936 321455 310401 880947 300509 259147 750841
threshold=0.052418025852587612 -0.87211663921328964 0.80695266816971978 -0.28821033918388361 -1.4275743495951922 1.2291005280599661 0.44511164540665155 -0.66262973129782898 -1.7403316388895949 1.4594996832929645 -1.2117393535610814 0.97518017735801177 0.59360327871427099 1.2989294973651195 -0.55788627734009877 -0.53884201298414791 -1.8687664738413894 -0.78641427556745158 -0.76102509713690891
decision_type=2 2 2 2 2 2 2 2 2 2 2 2 2 2 2 2 2 2 2
left_child=1 4 6 7 8 11 -2 17 16 13 -6 -4 -8 -7 -9 -16 -1 -3 -19
right_child=2 3 5 -5 10 9 12 14 -10 -11 -12 -13 -14 -15 15 -17 -18 18 -20
leaf_value=-295.73975996537644 24.237535845382521 -72.71095795697029 106.08691413061959 -13.058079030108356 -158.7843890947147 152.0188582965306 56.82588404417038 -30.188029241561889 -194.68528467099341 214.72847080230713 -125.87535517858564 136.9755407386356 88.476816174638174 172.03239039957089 -146.54060897827148 -56.323162349669829 -230.9519816239675 -164.89939692020417 -91.056896032592064
leaf_count=22 493 109 280 494 274 392 126 80 338 64 293 180 262 411 30 276 96 40 247
internal_value=0 -209.386 218.016 -103.166 -341.876 299.019 96.0048 -151.839 -414.392 332.271 -283.557 236.348 156.397 324.525 -115.837 -130.336 -486.062 -186.932 -202.697
internal_count=4507 2299 2208 1276 1023 1327 881 782 456 867 567 460 388 803 386 306 118 396 287
shrinkage=0.5


Tree=5
num_leaves=20
num_cat=0
split_feature=2 3 3 3 3 3 2 3 3 3 0 3 0 3 3 3 3 3 2
split_gain=5.2041e+07 7.35311e+06 6.38759e+06 1.31439e+06 1.17691e+06 745153 583567 577961 363140 286380 260492 215167 180375 167076 262880 395378 124488 326576 120311
threshold=0.0065112916820300485 0.61651002461021009 -0.91337921198451666 0.97518017735801177 -1.6053208169174014 -0.50075348427224597 -1.6580528052032502 -1.7164123589937819 0.1150110632368349 0.080096578584258157 1.4324363757369674 0.06422635828763236 -1.195586595909558 -0.71976252436568189 -0.78641427556745158 -0.81180980208611153 -0.55788627734009877 -0.59280076199267551 1.2849977843467706
decision_type=2 2 2 2 2 2 2 2 2 2 2 2 2 2 2 2 2 2 2
left_child=2 8 4 -3 6 13 7 -1 9 11 18 -2 -6 14 15 -4 17 -15 -5
right_child=1 3 5 10 12 -7 -8 -9 -10 -11 -12 -13 -14 16 -16 -17 -18 -19 -20
leaf_value=-117.9849604382927 1.2094732667460586 49.667916171223681 -53.503631133982474 72.296060808928587 -82.151436069410209 -18.302428395135856 -163.64358290186468 -50.871842074394223 24.759851993115479 -21.575998420185513 101.88359124319894 25.457832767707959 -64.082295364803741 -38.23192420326361 -74.392771398027733 6.5648224792059731 -54.550831175469732 14.844488707455723 83.750615097755613
leaf_count=162 264 513 141 491 513 514 53 40 363 90 126 140 189 238 96 34 77 33 430
internal_value=0 99.9226 -115.556 140.804 -175.709 -64.7479 -233.894 -209.39 25.5061 7.86056 161.122 19.2247 -154.573 -88.1171 -106.734 -83.6664 -73.6192 -63.5375 155.288
internal_count=4507 2417 2090 1560 957 1133 255 202 857 494 1047 404 702 619 271 175 348 271 921
shrinkage=0.5


Tree=6
num_leaves=20
num_cat=0
split_feature=2 3 3 3 0 2 3 3 3 3 3 3 3 3 2 3 2 3 3
split_gain=1.32956e+07 2.19959e+06 1.26404e+06 303447 250220 207567 179383 144490 143539 181881 134381 124905 271595 117718 368031 102170 100314 90944 65416
threshold=-0.18652751042824009 0.80695266816971978 -1.0593852387134739 0.3530643676862219 -1.6113728390082234 -1.6580528052032502 1.257670098637951 -1.7164123589937819 -0.1039979768566011 -0.072254362219290921 -0.71976252436568189 0.28958348649971871 0.1927751426903013 0.86725950529689777 0.87676818644144483 0.84504119688162171 1.5191760033002131 -1.8687664738413894 0.77203818351714293
decision_type=2 2 2 2 2 2 2 2 2 2 2 2 2 2 2 2 2 2 2
left_child=2 3 4 8 5 7 13 17 -2 -10 -4 12 -11 15 -15 -3 -8 -1 -5
right_child=1 6 10 18 -6 -7 16 -9 9 11 -12 -13 -14 14 -16 -17 -18 -19 -20
leaf_value=-88.877402999184355 27.576430082321167 33.69175731358321 -27.59189276844652 20.836272532728934 -40.271444151184234 -89.898080190022782 41.925666290780775 -25.435920822620393 -39.406365315119423 1.6042428900737589 -15.968643062772973 -27.658517718315125 48.091244784268468 -28.153221042067916 31.771522429419228 69.539432307652064 72.993071909304021 -54.296277313573022 -1.4068868832869663
leaf_count=22 54 46 383 404 598 45 690 40 27 656 709 33 33 27 502 35 27 140 36
internal_value=0 47.1529 -62.5621 16.9252 -91.6023 -118.378 75.4671 -104.695 5.35945 1.76954 -40.0906 4.783 7.66152 62.8619 57.426 98.363 86.1911 -117.985 38.0328
internal_count=4507 2570 1937 1243 845 247 1327 202 803 749 1092 722 689 610 529 81 717 162 440
shrinkage=0.5


Tree=7
num_leaves=20
num_cat=0
split_feature=1 3 3 3 1 3 3 3 1 3 3 3 3 3 3 1 3 3 3
split_gain=3.36585e+06 661790 288355 218386 124877 110623 97672.8 87333.1 142993 72712.6 95154.1 116656 77740.2 56436.5 72376.9 43269.1 131093 41200.7 39421.6
threshold=-0.28502689651999136 0.55302914342370701 -1.4275743495951922 -1.4720109664257446 -1.571134549289799 0.94978465083935182 -1.4434445698918181 0.51335359268214253 0.479002526256813 -0.83720215456071279 -0.78641427556745158 -0.77372127337420959 -0.85942046297598884 0.86725950529689777 0.83869310876297132 -1.5265663519953074 -1.5037482329749376 0.8958290758748827 0.92439229836475068
decision_type=2 2 2 2 2 2 2 2 2 2 2 2 2 2 2 2 2 2 2
left_child=2 7 3 4 -1 13 -5 8 -2 12 -11 -12 -4 14 -3 -6 -17 -15 -19
right_child=1 5 9 6 15 -7 -8 -9 -10 10 11 -13 -14 17 -16 16 -18 18 -20
leaf_value=-28.475421906966304 1.4917228110207503 11.887641414245472 -15.963384815740829 -68.751071237382433 5.4619996612136426 20.411025915488526 -27.625598473982379 -23.682748570586696 38.356142679850258 8.28089090603501 -48.1541489419483 -10.299817881603358 -46.23747314106334 -9.2285330549199536 32.360662961006163 -41.157991224321826 3.480151957587192 22.444082063787125 0.7099595246491609
leaf_count=288 1022 316 587 42 37 1111 22 33 27 67 21 660 22 47 50 29 38 34 54
internal_value=0 22.4183 -33.3122 -55.0679 -46.2253 35.2591 -109.228 3.28766 4.88114 -26.0015 -19.3965 -22.9343 -34.1141 22.923 29.369 -16.5239 -31.6817 5.44734 18.2145
internal_count=4507 2694 1813 456 392 1612 64 1082 1049 1357 748 681 609 501 366 104 67 135 88
shrinkage=0.5


Tree=8
num_leaves=20
num_cat=0
split_feature=1 1 3 1 3 1 1 1 3 2 1 2 2 2 3 1 2 3 1
split_gain=889112 142585 85562 83292.8 172594 46800.8 43745.2 55265.6 132254 48176.6 105982 40363.7 90274.1 86882.8 45800.2 45255.5 35579 56348.3 39837
threshold=0.058784911180372122 -1.2145921543765297 1.2291005280599661 1.1093209902648165 1.0227908382478892 1.214377781615924 -1.8512806871549807 -1.8035290471965968 -1.7608489758243342 -1.6770402283616372 -1.6507206158871053 -0.33526232516894 -0.30677802586083353 -0.39538600059997392 -0.29761466447543578 -0.4776251776854728 -1.474504550101648 -1.4434445698918181 -1.496323646688331
decision_type=2 2 2 2 2 2 2 2 2 2 2 2 2 2 2 2 2 2 2
left_child=1 6 3 4 -2 -5 -1 -8 -9 -10 -11 13 -13 15 -14 -3 18 -18 -12
right_child=2 11 -4 5 -6 -7 7 8 9 10 16 12 14 -15 -16 -17 17 -19 -20
leaf_value=-29.295606355409365 4.7012745178018518 -6.2362906065013188 11.155447217419898 -30.061927740390484 47.516109863917031 1.2723326249556108 6.8875700298108553 -48.39178123474121 0.072659368868227353 -40.027332565363714 -8.7824293697202531 25.371616017433904 -25.833195853233338 -31.707176968455315 -1.4819092763611157 6.3217767347127962 -30.68561028374566 -11.682323743255472 11.483663115008124
leaf_count=37 1224 894 867 26 24 22 38 25 81 34 148 31 20 32 559 78 45 293 29
internal_value=0 -13.4922 14.6213 9.47705 11.0493 -31.4008 -25.0893 -23.3006 -25.4516 -22.6209 -25.9799 -8.24697 -1.83125 -12.145 -4.64612 -10.4571 -22.4099 -28.4247 -10.924
internal_count=4507 2344 2163 1296 1248 48 730 693 655 630 549 1614 610 1004 579 972 515 338 177
shrinkage=0.5


Tree=9
num_leaves=20
num_cat=0
split_feature=3 2 3 2 1 2 3 3 3 1 3 1 3 1 1 3 3 2 2
split_gain=247050 104356 48154 99271.9 47805.3 49795.9 131643 74465 49869.2 46729.9 46297.4 43326.1 91276.7 104571 30582.3 159086 192101 40024.9 45534.1
threshold=0.22451875732761148 0.31031322678675144 -0.66897781941647938 -0.66121308938792078 0.14155760388423391 0.1141066895795577 0.080096578584258157 0.070577620450341258 0.092792754821558784 -0.68295722950652327 0.3530643676862219 -0.58745394958975561 -0.55788627734009877 -0.53969912618870863 1.379913616695658 1.3449563102693929 1.308451629543095 1.4020868938234916 1.414745175929083
decision_type=2 2 2 2 2 2 2 2 2 2 2 2 2 2 2 2 2 2 2
left_child=2 -2 9 -4 5 6 7 11 -8 -1 -3 -5 -13 -14 15 16 -12 -16 -19
right_child=1 10 3 4 -6 -7 8 -9 -10 -11 14 12 13 -15 17 -17 -18 18 -20
leaf_value=-4.6126323530436864 40.422110760211943 -15.373011112213135 32.466506470333449 -17.170082821732475 -16.563190823793413 11.965811789035797 -33.006618034007936 13.419989863167638 -6.6986742634927072 -23.377741932868958 3.5936089557032922 25.923240915421516 -34.951735164808191 -0.79987803741612218 24.685947508425325 -17.180373471358727 31.836209751310804 -12.737418862489553 9.5382287820562333
leaf_count=1370 20 30 22 42 50 72 43 92 31 34 1359 31 23 880 37 87 63 26 195
internal_value=0 9.00838 -6.08485 -1.66402 -2.82315 -1.57508 -3.1832 -0.357053 -43.9714 -10.1341 8.20888 -2.92071 -1.50784 -3.3395 8.87025 7.15004 9.68973 18.9315 13.8351
internal_count=4507 1817 2690 1286 1264 1214 1142 1068 74 1404 1797 976 934 903 1767 1509 1422 258 221
shrinkage=0.5


Tree=10
num_leaves=20
num_cat=0
split_feature=3 1 1 2 2 3 3 3 2 3 2 2 3 1 3 1 3 3 2
split_gain=63210.2 36077.6 37488.6 24811.6 17474 73251.3 28729.2 16010.1 102229 69587.8 56100.3 82308.9 70503.8 27279.4 23875.6 19458.7 22701.5 23328.2 18771.7
threshold=-0.35474745754328868 -0.30731099516723714 -0.28821033918388361 1.5255051443530088 -0.25614806200899326 -0.22461165111095713 -0.27539635606015961 -1.4085300852392415 -1.366912316774646 -1.3450460300086797 -1.3099500472994843 -1.2783043420355058 -1.2530019263323087 -1.418332484865634 -1.2180874416797318 -1.4310630720785398 -1.4720109664257446 -1.5196184532715635 -0.45551600517205915
decision_type=2 2 2 2 2 2 2 2 2 2 2 2 2 2 2 2 2 2 2
left_child=7 -2 -3 4 6 -6 -4 13 -9 -10 -11 -12 -13 15 -14 16 17 -1 -16
right_child=1 2 3 -5 5 -7 -8 8 9 10 11 12 14 -15 18 -17 -18 -19 -20
leaf_value=-4.9122822738129148 14.515023715220964 -14.587029966148171 1.2948078841579205 18.556617367835273 -27.010301361913267 1.3323842843431373 21.15036404132843 24.46284023491112 -21.292152653569762 17.179913716438488 -25.630427994661861 26.060620523017384 -14.39987898678393 -20.885767602920531 -0.9128582724947818 10.940834647133237 -14.04805329654898 5.8772879111564764 -9.8944546868724199
leaf_count=332 52 37 49 21 23 2580 29 37 46 39 36 23 37 25 943 21 56 59 62
internal_value=0 2.93649 2.4411 2.87403 2.60583 2.1639 17.354 -4.77607 -2.83675 -4.4516 -2.91292 -4.2332 -2.64354 -9.587 -3.85236 -7.86774 -9.26536 -6.56838 -2.93389
internal_count=4507 2791 2739 2702 2681 2603 78 1716 1223 1186 1140 1101 1065 493 1042 468 447 391 1005
shrinkage=0.5


Tree=11
num_leaves=20
num_cat=0
split_feature=3 0 3 3 3 3 0 0 1 3 3 0 1 3 1 0 0 1 0
split_gain=29038 51689.4 29221.3 20623.2 19102.3 38262.8 57303.8 12775.7 12181.9 13398.2 50448.6 14224.1 41444.8 69401.3 46621.6 43340.2 80351.4 37752.6 33716.5
threshold=0.75299391916119196 0.76908275125131043 0.7910824478730939 0.71490539044929002 0.69268708203401397 0.6768168617373882 0.63736738253106917 0.81351792226948849 -1.8512806871549807 -1.7894153723582604 -1.7608489758243342 -1.681199536322503 -1.631623143346415 -1.6656276540445794 -1.5902352052731525 -1.5510679640549818 -1.5256764377588801 -1.7271264232631827 -1.4875891483147277
decision_type=2 2 2 2 2 2 2 2 2 2 2 2 2 2 2 2 2 2 2
left_child=3 -2 -3 4 5 6 8 -4 -1 -10 -11 17 13 -13 -14 -16 -17 -12 -18
right_child=1 2 7 -5 -6 -7 -8 -9 9 10 11 12 14 -15 15 16 18 -19 -20
leaf_value=-9.8853457328435539 23.981474032768837 -15.460496368408203 12.767781188854805 -12.129288846254349 9.8876371156601675 -17.285428442273822 21.856357940605708 1.5754314161972875 8.0051448878853826 -25.910993945598602 -0.84860818169333718 5.7009667058785753 16.769117731797067 -30.112691871581539 -18.876080744194262 30.928773975372316 -13.24856598454493 24.072033291771298 -0.62530473323163782
leaf_count=37 26 25 26 40 42 35 28 1317 43 20 55 24 38 31 33 20 54 21 2592
internal_value=0 3.79313 2.95364 -1.69856 -1.40491 -1.6984 -1.31437 3.58422 -1.73916 -1.51153 -1.77242 -1.4234 -1.79082 -28.9698 -1.24466 -1.73438 -1.28855 12.0747 -1.76584
internal_count=4507 1394 1368 3113 3073 3031 2996 1343 2968 2931 2888 2868 2792 55 2737 2699 2666 76 2646
shrinkage=0.5


Tree=12
num_leaves=20
num_cat=0
split_feature=3 3 3 3 0 3 2 2 0 3 3 0 2 3 3 3 2 3 3
split_gain=10717 20554.4 18339 10463.2 86115.2 55754.8 21072.4 40663.8 21943.3 57606.5 30838.5 19417 24180.3 13248.4 11666.5 65128.5 63569.8 10309 7555.99
threshold=0.94026569270543503 0.959309957061386 0.92439229836475068 1.2703631008311931 1.2800872179603571 1.2608441426972761 1.247022938029996 1.2375292264508022 1.1118683562486835 1.0100914879665301 1.2195783958819906 0.99125860634220031 0.97803760785670246 1.2513188364752421 1.3449563102693929 1.368758466670273 1.3166434896107491 1.3052775854837699 1.3719356847736568
decision_type=2 2 2 2 2 2 2 2 2 2 2 2 2 2 2 2 2 2 2
left_child=2 -2 -1 5 -5 6 7 8 9 11 -10 12 -3 -8 16 -16 17 -6 -17
right_child=1 3 -4 4 14 -7 13 -9 10 -11 -12 -13 -14 -15 15 18 -18 -19 -20
leaf_value=-0.32482526780628357 11.349543116530594 -5.4844353254451308 -11.670559697681004 -21.037576715996924 -0.92424185408486259 14.962117162617771 -14.836094947655996 15.674368537962437 -19.822988522052764 19.670175564594757 1.2726836320830555 -10.23104223360618 12.079771240552267 -2.250222175017647 -19.848057213502052 -6.3059895863899822 30.929089534282685 6.7442716322247946 2.6046855024993421
leaf_count=3342 49 43 36 47 144 77 30 48 30 39 41 48 36 69 39 26 20 63 280
internal_value=0 2.66733 -0.891478 1.75848 -0.927638 5.36522 0.440624 4.80665 -0.56896 5.72395 -15.282 -4.5992 5.03901 -12.1282 2.45336 -1.20996 8.02097 2.81931 3.69514
internal_count=4507 1129 3378 1080 619 461 384 285 237 166 71 127 79 99 572 345 227 207 306
shrinkage=0.5


Tree=13
num_leaves=20
num_cat=0
split_feature=1 0 2 2 1 2 2 2 0 2 1 0 2 1 2 1 0 1 2
split_gain=6973.58 47142.6 52034.4 37692.6 22102.9 78166.9 28262.7 24171.3 19525.2 33134.1 55221.9 26764.6 76645 37625.8 14174.5 13396.5 40260.2 13851.5 27093.5
threshold=-1.2336928103598832 -1.3193702866030539 -1.2941271946674948 -1.2086837904547523 -1.392864943554496 -1.366912316774646 -1.3447603230898608 -1.4080517336178182 -1.195586595909558 -1.1580506620323865 -1.0681537918374859 -0.92897239585970415 -0.91754013745562268 -0.95195495116275552 -1.0472906936084609 -0.91216510130676565 -0.89088828035633794 -0.83894592003724366 -0.77197305781184622
decision_type=2 2 2 2 2 2 2 2 2 2 2 2 2 2 2 2 2 2 2
left_child=1 4 -3 -2 7 -6 -7 -1 -5 -10 -11 13 -13 14 -12 -14 -17 -18 -19
right_child=3 2 -4 8 5 6 -8 -9 9 10 11 12 15 -15 -16 16 17 18 -20
leaf_value=-0.56112999268243324 14.812504291534424 -30.766151578338057 -3.7112811649074922 -10.377962701022625 34.805660367012024 -9.2132764211515106 10.284082300522748 -17.886322645913985 16.495228136739424 -20.60038332361728 7.7186641136805214 -30.813357900828123 -10.122973872769263 22.235000097841926 -8.9904490817676894 19.20093539782933 -7.2413182575856485 8.7173527983888501 0.065706247790826233
leaf_count=487 44 27 52 44 20 41 34 21 31 32 30 20 31 33 22 28 62 93 3355
internal_value=0 -2.94583 -25.9158 0.525243 0.0634978 14.0637 -0.748948 -2.55466 0.186606 0.433186 0.160851 0.521104 0.105736 18.0594 1.29885 0.451673 0.633026 0.331736 0.59812
internal_count=4507 682 79 3825 603 95 75 508 3781 3737 3706 3674 3589 85 52 3569 3538 3510 3448
shrinkage=0.5


Tree=14
num_leaves=20
num_cat=0
split_feature=3 1 0 1 0 3 0 3 1 1 3 1 3 0 3 0 3 3 0
split_gain=5467.41 4920.55 48630.3 34742.6 7780.92 10817.5 17362.2 29171.2 11690.9 5967.41 5272.36 16207.8 18457.3 9528.93 4696.66 23835.8 12818.2 3835.16 7271.55
threshold=-1.8687664738413894 1.1889070568621227 1.0420416589344039 1.2239249261649376 1.2451738693032175 1.2544928805345672 1.270565395599319 1.2830592770684939 1.2653096807955369 1.2366586968205067 1.0100914879665301 0.99153361170080301 0.98152509143260358 1.0039543694902513 1.3449563102693929 1.3657836192097004 1.3147997176617452 1.50841640528058 1.4451321388850182
decision_type=2 2 2 2 2 2 2 2 2 2 2 2 2 2 2 2 2 2 2
left_child=-1 2 10 -3 9 -6 8 -8 -7 -5 11 12 -2 -13 16 -16 -9 18 -17
right_child=1 3 -4 4 5 6 7 14 -10 -11 -12 13 -14 -15 15 17 -18 -19 -20
leaf_value=-7.8629744486375293 -0.10159731638322096 18.419388489265526 -21.769630303749672 1.2231328406849422 -5.9470335183774727 3.2124745696783066 -10.237165556469961 1.2361651186613327 14.649954622791659 10.471263733777134 7.1688259160518646 -16.054156539440154 12.565251235304208 -1.4117235273122788 -15.885654449462891 1.5526018314129484 13.287204580307007 6.0622725140663887 -4.4483347315054678
leaf_count=22 3458 28 26 37 68 80 67 188 31 33 25 25 29 20 23 226 25 31 65
internal_value=0 0.0771394 -0.4484 2.16473 1.05389 0.173493 1.28843 -0.758414 12.8135 11.1659 -0.133426 -0.235855 0.00749571 -19.0928 1.60891 -0.670686 5.30121 1.55079 0.424373
internal_count=4507 4485 3583 902 874 804 736 625 111 70 3557 3532 3487 45 558 345 213 322 291
shrinkage=0.5


Tree=15
num_leaves=20
num_cat=0
split_feature=3 3 3 0 0 2 0 0 3 3 3 3 3 3 0 2 3 0 3
split_gain=2957.55 82397.4 47694.4 30318 32020.2 28466.9 23686.3 19912.2 45927.5 33439.6 16104 16555.3 15747.2 28567.8 14084.8 11872.7 25924.9 9914.06 9251.96
threshold=-0.71976252436568189 -0.70071826000973092 -0.69119295378769696 -0.68458212920051154 -0.62427725424726999 -0.77197305781184622 -0.80201476437919561 -0.90358404350438859 -0.88798685950991529 -0.91337921198451666 -0.85942046297598884 -0.82133193426408702 -0.55788627734009877 -0.53884201298414791 -0.67188636605246066 -0.92703701360534196 -1.0530371505948235 -0.70997048155582698 -0.74515487684028325
decision_type=2 2 2 2 2 2 2 2 2 2 2 2 2 2 2 2 2 2 2
left_child=5 17 -3 -4 14 6 7 9 -9 15 -10 -12 -6 -14 -5 16 -1 -2 -7
right_child=1 2 3 4 12 18 -8 8 10 -11 11 -13 13 -15 -16 -17 -18 -19 -20
leaf_value=-0.39028286978844423 24.947241158320985 -16.643353049145187 13.79962345212698 -0.57009672880172735 8.9973972594738001 -15.105068732325623 11.91466470360756 -25.043915737133759 6.1698461189502627 19.590191786939446 -13.51718150441711 2.1471441272766358 -15.301594646771749 0.20527957725952223 -15.1053000497818 -8.3462135167348954 11.320546326637269 12.362983984105727 -4.1203480462233228
leaf_count=862 29 43 40 25 50 41 40 26 41 22 37 31 30 2978 50 42 50 34 36
internal_value=0 0.495736 -0.205878 0.242428 -0.106845 -1.32371 -0.0783997 -0.939164 -12.3223 0.635342 -3.31396 -12.7522 0.393816 0.101247 -20.5205 -0.253538 0.503516 36.3115 -19.9387
internal_count=4507 3279 3216 3173 3133 1228 1151 1111 135 976 109 68 3058 3008 75 954 912 63 77
shrinkage=0.5


Tree=16
num_leaves=20
num_cat=0
split_feature=1 1 0 3 1 3 0 3 0 0 0 1 0 0 3 3 0 0 3
split_gain=2673.14 19118.6 18542.9 16800.4 20372.6 10910.2 31086.7 37110.8 25458.8 25901 17486 13521.1 9245.13 10999.9 12469.2 9230.44 8579.52 8404.1 6124.7
threshold=-1.6507206158871053 -1.5902352052731525 -1.681199536322503 -1.5672322882054994 -1.5265663519953074 -1.4434445698918181 -1.3987188062783715 -1.3672675124680143 -1.471719444379664 -1.4875891483147277 -1.3479357536861682 -1.4310630720785398 -1.7319825889147065 -1.7668959375718463 -1.8211526389074535 -1.3323530278154376 -1.6113728390082234 -1.8494183980341767 -1.2530019263323087
decision_type=2 2 2 2 2 2 2 2 2 2 2 2 2 2 2 2 2 2 2
left_child=2 16 12 -3 -5 8 11 -8 9 -6 -9 -7 13 14 17 -12 -2 -1 -17
right_child=1 3 -4 4 5 6 7 10 -10 -11 15 -13 -14 -15 -16 18 -18 -19 -20
leaf_value=2.1759544279840259 4.2855868392130905 -12.95885077059269 -11.430963802337647 12.811694575894263 -5.3693431150913238 -0.19753377210526241 -19.309258747100831 10.984901431534025 -15.227672564677704 15.920720005035401 -8.6786585584763554 14.921055280566215 7.5219529657750517 -8.2370405313445296 9.2347130880636321 4.4581083567937219 16.957572728395462 -9.7573078155517585 -0.10422999555101761
leaf_count=36 34 25 40 31 50 21 25 36 39 20 31 50 37 41 34 75 22 25 3835
internal_value=0 0.171524 -3.45787 -0.0710304 0.0823441 -0.106985 0.157244 -0.210733 -9.9804 1.42706 0.0307036 20.8987 1.02862 -2.78436 3.12383 -0.169704 18.5277 -5.42945 -0.0334342
internal_count=4507 4294 213 4238 4213 4182 4073 4002 109 70 3977 71 173 136 95 3941 56 61 3910
shrinkage=0.5


Tree=17
num_leaves=20
num_cat=0
split_feature=2 2 0 0 0 2 2 1 0 1 0 0 0 0 1 0 1 2 1
split_gain=2383.19 13954.8 14948.3 4901.41 13281.8 8050.91 3382.58 2117.91 2040.51 5685.2 4525.66 1963.12 50911.6 28046.3 24893 14449.7 26167.2 13164.8 49892.6
threshold=1.4210774815524045 1.4020868938234916 1.3880012047187893 1.4451321388850182 1.4514800204590437 1.4337325990874705 1.4796188717202396 1.5231685365708096 1.3530910300024359 1.3194282060817053 1.372134674724512 -0.6941039515615498 -0.70679654076881426 -0.68458212920051154 -0.71797191536667493 -0.72584018549089058 -0.74662608278436837 -0.78463133991743772 -0.76891018143161405
decision_type=2 2 2 2 2 2 2 2 2 2 2 2 2 2 2 2 2 2 2
left_child=1 2 8 5 -5 -2 -6 -8 9 11 -10 12 14 -13 15 16 17 -1 -19
right_child=3 -3 -4 4 6 -7 7 -9 10 -11 -12 13 -14 -15 -16 -17 -18 18 -20
leaf_value=-0.055132483530149587 0.95705152630805967 -8.6415678871438857 13.328395678883506 -10.764127731323242 7.8200309121090434 11.54656140932015 -2.6218989445612979 3.9648565209430195 -4.9561084372098332 8.2149750789006557 1.9952809340075444 12.447482702524766 -16.877877621547036 -0.00027494488663419532 12.49128095461772 -13.669167539477348 17.37705506881078 -26.500663128766146 3.885794496536255
leaf_count=1135 50 47 21 24 23 28 26 23 61 21 38 46 46 2781 39 20 21 22 35
internal_value=0 -0.145719 0.0422089 3.62874 -1.15533 9.51683 5.63564 0.939687 -0.0888359 0.0177913 -4.5758 -0.0653583 -1.07325 0.404542 0.10866 -0.678106 -0.238531 -0.855012 -15.6846
internal_count=4507 4333 4286 174 96 78 72 49 4265 4166 99 4145 1318 2827 1272 1233 1213 1192 57
shrinkage=0.5


Tree=18
num_leaves=20
num_cat=0
split_feature=3 2 3 3 2 2 2 3 3 3 3 3 3 1 2 1 2 3 3
split_gain=2262.86 42865.8 19534.8 18620.6 13997.7 24934.9 10715.4 17366.5 9685.05 12343.4 20981.4 8525.51 11746.4 8438.74 13024.7 19679.1 16245.3 21002.6 20936.4
threshold=-0.66262973129782898 -0.64222566622953348 -0.70071826000973092 -0.71976252436568189 -0.67703594201991013 -0.68336191850218009 -0.77197305781184622 -0.82133193426408702 -0.85942046297598884 -0.90385707980654117 -0.91972730010316694 -0.59280076199267551 -0.55788627734009877 -1.0522333950753615 -1.1580506620323865 -1.1891246130653916 -1.199190078875559 -1.2180874416797318 -1.2530019263323087
decision_type=2 2 2 2 2 2 2 2 2 2 2 2 2 2 2 2 2 2 2
left_child=2 -2 3 6 5 -4 7 8 9 10 13 -3 -13 14 15 16 17 18 -1
right_child=1 11 4 -5 -6 -7 -8 -9 -10 -11 -12 12 -14 -15 -16 -17 -18 -19 -20
leaf_value=0.11168748527320463 22.231991537592627 -9.1132861328124992 -4.5186379100337177 8.4451523233973784 1.9442825383610196 -22.800040102922001 -6.0789989720691331 7.7043231267859973 -8.2130456031897126 6.325425556477378 -12.32047979896133 9.539973829731796 0.055031743717529724 5.0996681238923758 -7.3041174002547766 14.366843804069187 -10.845964260399342 12.360269344214236 -11.805504098916666
leaf_count=670 22 25 66 63 36 26 77 69 39 68 37 33 3008 70 67 23 36 33 39
internal_value=0 0.480328 -1.04528 0.123022 -12.8287 -19.3702 -0.737189 0.0268447 -0.954065 -0.375533 -1.28404 0.164724 0.315919 -0.362711 -1.21449 -0.0941635 -0.946401 0.0601209 -1.08768
internal_count=4507 3088 1419 1291 128 92 1228 1151 1082 1043 975 3066 3041 938 868 801 778 742 709
shrinkage=0.5


Tree=19
num_leaves=20
num_cat=0
split_feature=3 3 2 1 2 3 2 1 3 2 2 1 2 1 2 2 1 2 1
split_gain=1723.05 30337.7 31304.6 9167.29 8450.64 33665.4 19478.7 18634.6 7306.02 30365.8 14236.9 55729.8 51890.8 19530.2 7031.93 6042.19 9508.35 18045.1 5549.08
threshold=-1.7164123589937819 -1.6656276540445794 -1.6406476673080619 -1.7398601939187517 -1.5789385420433033 -1.6053208169174014 -1.5393814104633299 -1.510649138675846 -1.3926598649426156 -1.3510862995721309 -1.4618494325665823 -1.4087821568739571 -1.4207100157234098 -1.478817895479587 -1.3447603230898608 -1.3320988764137438 -1.2559737255644658 -1.2371617606218075 -1.0792958411611087
decision_type=2 2 2 2 2 2 2 2 2 2 2 2 2 2 2 2 2 2 2
left_child=3 -2 -3 -1 5 -4 -6 -8 10 -10 13 12 -12 -9 -11 -16 -17 -18 -19
right_child=1 2 4 -5 6 -7 7 8 9 14 11 -13 -14 -15 15 16 17 18 -20
leaf_value=0.11825462464076369 14.315879692902437 -19.320411545889719 -3.3625717708042688 -9.8293059159602443 -11.630105700343847 21.960274304485036 11.884917345913975 -4.3737043321132658 14.158196097926089 -8.7608734161957447 -8.8337606993214841 -29.932452905745734 19.685283108191058 13.441046571731567 8.2703080502423365 -5.7319331934882536 15.04717652797699 -3.2605244399994375 0.10086375546884185
leaf_count=134 37 21 35 28 36 21 33 40 38 23 58 21 22 25 22 72 20 127 3694
internal_value=0 0.11939 -0.125494 -3.20215 0.0631749 12.267 -0.0983504 0.100416 -0.0872556 0.182786 -6.58778 -14.0171 -1.98205 4.95625 -0.0873193 0.0145846 -0.0783294 0.135094 -0.0217199
internal_count=4507 4345 4308 162 4287 56 4231 4195 4162 3996 166 101 80 65 3958 3935 3913 3841 3821
shrinkage=0.5


Tree=20
num_leaves=20
num_cat=0
split_feature=3 0 3 3 2 3 3 3 0 2 2 3 3 0 0 3 0 2 2
split_gain=1688.23 3678.08 4939.81 9178.21 6580.95 3735.91 20807.7 11663.6 25560.1 27917.1 10602.2 8932.95 8679.53 33779.2 17851.6 14406.1 11257 10884.1 8388.43
threshold=-1.8687664738413894 -1.824026871738075 -1.7608489758243342 -1.7894153723582604 -1.7245087862576056 -1.5196184532715635 -1.4878811867223705 -1.4624888342477691 -1.4399768625687506 -1.4207100157234098 -1.4080517336178182 -1.4720109664257446 -1.3450460300086797 -1.3193702866030539 -1.297152701093965 -1.2530019263323087 -1.2019313035427974 -1.1580506620323865 -1.5393814104633299
decision_type=2 2 2 2 2 2 2 2 2 2 2 2 2 2 2 2 2 2 2
left_child=-1 -2 3 -3 -4 18 -7 11 -9 -10 -11 -8 -12 -14 -15 -16 -17 -18 -6
right_child=1 2 4 -5 5 6 7 8 9 10 12 -13 13 14 15 16 17 -19 -20
leaf_value=-4.3693062608892266 4.985996394544034 1.8179081508091517 6.4972005547621308 -13.148452985286713 -1.0256573093491932 11.421748920716345 -1.0617342710494995 14.121640916913748 -16.396443737240936 10.986531149257313 -5.0797185129429918 -16.005757093429565 16.526743619672715 -13.932314287061276 9.0345069766044617 -6.0097638727762757 7.3867143523693084 -0.03990182366849894 -11.611248816762652
leaf_count=22 37 21 39 20 172 40 20 32 26 22 83 20 31 23 44 78 50 3706 21
internal_value=0 0.042865 -0.039729 -10.9655 0.0619178 -0.0535508 0.145291 -0.0742809 0.091709 -0.130012 0.0803513 -17.0675 -0.0396087 0.174009 -0.0872735 0.077471 -0.129005 0.117923 -4.35491
internal_count=4507 4485 4448 41 4407 4368 4175 4135 4095 4063 4037 40 4015 3932 3901 3878 3834 3756 193
shrinkage=0.5


Tree=21
num_leaves=20
num_cat=0
split_feature=1 1 1 2 1 0 1 0 0 1 2 0 0 0 2 2 0 0 2
split_gain=1976.32 153716 123633 55249 65579.5 8699.84 25278 15043 7239.81 15585.5 15060.5 4735.47 3334.25 23677.5 24257.5 31093.8 11915.1 7235.6 30112.9
threshold=-0.027168040744718767 -0.060594188715587437 -0.0048839420974729859 -0.10424867674189545 -0.1290382059892709 0.039076370238386636 0.030133927205341821 0.04542425181241206 -0.24975224137977012 -0.27547656852831459 -0.21184407463942306 0.020032725516310357 -0.3037092347589862 -0.32275287948106246 -0.39538600059997392 -0.4491868641192634 -0.28466559003690994 -0.67188636605246066 -0.68336191850218009
decision_type=2 2 2 2 2 2 2 2 2 2 2 2 2 2 2 2 2 2 2
left_child=1 3 -2 4 8 6 11 -7 9 12 -10 -4 13 14 15 17 -14 18 -1
right_child=2 -3 5 -5 -6 7 -8 -9 10 -11 -12 -13 16 -15 -16 -17 -18 -19 -20
leaf_value=-0.062848618428645545 -36.012868473927178 42.921157235190982 -2.6698591687061168 -21.375730570157369 27.389946737072684 -10.604760008699754 17.999434892947857 -0.0096768102700694122 -11.174706070922142 13.081142435903134 1.9832653931596063 4.5078922808170319 -10.169090390205383 13.83060755652766 -12.280970536358655 15.614527065306902 1.7637419517223651 -2.4691674781106685 13.691096718718367
leaf_count=1355 24 21 54 30 22 34 26 2286 43 23 44 40 35 31 40 32 52 274 41
internal_value=0 0.727228 -0.602973 -0.156757 0.48473 0.0995456 8.40214 -0.329899 -0.121612 0.290452 -9.0402 0.769006 -0.0294683 0.267116 -0.22038 0.35169 -6.07365 -0.239972 0.682199
internal_count=4507 2043 2464 2022 1992 2440 120 2320 1970 1883 87 94 1860 1773 1742 1702 87 1670 1396
shrinkage=0.5


Tree=22
num_leaves=20
num_cat=0
split_feature=1 3 2 2 1 2 3 3 3 3 3 1 3 1 1 2 1 2 1
split_gain=1797.44 8301.3 3727.92 6509.74 3627.35 6462.4 5245.52 5046.97 5264.31 3964.65 3813.01 7104.46 26243.7 24865.3 9346.01 6142.2 6695.12 11984.9 4570.6
threshold=-1.8289934050650716 -1.7894153723582604 -1.7403316388895949 -1.7245087862576056 -1.6507206158871053 -1.5789385420433033 -1.6053208169174014 -1.5196184532715635 -1.4878811867223705 -1.6783206562378215 -1.4434445698918181 -1.3673942188006947 -1.3545713362307137 -1.392864943554496 -1.418332484865634 -1.3320988764137438 -1.2336928103598832 -1.2086837904547523 -1.0792958411611087
decision_type=2 2 2 2 2 2 2 2 2 2 2 2 2 2 2 2 2 2 2
left_child=-1 -2 -3 -4 9 6 -6 -7 -9 -5 -10 13 -13 14 -12 -14 -17 -18 -19
right_child=1 2 3 4 5 7 -8 8 10 -11 11 12 15 -15 -16 16 17 18 -20
leaf_value=-2.8150640917675838 9.3093389173348751 -4.9459134653994914 8.8099831115631826 -0.29073075276045574 1.8460675705046881 -4.7446002630250792 11.524390004930043 5.7422982439398762 -3.9129908007960164 -7.6780787110328674 5.6208832408930807 -16.548218270142872 6.1238734867514637 19.495886348542712 -5.617332374727404 -4.2905491570631664 8.4721095902579169 -3.6030353362532868 0.06346673413387055
leaf_count=56 24 38 21 42 42 56 21 40 62 32 37 24 41 21 37 90 42 87 3694
internal_value=0 0.0708351 -0.0297179 0.0556683 -0.0287754 0.0908541 10.1444 -0.0588435 0.0676476 -6.97052 -0.0427945 0.0756827 -0.128415 8.622 0.00355087 0.0716945 -0.0558849 0.144813 -0.0417974
internal_count=4507 4451 4427 4389 4368 4294 63 4231 4175 74 4135 4073 3978 95 74 3954 3913 3823 3781
shrinkage=0.5


Tree=23
num_leaves=20
num_cat=0
split_feature=0 1 3 0 3 3 1 3 3 1 3 0 3 1 0 1 0 3 0
split_gain=1319.03 35035.3 18650.6 6566.4 9740.8 13044.9 16012.9 13620.5 6701.04 9997.8 6529.07 5025.03 10449.7 6462.24 11452.4 6855.95 3180.47 2771.62 18529.1
threshold=-0.90358404350438859 -0.9217154292984423 -0.88798685950991529 -1.0368895565589225 -1.0657333268321241 -1.1768248689085048 -1.2145921543765297 -1.2022140473390472 -1.2530019263323087 -1.2750743815478194 -1.2180874416797318 -1.3479357536861682 -1.3323530278154376 -1.4087821568739571 -1.3701533391952572 -1.418332484865634 -1.3574544021064201 -0.66262973129782898 -0.69092683683375078
decision_type=2 2 2 2 2 2 2 2 2 2 2 2 2 2 2 2 2 2 2
left_child=1 3 -2 4 5 6 8 -8 9 11 -10 13 -13 15 -15 -1 -16 18 -4
right_child=2 -3 17 -5 -6 -7 7 -9 10 -11 -12 12 -14 14 16 -17 -18 -19 -20
leaf_value=0.0020107735648878617 -13.484329489561228 16.047603675297328 0.43325807831912155 -4.9120547413825992 6.676640074167933 -9.7278037351720474 18.885655257105828 2.6116469502449036 -9.6770032991965618 10.351768452188242 0.84114246368408208 -10.971307769417763 0.55530010835797183 11.384535954279059 -5.3243749957709081 -9.4511219918727871 3.4857617616653442 0.12015022030255547 -7.8401911279734442
leaf_count=468 26 35 332 65 56 34 20 36 36 23 25 32 51 34 21 20 20 3088 85
internal_value=0 1.02898 -0.28442 -0.12651 0.593061 -0.278369 0.551181 16.8476 -0.698954 0.21592 -10.7326 -0.513515 -7.77739 0.557358 9.1994 -0.770825 -2.05349 -0.0864769 -2.50635
internal_count=4507 976 3531 941 876 820 786 56 730 669 61 646 83 563 75 488 41 3505 417
shrinkage=0.5


Tree=24
num_leaves=20
num_cat=0
split_feature=1 1 1 2 3 2 2 2 2 2 3 3 1 3 1 1 3 2 3
split_gain=1279.17 37701 30908.3 14348.2 20284.5 2974.66 6093.21 4410.46 9793.01 9621.18 8490.1 8261.67 3155.31 3133.78 2151.23 18942.5 16931.9 4277.49 39719.5
threshold=-0.027168040744718767 -0.060594188715587437 -0.0048839420974729859 -0.10424867674189545 -0.1357352434057941 -0.25614806200899326 -0.27513548516738046 -0.28146462622017621 -0.30045204937856346 -0.39538600059997392 -0.3388772372466628 -0.45313964933831002 -0.22772492856993082 -0.31665892883138674 0.036500812533126335 0.042867697860910846 0.032485917694380757 0.082460984315578981 0.092792754821558784
decision_type=2 2 2 2 2 2 2 2 2 2 2 2 2 2 2 2 2 2 2
left_child=1 3 -2 4 5 6 7 8 9 11 -11 -1 -7 -12 16 -16 -4 -17 -19
right_child=2 -3 14 -5 -6 12 -8 -9 -10 10 13 -13 -14 -15 15 17 -18 18 -20
leaf_value=0.079607324257948905 -18.098242441813152 21.36877121244158 -1.3554444905820784 -10.779674033323923 15.335438804870302 -7.6685130794843035 6.1553928192172735 -6.5311851978302 8.319987316926321 -12.410547990884099 3.3119828462600709 7.8417524882725305 -0.93138773171674638 -4.7680565039316809 -13.340019720572013 1.8389577843767382 12.518291073626486 -13.909496823182472 0.090682949886914735
leaf_count=1667 24 21 91 30 22 24 42 25 36 28 20 35 63 30 27 273 29 52 1968
internal_value=0 0.585069 -0.485104 0.147283 0.47419 0.136969 0.4011 0.129396 0.311001 -0.0192479 -10.8794 0.478457 -5.57981 -3.07208 -0.133844 -0.347392 3.99475 -0.037326 -0.539435
internal_count=4507 2043 2464 2022 1992 1970 1883 1841 1816 1780 78 1702 87 50 2440 2320 120 2293 2020
shrinkage=0.5


Tree=25
num_leaves=20
num_cat=0
split_feature=0 0 2 0 2 2 0 1 1 0 2 0 1 1 2 1 1 0 2
split_gain=1085.77 2624.05 3500.18 1725.36 25015.2 16077 4797.73 3503.6 6306.88 11796.2 11951.1 4774.39 15845.9 10184.7 8440.91 4210.58 3623.92 25249.1 19747.2
threshold=1.4673497243941072 1.4451321388850182 1.4337325990874705 1.1118683562486835 1.0191738601293492 1.2312000853980065 1.2451738693032175 0.99153361170080301 0.96924951305355711 0.95952237241285954 0.94955330854859588 0.86430414880247808 0.84827869182565141 0.905580659775712 0.91790760328461718 0.94060171252118996 0.77187606789223728 0.75956092889027238 0.79448935275510013
decision_type=2 2 2 2 2 2 2 2 2 2 2 2 2 2 2 2 2 2 2
left_child=1 2 3 4 7 -5 -7 8 9 10 11 12 16 -13 -15 -16 17 -1 -18
right_child=-2 -3 -4 5 -6 6 -8 -9 -10 -11 -12 13 -14 14 15 -17 18 -19 -20
leaf_value=-0.022394388997235452 2.2285617914188793 -3.9604754029285338 5.5829724328858514 -9.4656046337010906 14.74750742316246 4.1336755542481534 -0.49522119435098244 -3.9568376180800526 5.281538959135089 -10.631096812394949 9.9951756119728081 -7.5379919473780319 13.172482731873574 8.7768044471740723 -5.9949368852557559 3.1991117894649506 -14.73780931876256 17.799934613704682 1.6402058012428737
leaf_count=3123 54 42 28 49 29 61 680 55 57 26 30 64 23 24 33 20 26 20 63
internal_value=0 -0.05405 0.0208559 -0.0503425 0.243855 -1.38838 -0.22833 0.0058404 0.129971 -0.0423025 0.118736 -0.0568085 0.189971 -5.75374 1.99461 -5.05097 0.0038434 0.182031 -6.28877
internal_count=4507 4453 4411 4383 3593 790 741 3564 3509 3452 3426 3396 3255 141 77 53 3232 3143 89
shrinkage=0.5


Tree=26
num_leaves=20
num_cat=0
split_feature=3 2 1 1 3 2 2 3 3 1 2 1 2 1 1 2 1 2 1
split_gain=968.008 13485.8 4609.99 15356.8 17273.4 5435.2 11950.3 10419.8 7838.58 18341.3 2706.15 2674.17 2482.68 2080.8 6032.85 4385.1 4076.55 9582.2 7411.47
threshold=-1.7164123589937819 -1.6580528052032502 -1.571134549289799 -1.5265663519953074 -1.5037482329749376 -1.4618494325665823 -1.4460265799345928 -1.4275743495951922 -1.3926598649426156 -1.4087821568739571 -1.3447603230898608 -1.7398601939187517 -1.4903274027336375 -1.2559737255644658 -1.3100954342932973 -1.2371617606218075 -1.2209590397043142 -1.199190078875559 -1.1891246130653916
decision_type=2 2 2 2 2 2 2 2 2 2 2 2 2 2 2 2 2 2 2
left_child=11 -2 -3 -4 -5 12 -7 -8 9 -9 -10 -1 -6 14 -12 -15 -17 -18 -19
right_child=1 2 3 4 5 6 7 8 10 -11 13 -13 -14 15 -16 16 17 18 -20
leaf_value=-0.27145046902014247 9.1831283569335938 -3.6641733803905461 10.175302196193385 -12.216453835881989 0.45489713549613953 -12.230162891745568 9.3058461586634316 1.4095704017146942 3.3363850468494851 -18.011546921730041 2.4130195960020409 -5.6441216245293617 7.4028666814168291 7.4216007709503176 -5.7168116721239954 5.6183420065790415 -9.4345683168481891 -7.1212285061677294 0.087501731051319045
leaf_count=134 40 86 37 29 20 20 30 31 61 20 39 28 36 20 55 32 27 36 3726
internal_value=0 0.0894866 -0.0803324 0.067411 -0.112043 0.0577869 -0.0759613 0.0436579 -0.0939851 -12.4131 0.063241 -2.40012 9.8429 -0.0392193 -4.68759 0.0745394 -0.00276324 -0.097686 0.0370373
internal_count=4507 4345 4305 4219 4182 4153 4097 4077 4047 51 3996 162 56 3935 94 3841 3821 3789 3762
shrinkage=0.5


Tree=27
num_leaves=20
num_cat=0
split_feature=0 2 3 0 3 0 0 3 3 0 0 2 3 0 3 2 0 3 3
split_gain=1106.94 18609.7 23295.1 15800.8 13737.1 7164.69 12599.3 5233.71 4557.98 3813.17 4348.99 5444.44 36081.6 11056.1 9494.05 6185.36 4588.06 7439.51 3712.2
threshold=-0.67188636605246066 -0.68652965359910378 -0.68484803971310515 -0.62427725424726999 -0.69437017189108063 -0.70045183313557524 -0.70997048155582698 -0.66262973129782898 -0.71976252436568189 -0.57666814244207931 -0.54651253102467234 -0.45551600517205915 -0.43092451496709244 -0.3037092347589862 -0.28809253229746029 -0.48082940481271647 -0.50684144512779972 -0.52297179268752203 -0.35474745754328868
decision_type=2 2 2 2 2 2 2 2 2 2 2 2 2 2 2 2 2 2 2
left_child=1 4 -3 7 5 6 8 -2 -1 -5 -11 15 -13 18 -15 16 17 -12 -14
right_child=3 2 -4 9 -6 -7 -8 -9 -10 10 11 12 13 14 -16 -17 -18 -19 -20
leaf_value=0.10432405322752132 -3.6620524468330236 -2.3107244918743768 18.438269726691708 5.3280002276102705 -11.610578145980835 7.1773245632648468 -10.869226315846809 -13.601090307588931 6.4464937777354798 -5.8739813547581434 -0.88269487236227306 -17.412069312731425 1.1494941115379333 -9.158326792305914 -0.063104261907668976 9.262183959445645 -1.8404828351840639 11.113937001675367 7.8578825793389617
leaf_count=1225 26 24 31 33 25 36 26 27 29 32 28 30 32 29 2704 31 57 24 58
internal_value=0 0.739819 18.7683 -0.331979 0.000394677 0.441534 0.0502272 -17.4507 0.501986 -0.0352849 -0.151917 -0.0279367 -0.326706 0.0398977 -0.319228 6.06056 2.51581 9.30842 10.9454
internal_count=4507 1396 55 3111 1341 1316 1280 53 1254 3058 3025 2993 2853 2823 2733 140 109 52 90
shrinkage=0.5


Tree=28
num_leaves=20
num_cat=0
split_feature=0 1 0 2 0 2 1 1 1 0 2 1 0 0 0 2 0 0 2
split_gain=790.539 20126.7 14220.3 18505 13875.2 8009.87 7852.63 4397.15 5224.97 4696.28 12460.8 3306.67 20318.6 3237.06 2859.42 3629.99 2853.67 9700.42 6153.09
threshold=-1.4875891483147277 -1.510649138675846 -1.4399768625687506 -1.4207100157234098 -1.4526757996575876 -1.5393814104633299 -1.4087821568739571 -1.5902352052731525 -1.6507206158871053 -1.6685037731744521 -1.7150150746784119 -1.2336928103598832 -1.2146302406316345 -1.471719444379664 -1.2749351155848758 -1.2941271946674948 -1.7319825889147065 -1.74785229284977 -1.7957116231015575
decision_type=2 2 2 2 2 2 2 2 2 2 2 2 2 2 2 2 2 2 2
left_child=1 5 4 -4 13 7 -5 8 9 10 16 14 -13 -2 15 -8 17 18 -1
right_child=2 -3 3 6 -6 -7 11 -9 -10 -11 -12 12 -14 -15 -16 -17 -18 -19 -20
leaf_value=-1.3561213257946545 6.753709963389805 -12.897789493683845 -12.425378084865709 9.4593669314953406 17.993030007396424 7.8103357363830916 -2.0714263186074686 -5.075894599737123 4.6670708370261957 6.1572295156392185 -11.102494231585798 12.634877629578114 -0.017341447818507577 -1.9250670346346768 -6.2763498804785991 5.1362739324569704 4.9509277355212431 -10.378647453405641 6.6076997921402967
leaf_count=79 21 31 30 22 21 33 138 43 56 22 29 32 3792 22 33 20 26 22 35
internal_value=0 -1.3882 0.126353 -0.106392 14.9166 0.804928 0.0774895 -0.762122 0.738829 -1.52097 -3.11458 -0.0257502 0.17707 4.62681 -4.0864 -2.31812 0.302837 -1.53227 2.17782
internal_count=4507 376 4131 4067 64 345 4037 312 269 213 191 4015 3824 43 191 158 162 136 114
shrinkage=0.5


Tree=29
num_leaves=20
num_cat=0
split_feature=2 3 2 3 3 2 1 3 3 1 2 1 3 2 3 2 3 1 2
split_gain=1093.85 3948.54 1567.7 6764.4 5847.28 4038.94 3630.97 2654.37 6580.35 5116.92 4129.97 3350.68 12556.4 10516.1 5974.35 18699.3 3915.23 8181.46 5640.2
threshold=-1.8447624662607247 -1.8211526389074535 -1.6580528052032502 -1.7164123589937819 -1.6053208169174014 -1.5789385420433033 -1.631623143346415 -1.5196184532715635 -1.4878811867223705 -1.4438000261767721 -1.4333682978290014 -1.392864943554496 -1.4180522174172168 -1.366912316774646 -1.3323530278154376 -1.3099500472994843 -1.2530019263323087 -1.2209590397043142 -1.2783043420355058
decision_type=2 2 2 2 2 2 2 2 2 2 2 2 2 2 2 2 2 2 2
left_child=-1 -2 3 -3 6 -6 -4 -7 -9 -10 -11 12 -12 -13 -15 -16 18 -18 -17
right_child=1 2 4 -5 5 7 -8 8 9 10 11 13 -14 14 15 16 17 -19 -20
leaf_value=2.5708262571474401 -6.8635876065208796 -0.54280024856328968 -1.6405601809422174 7.1506064355373384 6.9372391019548685 -3.4336129980427876 -9.9907217544058096 6.4140138685703274 -4.7769801888082712 6.5748682816823321 4.012445554275204 11.210217981111436 -10.850222102801006 -4.8000124804675579 14.950268382117862 0.012615501880645752 -6.929308434558469 0.006543646820031012 10.150590336841086
leaf_count=41 21 100 30 40 21 56 23 40 56 24 27 21 30 64 21 34 43 3792 23
internal_value=0 -0.0472028 0.017427 3.31063 -0.0896691 0.0404472 -10.5284 -0.0282162 0.0635167 -0.0599611 0.0703807 -0.00703106 -7.62002 0.101508 -0.0163437 0.140404 -0.0201718 -0.142449 8.20675
internal_count=4507 4466 4445 140 4305 4252 53 4231 4175 4135 4079 4055 57 3998 3977 3913 3892 3835 57
shrinkage=0.5


Tree=30
num_leaves=20
num_cat=0
split_feature=2 1 2 2 1 2 3 3 3 1 3 2 2 1 1 1 2 1 2
split_gain=1061.43 4826.37 2539.64 5830.55 3832.05 4953.43 3383.91 2337.3 1612.84 4720.78 8036.26 2973.25 3404.2 22010.9 4874.67 2270.21 14022.6 3724.17 4159.44
threshold=-1.8194459020495415 -1.8512806871549807 -1.7403316388895949 -1.7245087862576056 -1.6507206158871053 -1.6200779588864755 -1.6783206562378215 -1.7894153723582604 -1.5830993344580666 -1.5265663519953074 -1.5037482329749376 -1.4618494325665823 -1.4207100157234098 -1.4310630720785398 -1.4087821568739571 -1.2559737255644658 -1.2371617606218075 -1.3100954342932973 -1.3510862995721309
decision_type=2 2 2 2 2 2 2 2 2 2 2 2 2 2 2 2 2 2 2
left_child=1 -1 7 -4 6 -6 -5 -2 -7 -10 -11 -12 13 -13 -14 17 -17 18 -16
right_child=2 -3 3 4 5 8 -8 -9 9 10 11 12 14 -15 15 16 -18 -19 -20
leaf_value=-1.5104249586930145 1.0104391813278197 7.5937144160270691 8.3260354882194889 -0.6414738389707747 7.0537095069885254 -3.2917378915322795 -7.4663665415719151 -5.6984233819955108 4.8534022998809814 -8.3283750908128145 3.6426060944795609 3.0077232573181392 7.4524919824166735 -17.307419145107268 -3.3221315571240018 12.9541817960285 -0.001620726232377686 -5.1803756529634652 2.6226836738567196
leaf_count=37 20 24 21 42 25 37 32 37 50 29 56 40 22 20 56 21 3821 55 62
internal_value=0 4.14306 -0.0568436 0.0292866 -0.0506306 0.0723281 -7.18556 -6.68887 -0.00986384 0.0476087 -0.0678767 0.0479618 -0.0509608 -7.52798 0.0601666 -0.0211749 0.138389 -3.56478 -0.397169
internal_count=4507 61 4446 4389 4368 4294 74 57 4269 4232 4182 4153 4097 60 4037 4015 3842 173 118
shrinkage=0.5


Tree=31
num_leaves=20
num_cat=0
split_feature=1 1 3 1 3 2 2 3 2 2 1 1 2 2 2 1 2 1 3
split_gain=790.501 14823.4 4990.48 4220.15 3613.9 3641.42 2594.87 2565.24 6087.24 2726.93 12162.2 4635.2 13920.6 16549 5450.59 12849.2 8867.16 6488.82 4205.22
threshold=-1.4087821568739571 -1.3673942188006947 -1.3926598649426156 -1.418332484865634 -1.3545713362307137 -1.3320988764137438 -1.3099500472994843 -1.2530019263323087 -1.2213420725603441 -1.1580506620323865 -1.1891246130653916 -1.0522333950753615 -0.93652756061400988 -0.91754013745562268 -0.87007474413018027 -0.91216510130676565 -0.85741329745406314 -0.8866975599956276 -1.2022140473390472
decision_type=2 2 2 2 2 2 2 2 2 2 2 2 2 2 2 2 2 2 2
left_child=3 2 -2 -1 -3 -6 -7 -8 -9 10 18 -11 -13 -14 15 -15 -16 -17 -10
right_child=1 4 -4 -5 5 6 7 8 9 11 -12 12 13 14 16 17 -18 -19 -20
leaf_value=-0.29697396274273974 15.184064760059119 -6.1415219381451607 4.1481527671927498 -7.7135931327939034 4.7002026046194683 -5.5795712925138927 3.3230073242856744 -6.6198868172509329 2.6943522678180174 -4.1841128299485391 13.267752786477407 10.738863638043403 -10.189960521459579 -4.4533101474085166 -10.561243212223053 12.64348438206841 -0.0028006614290667056 2.2611123279288963 -5.0609801884355212
leaf_count=468 20 24 21 20 41 21 57 35 44 67 21 30 40 31 20 34 3457 27 29
internal_value=0 0.145935 19.063 -1.20187 -0.0490382 0.0252198 -0.0730124 -0.0131951 -0.112172 0.0087405 5.32778 -0.126173 0.0255766 -0.152746 0.073953 7.67121 -0.127067 16.096 -0.773066
internal_count=4507 4019 41 488 3978 3954 3913 3892 3835 3800 94 3706 3639 3609 3569 92 3477 61 73
shrinkage=0.5


Tree=32
num_leaves=20
num_cat=0
split_feature=0 3 3 0 2 0 2 2 2 0 0 0 3 0 0 3 0 0 2
split_gain=826.3 5512.36 3419.71 1954.79 8914.06 7265.77 4818.73 3962.21 2525.71 2356.7 13550.4 8695.54 4030.85 5923.66 3155.18 3769.3 4169.88 3209.75 16039.9
threshold=-1.681199536322503 -1.7291085352310824 -1.6449931936149071 -1.5256764377588801 -1.5631156894113138 -1.4875891483147277 -1.4618494325665823 -1.6010905357280885 -1.5093148258920246 -1.4114145694264224 -1.4241071586336871 -1.3987188062783715 -1.3672675124680143 -1.3479357536861682 -1.2527175300757869 -1.2752202347475847 -1.297152701093965 -0.90358404350438859 -0.88273302623577177
decision_type=2 2 2 2 2 2 2 2 2 2 2 2 2 2 2 2 2 2 2
left_child=1 -1 -2 4 7 8 -7 -4 -5 10 -8 -11 -13 -14 15 16 -15 -16 -19
right_child=2 -3 3 5 -6 6 9 -9 -10 11 -12 12 13 14 17 -17 -18 18 -20
leaf_value=-0.28762313327424122 -4.479771148326785 6.8862993337891316 2.9432163740459241 -2.394515867586489 9.7691184787877976 5.9514799757915382 1.5952938389778137 -4.2771945344774345 -9.2335502262468694 9.7188898480456807 -13.539622349398476 -6.2363257591540995 6.3942763283848763 -3.4891294772426287 1.5752826073853123 -8.9414454936981205 4.4291601284690527 -11.433633936989692 -0.009969021333381534
leaf_count=142 43 33 38 27 28 34 50 38 27 23 21 26 36 60 307 20 23 31 3500
internal_value=0 2.13035 -0.0860597 0.00290268 4.28546 -0.103522 0.0471258 -1.33398 -11.6281 -0.0512628 -5.76246 0.0494563 -0.061943 0.0191931 -0.0974516 -5.55934 -2.58981 0.0491285 -0.220523
internal_count=4507 175 4332 4289 104 4185 4131 76 54 4097 71 4026 4003 3977 3941 103 83 3838 3531
shrinkage=0.5


Tree=33
num_leaves=20
num_cat=0
split_feature=0 1 3 3 3 1 3 1 1 0 3 0 0 3 3 3 3 3 1
split_gain=851.619 2192.04 1824.84 5199.48 1473.05 1754.36 3266.02 3197.9 3210.61 10798.2 4806.31 3835.56 2052.17 4368 3141.33 2689.59 3273.17 3135.13 13054.1
threshold=-1.824026871738075 -1.8512806871549807 -1.7164123589937819 -1.6656276540445794 -1.6243650812733523 -1.5902352052731525 -1.5354918476122477 -1.510649138675846 -1.4438000261767721 -1.4241071586336871 -1.4720109664257446 -1.4114145694264224 -1.3384139313251302 -1.3545713362307137 -1.2339576619763577 -1.2180874416797318 -1.2117393535610814 -1.1768248689085048 -1.0792958411611087
decision_type=2 2 2 2 2 2 2 2 2 2 2 2 2 2 2 2 2 2 2
left_child=1 -1 -2 -4 -5 -6 -7 -8 10 -10 -9 -11 13 -13 -14 -16 -17 -18 -19
right_child=2 -3 3 4 5 6 7 8 9 11 -12 12 14 -15 15 16 17 18 -20
leaf_value=-0.46291350029610301 -2.1050923473916008 5.8395162712443955 5.9261790417336133 -3.1257084231627617 3.6894238740205765 -4.3620945963748667 4.9204033866073145 0.35227989057699838 9.3374295696135494 -6.7698110512324741 -7.3403619108973324 0.0032921358942985535 -2.7381656144587501 6.9500608859640183 5.6642190955934071 -6.3895202577114105 3.7712563904848966 -10.985742551309091 0.048529308357865474
leaf_count=37 103 22 37 38 32 43 33 45 31 21 37 72 106 33 21 20 55 27 3694
internal_value=0 3.77429 -0.0500636 0.0485537 -0.0528253 0.00233784 -0.0533602 0.0355184 -0.0422266 0.0822879 -6.23758 -0.0600608 0.010215 4.37312 -0.106559 0.042562 -0.0198731 0.0477073 -0.0630733
internal_count=4507 59 4448 4345 4308 4270 4238 4195 4162 4080 82 4049 4028 105 3923 3817 3796 3776 3721
shrinkage=0.5


Tree=34
num_leaves=20
num_cat=0
split_feature=2 2 2 1 3 3 3 1 2 2 2 1 2 1 3 2 2 3 2
split_gain=665.351 4659.95 3011.98 1494.26 4886.45 3704.15 1198.67 9615.46 8210.5 4392.06 4869.49 6423.9 12425.2 13789.7 3101.53 3992.64 6522.21 10546.8 12306.3
threshold=-1.7957116231015575 -1.7593190620479822 -1.8447624662607247 -1.6857384851899202 -1.6656276540445794 -1.7386274933649994 -1.3323530278154376 -1.3514770054812335 -1.3099500472994843 -1.3510862995721309 -1.3922257164153031 -1.4087821568739571 -1.4207100157234098 -1.4310630720785398 -1.2530019263323087 -1.199190078875559 -1.1928577732522374 -1.1768248689085048 -1.0536198346612566
decision_type=2 2 2 2 2 2 2 2 2 2 2 2 2 2 2 2 2 2 2
left_child=2 -2 -1 5 -5 -3 7 9 -8 10 11 12 13 -6 -10 -16 -17 -18 -19
right_child=1 3 -4 4 6 -7 8 -9 14 -11 -12 -13 -14 -15 15 16 17 18 -20
leaf_value=1.5339564928194371 7.4561677319662909 3.1697473471814934 -4.6451564337077897 6.8620180166684666 -0.57948981931335053 -4.5923502968222492 9.9305866112311687 -9.7745352791888376 3.6785316132662591 6.2356381708383557 -6.6054072687702794 8.2022821849042717 10.760429861870678 -14.22968819141388 -3.6994258095956827 9.0392711877822869 -10.249493808746339 7.5478089266905082 -0.055711572372952121
leaf_count=41 21 22 38 26 247 51 21 28 57 25 31 22 22 20 73 20 25 54 3663
internal_value=0 0.0513205 -2.87655 -0.0194944 0.0560773 -4.50618 -0.0264127 -1.68664 0.14118 -0.323841 -1.25916 -0.0678333 -1.32179 -3.20395 0.0347772 -0.0740547 0.0680799 -0.0281813 0.109502
internal_count=4507 4428 79 4407 4334 73 4308 395 3913 367 342 311 289 267 3892 3835 3762 3742 3717
shrinkage=0.5


Tree=35
num_leaves=20
num_cat=0
split_feature=1 0 0 1 1 3 3 3 3 3 3 1 1 0 3 3 3 1 1
split_gain=755.337 20821.8 17734.7 3996.01 3054.8 1453.56 13370 8176.5 3343.71 10199.6 6066.37 8305.43 31296.4 19164.7 14618.8 13118 28248.2 22962.3 16203.7
threshold=1.1889070568621227 1.2293041653681538 1.0103022510642767 0.99790049702858752 1.0408769729911331 0.86725950529689777 0.84504119688162171 0.8958290758748827 0.77203818351714293 0.75299391916119196 0.71490539044929002 0.66682245998379297 0.6859231159671465 0.60086388953963665 0.69268708203401397 0.55302914342370701 0.51335359268214253 0.479002526256813 0.4503483588391195
decision_type=2 2 2 2 2 2 2 2 2 2 2 2 2 2 2 2 2 2 2
left_child=2 -2 3 5 -4 6 8 -7 9 10 11 13 -13 15 -14 16 17 18 -1
right_child=1 -3 4 -5 -6 7 -8 -9 -10 -11 -12 12 14 -15 -16 -17 -18 -19 -20
leaf_value=0.11694247832654224 12.547171704909381 -0.066240508512761184 -5.3347878058751421 6.4642800887425738 -12.856115129258898 -7.1171812256599996 9.8021171978541783 0.15096134434722058 -3.1751651662151987 9.0836794568646333 -6.1486341774463655 20.691360349240512 -10.570545315742493 -9.6080087515024033 4.8986649286179311 9.3051342689677288 -14.818845205008984 14.631935040156046 -10.558879507912529
leaf_count=2799 34 868 27 24 27 47 35 219 82 31 40 23 24 52 42 38 32 27 36
internal_value=0 0.818419 -0.204775 0.0687397 -18.1909 -0.0187669 0.164582 -2.26652 -0.0463252 0.118092 -0.0616467 0.0976195 9.6169 -0.1863 -1.453 0.151198 -0.0911807 0.239179 -0.037247
internal_count=4507 902 3605 3551 54 3527 3261 266 3226 3144 3113 3073 89 2984 66 2932 2894 2862 2835
shrinkage=0.5


Tree=36
num_leaves=20
num_cat=0
split_feature=1 2 0 1 1 1 0 1 2 2 0 1 1 0 1 0 2 1 2
split_gain=686.768 37196.6 23069.4 9024.65 21933.2 6142.8 7944.29 8082.58 3481.68 2575.47 7288.99 11792.1 5456.74 11035.6 7272.68 5927.58 18673.5 9097.02 30502.8
threshold=-0.67659034417873876 -0.68336191850218009 -0.66553848447843522 -0.70524132815376894 -0.71160821348155345 -0.71797191536667493 -0.72584018549089058 -0.74662608278436837 -0.69285879465189948 -0.77197305781184622 -0.80201476437919561 -0.8230287067177825 -0.89624788798730426 -0.87819251720828706 -0.83894592003724366 -0.9226276882264649 -0.90804959044695477 -0.95195495116275552 -0.92703701360534196
decision_type=2 2 2 2 2 2 2 2 2 2 2 2 2 2 2 2 2 2 2
left_child=1 3 -2 4 5 6 7 9 -5 10 11 12 15 -14 -15 17 -17 -1 -19
right_child=2 -3 -4 8 -6 -7 -8 -9 -10 -11 -12 -13 13 14 -16 16 -18 18 -20
leaf_value=-0.32027837800777564 13.701995034371652 -15.933192775056169 -0.0060674578636431241 8.8277005758136511 -16.605162709951401 8.3655438558621835 -9.9475469708442681 9.8233514995802018 2.0136920503667883 -3.9660101925454487 6.6980059370398521 -9.6309451665729284 11.467866236163724 -3.554311243693034 7.7143765290578203 -15.211163773536683 4.1141956663131714 18.265808068788967 -7.3549770060039705
leaf_count=885 31 37 3089 38 20 22 20 21 37 41 40 32 31 45 21 25 25 26 21
internal_value=0 -0.585464 0.260269 0.271865 -0.355217 0.168371 -0.127152 0.198783 10.9322 -0.14384 0.133584 -0.343911 0.217141 7.37241 0.0623606 -0.489642 -11.097 0.0794209 13.6364
internal_count=4507 1387 3120 1350 1275 1255 1233 1213 75 1192 1151 1111 1079 97 66 982 50 932 47
shrinkage=0.5


Tree=37
num_leaves=20
num_cat=0
split_feature=0 3 0 0 2 0 0 0 0 0 3 0 3 0 2 0 3 0 3
split_gain=647.143 3551.28 2658.61 3054.11 2496.42 3332.29 1498.76 5268.03 4494.02 5111.65 7781.57 3584.04 2718.06 4551.49 2516.8 17748 5203.34 13500.9 2611.52
threshold=-1.681199536322503 -1.6449931936149071 -1.7319825889147065 -1.74785229284977 -1.7957116231015575 -1.824026871738075 -1.5256764377588801 -1.5002817375219921 -1.4399768625687506 -1.4526757996575876 -1.4720109664257446 -1.5510679640549818 -1.3450460300086797 -1.3193702866030539 -0.92703701360534196 -1.0368895565589225 -0.91337921198451666 -0.9226276882264649 -1.2942644991035357
decision_type=2 2 2 2 2 2 2 2 2 2 2 2 2 2 2 2 2 2 2
left_child=2 -2 3 4 5 -1 11 -8 9 10 -9 -3 -10 -14 15 18 17 -16 -15
right_child=1 6 -4 -5 -6 -7 7 8 12 -11 -12 -13 13 14 16 -17 -18 -19 -20
leaf_value=1.2732041407439669 -4.5593673482883812 0.44996045356882469 4.5819306709827519 -5.4946305209940132 4.4551661985261104 -6.1949573397636417 -6.0617057466879487 6.7374516110867262 -2.2669628869604179 10.405875064787411 -4.5707789207326952 7.8976002931594849 6.0493392742449235 -4.7259948803828316 -3.677488743194512 -11.372940025268457 0.017580641343299269 13.85746285189753 0.54529787261100093
leaf_count=59 43 84 39 22 35 20 36 32 135 21 29 20 31 26 21 39 3548 23 244
internal_value=0 -0.0761607 1.8853 -0.201929 1.87984 -1.23494 0.0144969 -0.0786906 0.025819 7.35535 2.72282 3.7644 -0.121961 0.0295179 -0.0663919 -2.80497 0.169193 10.977 0.0753838
internal_count=4507 4332 175 136 114 79 4289 4185 4149 82 61 104 4067 3932 3901 309 3592 44 270
shrinkage=0.5


Tree=38
num_leaves=20
num_cat=0
split_feature=0 3 3 0 2 0 0 3 2 3 3 2 3 0 0 3 3 2 3
split_gain=590.876 23764 12094.5 1909.25 9622.83 7613.31 2347.29 5677.69 1660.86 5173.55 2038.8 1227.13 2172.47 3788.61 1233.76 1184.82 22952.1 13681.1 8720.6
threshold=1.1118683562486835 1.0227908382478892 1.2291005280599661 1.270565395599319 1.2786718078645003 1.2642175140252936 1.2451738693032175 1.248144792415917 0.962214755224713 0.9561359130020608 0.97518017735801177 1.2913269253995663 1.3449563102693929 1.3657836192097004 1.3118266258304843 0.6768168617373882 0.61651002461021009 0.71221051906875554 0.57842466994236685
decision_type=2 2 2 2 2 2 2 2 2 2 2 2 2 2 2 2 2 2 2
left_child=1 8 -2 5 -5 6 -4 -8 9 15 -10 -6 14 -14 -13 16 18 -17 -1
right_child=2 -3 3 4 11 -7 7 -9 10 -11 -12 12 13 -15 -16 17 -18 -19 -20
leaf_value=0.019470555029615158 -8.1707608921730763 15.453156824111938 2.2850052477821472 -7.4406774997711178 -2.2448328801867912 6.6176721820464497 -9.1806925773620609 -0.0026311086160000241 -6.0380141942397412 7.0766084469281711 -0.85339279803964829 1.0201286372880565 -6.5719571113586426 0.070482676906615305 4.0270732257101267 -7.1684016636439729 10.838917147748324 0.49808340552060498 -8.1544714407487344
leaf_count=2914 47 25 63 45 49 52 20 107 23 26 108 141 23 322 45 70 49 345 33
internal_value=0 0.18262 -0.717893 0.129062 -0.794337 2.51388 -0.420422 -2.89599 -0.0326523 0.100546 -3.52734 0.298621 0.740478 -0.744693 3.49523 -0.00656861 0.212781 -1.59012 -0.14412
internal_count=4507 3593 914 867 625 242 190 127 3568 3437 131 580 531 345 186 3411 2996 415 2947
shrinkage=0.5


Tree=39
num_leaves=20
num_cat=0
split_feature=1 3 3 1 0 0 1 1 3 1 0 1 3 1 3 3 1 1 0
split_gain=721.405 5628.05 4316.57 1129.47 7777.9 5240.49 7441.76 756.9 13108.7 18545.8 7649.89 5138.96 4858.98 4776.46 24911.8 21614.5 18191.6 11831.8 14064.5
threshold=-1.8289934050650716 -1.7894153723582604 -1.7608489758243342 -1.7271264232631827 -1.7319825889147065 -1.6685037731744521 -1.6507206158871053 0.065154979950819786 0.080096578584258157 0.096989406589742339 0.089859422830590022 0.052418025852587612 0.073748490465607844 0.29117622564450679 0.1927751426903013 0.3530643676862219 0.14155760388423391 0.4503483588391195 0.41994926467991212
decision_type=2 2 2 2 2 2 2 2 2 2 2 2 2 2 2 2 2 2 2
left_child=-1 -2 -3 4 -4 -5 -7 11 12 10 -10 -8 -9 14 16 -15 -11 18 -17
right_child=1 2 3 5 -6 6 7 8 9 13 -12 -13 -14 15 -16 17 -18 -19 -20
leaf_value=-1.7834073794739587 7.6585006068150205 -7.3478983759880068 -2.2287578071866716 -5.8601679017669275 10.131667459569872 9.2098092680627648 -0.063940015303296349 1.7329051756128973 -3.8228797179002028 3.174357935632627 -16.341173444753107 -4.0758327787899109 8.3716115317647422 -12.572625956114601 15.247644729912281 0.025115543976426125 -10.266147080589743 -0.085623105795971127 15.52048365716581
leaf_count=56 24 20 35 38 20 22 2084 49 26 97 23 83 63 34 32 32 34 1708 27
internal_value=0 0.0448757 -0.0379188 0.0286021 4.53188 -0.0283098 0.0746798 -0.019353 0.404719 -0.181133 -19.3976 -0.435205 10.9344 0.298301 5.48207 -0.170857 -0.628035 0.309692 14.2324
internal_count=4507 4451 4427 4407 55 4352 4314 4292 2125 2013 49 2167 112 1964 163 1801 131 1767 59
shrinkage=0.5


Tree=40
num_leaves=20
num_cat=0
split_feature=1 2 2 2 3 1 1 2 1 3 2 2 2 3 2 2 1 1 3
split_gain=636.252 2108.63 4338.64 2083.98 2042.62 1080.49 580.775 27414.1 10324.3 4603.21 2707 1794.9 1630.96 1683.01 1351.63 4330.03 1926.19 962.621 2599.35
threshold=1.4372155846457189 1.4020868938234916 1.3862640411915021 1.4970240096154279 1.4195463456635342 1.427665256654042 1.1889070568621227 1.221706373818813 1.0074508250202643 1.0481800166784321 1.0001864369709621 1.2375292264508022 1.2438583675035979 1.248144792415917 1.2723395022411788 1.2786718078645003 1.2589459789104156 1.2907804055493382 1.2957586273498529
decision_type=2 2 2 2 2 2 2 2 2 2 2 2 2 2 2 2 2 2 2
left_child=1 2 6 -2 -3 -6 8 -8 10 -10 -1 -9 -13 -14 16 -16 -15 -17 -19
right_child=3 4 -4 -5 5 -7 7 11 9 -11 -12 12 13 14 15 17 -18 18 -20
leaf_value=-0.020568081753675412 2.808381241811833 -4.7809395684136282 6.4649263803775492 -1.7041427314281463 1.8032044887542724 -2.2860361329146794 18.192871229989187 -3.5010581706699573 -10.754335824400187 -1.5939491788546245 5.5429969497702336 3.2581033320040316 -4.3578308768894365 -0.61178497121303899 -5.8166880386216304 1.9408877421509136 2.7802898562356329 -5.3223159660895663 0.12148593284013703
leaf_count=3527 71 45 26 40 30 35 21 38 32 24 22 37 23 79 35 55 89 24 254
internal_value=0 -0.059704 0.0512497 2.36449 -4.38286 -0.797389 -0.0273521 0.838874 -0.184739 -13.6569 0.0278401 -0.338546 0.0863124 -0.33928 0.0201544 -1.05279 2.37041 0.0592833 -0.696965
internal_count=4507 4396 4286 111 110 65 4260 655 3605 56 3549 634 596 559 536 368 168 333 278
shrinkage=0.5


Tree=41
num_leaves=20
num_cat=0
split_feature=2 2 1 0 2 1 2 1 0 0 2 1 0 1 1 1 2 0 0
split_gain=527.708 4095.26 3796.76 2342.69 2112.76 1751.79 837.018 2993.45 2839.76 2060.74 4649.55 1513.01 8249.18 2979.05 4866.92 7348.98 1482.23 1694.33 1240.65
threshold=-1.7245087862576056 -1.7403316388895949 -1.6857384851899202 -1.7668959375718463 -1.6580528052032502 -1.8289934050650716 -1.5393814104633299 -1.510649138675846 -1.4875891483147277 -1.4399768625687506 -1.4618494325665823 -1.2559737255644658 -1.230499944566698 -1.418332484865634 -1.392864943554496 -1.3673942188006947 -1.5789385420433033 -1.6113728390082234 -1.2019313035427974
decision_type=2 2 2 2 2 2 2 2 2 2 2 2 2 2 2 2 2 2 2
left_child=1 3 -2 5 -4 -1 16 -8 -9 10 -10 13 -13 -11 -15 -16 17 -6 -14
right_child=2 -3 4 -5 6 -7 7 8 9 11 -12 12 18 14 15 -17 -18 -19 -20
leaf_value=-0.8814203228269305 -5.2172720091683527 7.3923986412229992 4.3405832392828803 -4.7135933754236801 -2.0187618520524766 3.4831951642647767 4.7622593677405156 -4.7863626136414466 7.369186974472056 3.1760405423119664 -1.1709604911944445 8.7552992591151479 -2.2708816031614938 -7.2751140325433674 7.8756897108895441 -2.1790113590381766 -4.009749852948719 2.8821829007617357 0.020829308575963455
leaf_count=56 35 21 28 23 45 39 33 31 30 32 34 27 60 36 21 135 36 29 3756
internal_value=0 1.91817 -0.0610406 -0.371654 0.0227518 1.82074 -0.0335631 0.0378391 -0.0373797 0.0341758 5.66447 -0.0544248 0.0928312 -2.58078 -4.0696 -1.65099 -2.75658 -0.196243 -0.0304078
internal_count=4507 139 4368 118 4333 95 4305 4195 4162 4131 64 4067 3843 224 192 156 110 74 3816
shrinkage=0.5


Tree=42
num_leaves=20
num_cat=0
split_feature=0 3 0 0 1 0 1 3 0 1 0 3 0 3 0 3 1 3 0
split_gain=725.301 2645.25 1715.45 1957.87 2961.9 5559.56 2312.16 2309.79 1438.8 3111.19 5110.88 3486.04 3160.5 2099.86 1166.81 1104.82 1456.62 1387.44 4281.22
threshold=-1.8494183980341767 -1.8211526389074535 -1.74785229284977 -1.6685037731744521 -1.7271264232631827 -1.7319825889147065 -1.631623143346415 -1.6053208169174014 -1.5256764377588801 -1.4310630720785398 -1.3574544021064201 -1.4878811867223705 -1.471719444379664 -1.4434445698918181 -1.5764594903510833 -1.3323530278154376 -1.3514770054812335 -1.2530019263323087 -1.230499944566698
decision_type=2 2 2 2 2 2 2 2 2 2 2 2 2 2 2 2 2 2 2
left_child=-1 -2 -3 4 5 -4 -5 -8 14 11 -11 -10 -13 -14 -9 16 -12 -17 -19
right_child=1 2 3 6 -6 -7 7 8 9 10 15 12 13 -15 -16 17 -18 18 -20
leaf_value=2.175198291477404 -5.1472881984710694 2.8935100959942623 -5.2243803739547729 3.9050445193914989 -5.6698729838979869 6.4237862050533296 -4.9037940204143524 -0.074629610982434508 0.75532388567924502 3.6397590280808125 0.42683204412460329 -9.0903398373092603 0.44801447925896482 -6.2116000711917874 4.1366689820822913 2.1121558970526646 -4.8697138715673374 -7.3415589809417723 -0.0069982939293586101
leaf_count=38 25 51 21 38 38 20 24 29 50 97 25 26 29 20 38 76 27 20 3815
internal_value=0 -0.0369916 0.0207131 -0.0462302 -4.97953 0.915304 0.0441108 -0.024904 0.0303134 -0.0432893 0.108 -4.95716 -9.26902 -4.54039 4.62774 -0.0675333 -4.6466 -0.00665089 -0.0904979
internal_count=4507 4469 4444 4393 79 41 4314 4276 4252 4185 4060 125 75 49 67 3963 52 3911 3835
shrinkage=0.5


Tree=43
num_leaves=20
num_cat=0
split_feature=2 1 1 2 3 2 3 2 2 2 2 3 3 3 2 2 3 1 1
split_gain=493.918 1041.68 1332.53 847.768 1007.38 1006.85 1089.57 1138.25 814.869 659.367 2038.8 697.618 20703.4 21094 13721.6 12138.6 21008 6180.5 5626.33
threshold=1.5033531506682236 1.4435824699735031 1.4499493553012879 1.4305680285610725 1.4258912597381259 1.3925931822442978 1.3449563102693929 1.3039852075051577 1.3008206369787596 1.2913269253995663 1.2755072373381025 0.22451875732761148 0.37528267610149801 0.44511164540665155 0.33246205590101091 0.13942325379074069 0.12770723947413556 0.1097199938026482 0.46308531293735172
decision_type=2 2 2 2 2 2 2 2 2 2 2 2 2 2 2 2 2 2 2
left_child=1 3 -3 4 5 6 7 8 9 10 11 15 14 -14 -13 16 17 -1 -15
right_child=-2 2 -4 -5 -6 -7 -8 -9 -10 -11 -12 12 13 18 -16 -17 -18 -19 -20
leaf_value=0.011730795605675224 1.9272788510178074 -4.9643203516801195 -0.22909424549494034 2.1983787200667639 -3.2378387798865638 1.8914030632802419 -1.56638785834248 1.6705702683504891 -3.0553070957010444 1.6139723745084578 -2.8285196367651224 2.1116098840203552 -12.438974992317313 7.2012019498007636 16.34145347122103 -8.0057229995727539 16.160858726501466 -5.1220005949338274 0.023238366957576501
leaf_count=2562 33 24 39 44 24 70 111 102 22 62 64 36 34 28 32 48 20 60 1092
internal_value=0 -0.028431 -4.06598 0.0292352 -0.0147701 0.0209337 -0.040693 0.0417724 -0.0411181 -0.00805001 -0.0585107 0.0330808 0.659622 -0.339541 17.616 -0.251541 0.0347853 -0.211492 0.405375
internal_count=4507 4474 63 4411 4367 4343 4273 4162 4060 4038 3976 3912 1222 1154 68 2690 2642 2622 1120
shrinkage=0.5


Tree=44
num_leaves=20
num_cat=0
split_feature=0 0 3 0 3 3 2 3 2 2 3 3 3 0 2 3 2 0 2
split_gain=476.939 11295.2 5971.22 8472.07 1786.53 7094.93 21794.9 4736.68 5561.33 3276.38 1771.65 10103.7 20656.9 6741.6 6041.15 9925.8 16203.3 15885.1 20536.2
threshold=-0.90358404350438859 -0.89088828035633794 -0.92607221417775876 -0.9226276882264649 -1.1768248689085048 -1.2117393535610814 -1.1928577732522374 -1.0657333268321241 -1.0536198346612566 -0.93652756061400988 -0.82133193426408702 -0.78641427556745158 -0.77372127337420959 -0.75440882651479113 -0.70868164728388883 -0.70706317408432262 -0.69602336517829733 -0.68458212920051154 -0.68652965359910378
decision_type=2 2 2 2 2 2 2 2 2 2 2 2 2 2 2 2 2 2 2
left_child=2 -2 4 -4 5 -1 -7 -6 -9 -10 -3 -12 -13 -14 -15 -16 -17 18 -18
right_child=1 10 3 -5 7 6 -8 8 9 -11 11 12 13 14 15 16 17 -19 -20
leaf_value=-0.13171568414170856 -11.646944176583062 -2.2712358721915415 12.959784903309561 0.50557321061690652 -6.7885954279233429 14.566255522351112 -5.275990016460419 6.6745170131325722 -4.248429037630558 3.0305413285439666 7.0951956239342691 -15.697728384108771 7.3722666617362727 -4.7351870524571904 10.645681770010428 -12.442556582964384 0.41959590074561892 -0.077422357967392372 17.719161362483582
leaf_count=730 21 85 22 36 34 31 25 24 52 22 50 21 31 67 22 26 42 3137 29
internal_value=0 -0.171027 0.618745 10.4592 -0.00298152 0.568707 11.4162 -3.40712 0.121265 -4.16882 -0.0326846 0.0792371 -0.129817 0.0659428 -0.0709926 0.122422 -0.0215842 0.179928 14.9712
internal_count=4507 3531 976 58 918 786 56 132 98 74 3510 3425 3375 3354 3323 3256 3234 3208 71
shrinkage=0.5


Tree=45
num_leaves=20
num_cat=0
split_feature=3 3 0 0 3 0 3 0 0 0 3 0 3 0 0 0 0 3 2
split_gain=698.304 22739.4 16679.3 30100.9 13707.6 6774.38 5841.61 7472.3 6479.96 9433.63 5466.55 15125.1 14848.9 9066.15 3885.06 3583.37 3557.56 3835.85 3185.8
threshold=-0.66262973129782898 -0.62454120258592705 -0.69092683683375078 -0.68458212920051154 -0.57375649763672454 -0.557624497720003 -0.69437017189108063 -0.70679654076881426 -0.77662641202388027 -0.81471370146803268 -0.90385707980654117 -0.89088828035633794 -0.91972730010316694 -0.92897239585970415 -1.0368895565589225 -0.67188636605246066 -0.75440882651479113 -0.73563274466230777 -0.85741329745406314
decision_type=2 2 2 2 2 2 2 2 2 2 2 2 2 2 2 2 2 2 2
left_child=2 -2 6 -4 -3 -6 7 8 9 10 12 -12 13 14 -1 -5 -10 -18 -13
right_child=1 4 3 15 5 -7 -8 -9 16 -11 11 18 -14 -15 -16 -17 17 -19 -20
leaf_value=0.10006147500161575 13.392775187268853 -10.466006794283468 -20.871944648248178 2.8809133805334568 9.0509319390569409 0.039211014493867088 7.2881804960114618 -6.9194775835463878 7.8336204638083773 -6.7525471861545858 14.85585043223008 -2.0692478200564017 -10.074912130832672 9.7300981283187866 -5.064076961655366 -5.021652265236928 -3.0226704412036471 4.1725204728417475 3.711537865075198
leaf_count=876 32 31 27 32 21 3004 28 38 36 52 23 52 37 24 38 26 27 59 44
internal_value=0 0.266828 -0.580665 -14.1627 -0.0108552 0.203543 0.284759 -0.0216459 0.392437 -0.345151 0.280367 6.67885 -0.500575 0.274502 -0.22928 -1.32323 7.32093 3.82713 1.16056
internal_count=4507 3088 1419 85 3056 3025 1334 1306 1268 1146 1094 119 975 938 914 58 122 86 96
shrinkage=0.5


Tree=46
num_leaves=20
num_cat=0
split_feature=2 1 2 2 1 3 2 2 2 1 1 1 2 1 3 3 1 3 1
split_gain=420.968 1225.08 1003.69 1600.52 5104.01 1002.19 926.291 796.169 669.198 538.948 392.712 11016.9 5808.07 26224.5 11795.9 11127.3 10196.4 2786.58 9126.79
threshold=1.4970240096154279 1.4372155846457189 1.4020868938234916 1.3293017717163405 1.3130613207539208 1.4195463456635342 1.3672766180331151 1.4305680285610725 1.3799349001387065 1.3098778780900286 0.52356754010864137 0.46308531293735172 0.62677027942653873 0.66682245998379297 0.68633899391536368 0.60063980431358444 0.56813573740313295 0.33402010333027093 0.19567294572773911
decision_type=2 2 2 2 2 2 2 2 2 2 2 2 2 2 2 2 2 2 2
left_child=1 2 3 4 9 -4 -5 -7 -8 10 11 17 15 -14 -15 16 -12 18 -1
right_child=-2 -3 5 6 -6 7 8 -9 -10 -11 12 -13 13 14 -16 -17 -18 -19 -20
leaf_value=0.051501879934874789 -1.6148378759622575 2.0748246371955941 -3.323980979124705 4.2378177683928921 -7.4623205247132676 1.3161929191814528 0.032317241979023768 -2.2041031841574044 2.68903900604499 2.4749134562232276 6.2746211922529973 -7.6195108182728291 -17.590997695922852 10.566900268748954 -0.011489234600554813 11.576976753771305 -6.3536713815504502 2.6672092489898205 -6.7666765820980075
leaf_count=2673 40 71 45 29 23 36 63 29 38 22 33 48 21 27 1100 32 31 96 50
internal_value=0 0.0289204 -0.0376337 0.0389157 -0.0691626 -3.02028 3.4941 -0.508801 2.06375 0.0135076 -0.0129091 -0.216501 0.456301 -0.168541 0.483883 7.92837 0.315584 0.0392925 -0.147388
internal_count=4507 4467 4396 4286 4156 110 130 65 101 4133 4111 2867 1244 1148 1127 96 64 2819 2723
shrinkage=0.5


Tree=47
num_leaves=20
num_cat=0
split_feature=0 2 0 3 0 3 2 2 2 3 0 0 2 0 0 0 0 0 0
split_gain=455.322 4391.33 1529.88 1131.65 889.53 2783.38 1458.57 1032 832.018 2162.61 813.043 2523 2312.28 3465.61 4244.01 1679.28 1358.49 14784.1 4905.93
threshold=-1.824026871738075 -1.7957116231015575 -1.74785229284977 -1.8687664738413894 -1.722457592612882 -1.6783206562378215 -1.6406476673080619 -1.7245087862576056 -1.6010905357280885 -1.5830993344580666 -1.5256764377588801 -1.5002817375219921 -1.474504550101648 -1.4526757996575876 -1.4114145694264224 -1.3987188062783715 -1.195586595909558 -1.1543253656783927 -1.2082823590576088
decision_type=2 2 2 2 2 2 2 2 2 2 2 2 2 2 2 2 2 2 2
left_child=3 -2 -3 -1 7 -6 -7 -4 -8 -10 -11 -12 -13 -14 -15 -16 18 -18 -17
right_child=1 2 4 -5 5 6 8 -9 9 10 11 12 13 14 15 16 17 -19 -20
leaf_value=-1.4599263017827815 -7.4105142831802366 3.3076993584632874 0.010033467541570249 3.0684158222095386 5.3809128006299334 -3.0625006525944443 2.4027359237273536 -4.900907123088837 -5.1981916606426237 2.1039868732509404 -4.1773515045642853 4.1329799461014129 5.1757234800606966 -4.3321760453675919 4.2727919350499688 -0.26534992664661988 10.293589718001229 -0.031066971145606484 -6.6213041816438949
leaf_count=22 20 35 23 37 24 39 36 20 20 46 36 34 32 57 23 229 35 3704 35
internal_value=0 -0.0366065 0.0301704 2.75976 -0.0222955 0.0224438 -0.0371367 -4.54825 0.0182463 -0.0222948 0.0267436 -0.0192149 0.0531104 -0.0147479 -0.0959917 0.0253189 -0.0236359 0.13116 -2.21599
internal_count=4507 4448 4428 59 4393 4350 4326 43 4287 4251 4231 4185 4149 4115 4083 4026 4003 3739 264
shrinkage=0.5


Tree=48
num_leaves=20
num_cat=0
split_feature=3 2 0 0 3 3 2 0 3 0 3 3 2 3 3 2 0 2 0
split_gain=528.121 7601.11 3253.13 2466.11 3373.29 14572.7 13147.6 3662.65 5170.73 4642.99 20545.6 12992.4 4924.81 13899.8 4487.64 8212.69 5900.12 4721.7 12258.3
threshold=0.061052314228307189 0.069802702209987494 0.058120014960462908 0.070818952049300027 0.28958348649971871 0.1927751426903013 0.35144947905939811 0.44216685018900109 0.48954826223720377 0.66117193843366462 0.62920620084751089 0.69268708203401397 0.61094426222402365 0.57842466994236685 0.71490539044929002 0.74702079485913209 0.76908275125131043 0.79448935275510013 0.81351792226948849
decision_type=2 2 2 2 2 2 2 2 2 2 2 2 2 2 2 2 2 2 2
left_child=2 -2 -1 -3 5 -5 -6 -8 -9 10 12 -11 13 -10 -13 -16 -17 -18 -19
right_child=1 3 -4 4 6 -7 7 8 9 11 -12 14 -14 -15 15 16 17 18 -20
leaf_value=-0.10732265963007277 7.5949229825945466 -4.1646435471142036 -6.2162016169591388 0.45512260859378717 -9.7268261773245683 11.592649373141201 4.2351511389601466 -4.9263569875708164 2.5235230721095028 -8.4372341282989662 16.508363309113875 5.190044182823927 7.2875339090824127 -10.713072338274547 -8.6912792766535727 6.2578654916662915 -6.1587964902001042 12.06809521856762 -0.10806820864648464
leaf_count=2317 34 34 22 267 35 33 51 53 68 46 23 42 20 28 27 38 31 21 1317
internal_value=0 0.355556 -0.329562 0.119209 0.255994 3.3605 -0.261424 0.119158 -0.12933 0.180929 5.71333 -0.32433 0.299728 -2.6743 0.19146 -0.106951 0.224563 -0.116609 0.166075
internal_count=4507 2168 2339 2134 2100 300 1800 1765 1714 1661 139 1522 116 96 1476 1434 1407 1369 1338
shrinkage=0.5


Tree=49
num_leaves=20
num_cat=0
split_feature=1 3 0 3 1 3 1 3 3 0 0 1 1 0 0 1 0 0 0
split_gain=441.056 4401.74 1473.66 2057.91 1413.83 1157.04 1166.89 2960.28 3410.12 7296.09 5530.38 1967.31 6309.54 1385.27 1376.03 1382.62 9463.73 3433.78 4769.03
threshold=-1.8035290471965968 -1.7608489758243342 -1.681199536322503 -1.7291085352310824 -1.8512806871549807 -1.6449931936149071 -1.5902352052731525 -1.5196184532715635 -1.4878811867223705 -1.471719444379664 -1.4399768625687506 -1.418332484865634 -1.392864943554496 -1.5510679640549818 -1.3384139313251302 -1.0522333950753615 -0.93849739216152861 -1.1543253656783927 -1.195586595909558
decision_type=2 2 2 2 2 2 2 2 2 2 2 2 2 2 2 2 2 2 2
left_child=4 -2 3 -3 -1 -4 -7 13 -9 -10 -11 -12 -13 -8 -14 17 -17 18 -16
right_child=1 2 5 -5 -6 6 7 8 9 10 11 12 14 -15 15 16 -18 -19 -20
leaf_value=-0.99765210860484355 -6.636168742179871 -0.079453058021013129 -2.6327038747923717 5.1698216991005186 3.3445203555257699 2.3818607949743082 -1.118327721953392 4.6216373339295389 -8.06105340378625 5.8155634984737485 3.8842626623809338 -6.735759714671544 2.1140559103928114 -5.8081009683589784 -1.1669715622278012 9.205759171928678 -0.022066308845198737 -4.2877859798761513 5.2004562037331716
leaf_count=37 25 43 42 33 38 51 32 40 28 41 32 35 76 31 184 28 3611 65 35
internal_value=0 -0.0406944 0.034366 4.39967 2.40476 -0.0422361 0.00891181 -0.0483075 0.0543588 -0.0345303 0.0751488 -0.0413773 -0.10333 -6.85199 0.013671 -0.0679751 0.0978729 -2.19305 -0.298692
internal_count=4507 4432 4407 76 75 4331 4289 4238 4175 4135 4107 4066 4034 63 3999 3923 3639 284 219
shrinkage=0.5


Tree=50
num_leaves=20
num_cat=0
split_feature=2 1 1 1 2 1 3 1 2 3 1 1 3 1 2 2 2 3 3
split_gain=465.376 769.784 662.109 576.901 6663.73 5959.53 2327.98 3685.79 3203.63 706.996 24227.3 14034.7 3095.44 4430.78 15845 8893.1 2945.46 3805.19 4102.73
threshold=1.5033531506682236 1.4435824699735031 1.4626831259568569 1.1889070568621227 1.221706373818813 1.0408769729911331 1.0100914879665301 0.99153361170080301 0.98436358433897253 0.51335359268214253 0.54585163875588727 0.479002526256813 0.57842466994236685 0.66682245998379297 0.62677027942653873 0.68689395485757254 0.71221051906875554 0.77203818351714293 0.83869310876297132
decision_type=2 2 2 2 2 2 2 2 2 2 2 2 2 2 2 2 2 2 2
left_child=1 3 -3 5 -5 6 7 8 9 11 -11 -1 -12 14 -14 -15 -17 -18 -19
right_child=-2 2 -4 4 -6 -7 -8 -9 -10 10 12 -13 13 15 -16 16 17 18 -20
leaf_value=-0.033992953611886034 1.8707645318724893 -2.9783510997891427 0.38840049764384393 9.1833520276205878 0.15825929868562966 -7.4750221040513782 4.8891976475715637 -4.5481774091720579 6.1629793459460851 -16.810835599899292 5.0322752793629961 11.41975384509122 1.0195023101203295 8.148962325909558 -15.396142028626942 -3.9362156043450036 3.3503590860427956 -4.0286440849304199 0.33157714507424874
leaf_count=2835 33 40 23 21 785 27 24 45 21 22 30 27 49 34 21 48 78 67 277
internal_value=0 -0.0275973 -3.49844 0.0219749 0.786809 -0.149025 -0.0373352 -0.10362 0.0117039 -0.0624358 -1.02508 0.148123 0.162209 -0.355335 -7.81038 0.680088 -0.449713 0.394577 -1.0353
internal_count=4507 4474 63 4411 806 3605 3578 3554 3509 3488 626 2862 604 574 70 504 470 422 344
shrinkage=0.5


Tree=51
num_leaves=20
num_cat=0
split_feature=0 2 2 2 0 1 0 1 1 1 2 0 1 2 0 0 1 1 0
split_gain=394.683 11586.5 11422.1 1864.75 1511.15 1188.7 2249.78 1036.99 2616.73 1383.13 936.061 1220.87 3452.15 3396.17 3582.27 2294.75 9415.36 7817.73 4963.34
threshold=1.1118683562486835 1.0191738601293492 1.2312000853980065 1.0001864369709621 0.98173678398116226 0.96924951305355711 0.95952237241285954 1.2493924674760757 1.2525759101399678 1.2430255821482912 0.94955330854859588 0.84525733013961546 0.79097672387559081 0.87676818644144483 0.90873614587986984 0.66117193843366462 0.62543770535319354 0.6859231159671465 0.60086388953963665
decision_type=2 2 2 2 2 2 2 2 2 2 2 2 2 2 2 2 2 2 2
left_child=1 3 -2 4 5 6 10 9 -9 -4 11 12 15 -13 -15 16 18 -17 -1
right_child=2 -3 7 -5 -6 -7 -8 8 -10 -11 -12 13 -14 14 -16 17 -18 -19 -20
leaf_value=0.031601056974035736 -7.7197858216811204 10.028393879018981 0.35474321374605444 3.5739772096276283 -2.9547758298841389 3.0272549106739461 -4.6677753799236736 -4.801569053104946 0.12143053024013838 4.583838380616287 2.7816029946009317 -4.2077545812353492 3.6245135854591024 3.9292016805604448 -1.9534096442736113 -10.383227223935334 8.2259559018271311 -0.48348289569218955 -7.6827339680776712
leaf_count=2929 49 29 58 36 44 32 26 28 750 29 30 64 66 43 65 23 35 150 21
internal_value=0 0.149254 -0.586727 -0.0127325 -0.0858007 -0.0122517 -0.0684905 0.254648 -0.111494 3.52888 0.00183749 -0.0472912 0.0911984 -2.64317 0.777482 -0.0583953 0.146821 -3.59927 -0.0466291
internal_count=4507 3593 914 3564 3528 3484 3452 865 778 87 3426 3396 3224 172 108 3158 2985 173 2950
shrinkage=0.5


Tree=52
num_leaves=20
num_cat=0
split_feature=3 1 1 3 2 2 1 3 2 3 1 2 3 3 2 3 1 2 1
split_gain=428.871 12250 9247.89 1229.96 985.531 466.601 877.343 645.136 714.248 870.73 1587.27 1405.97 449.05 6069.12 4926.87 2968.7 2376.25 9956.63 8026.73
threshold=1.0481800166784321 1.0074508250202643 1.214377781615924 1.2291005280599661 1.0001864369709621 1.4970240096154279 1.4372155846457189 1.4258912597381259 1.4084160348762873 1.3449563102693929 1.3639964033761969 1.3166434896107491 0.86725950529689777 0.83869310876297132 0.87676818644144483 0.77203818351714293 0.66682245998379297 0.62677027942653873 0.6859231159671465
decision_type=2 2 2 2 2 2 2 2 2 2 2 2 2 2 2 2 2 2 2
left_child=1 4 -2 -4 12 6 7 8 9 11 -11 -5 13 15 -14 16 17 -1 -18
right_child=2 -3 3 5 -6 -7 -8 -9 -10 10 -12 -13 14 -15 -16 -17 18 -19 -20
leaf_value=0.00082502819735745742 8.0485678621240559 -9.8174138776957989 -3.7110606594519182 0.12230340314962238 3.3455148230899465 -1.5932089626789092 1.8357889144353463 -1.6847034096717834 2.0514926499790613 -5.0227059667760674 -0.38395047632225771 4.3972056865692135 -7.0383358619831222 5.5058144092559811 0.087169198560914235 -3.3389352070751475 10.545031275438225 -10.924895865576607 0.45075365270141265
leaf_count=2963 37 32 22 502 22 40 71 53 45 22 114 20 27 50 239 67 23 21 137
internal_value=0 -0.156864 0.606619 -0.0380928 0.0187616 0.149276 0.310615 -0.00503062 0.248614 -0.0149832 -2.26867 0.572186 -0.0228573 0.0790511 -1.27219 -0.0911853 0.0491798 -0.15213 3.80361
internal_count=4507 3581 926 889 3549 867 827 756 703 658 136 522 3527 3261 266 3211 3144 2984 160
shrinkage=0.5


Tree=53
num_leaves=20
num_cat=0
split_feature=1 1 1 0 1 0 3 0 1 1 0 0 1 0 1 3 0 1 3
split_gain=329.382 12175.9 7758.27 5366.96 20570.7 17810.3 4732.49 4680.33 4250.09 4082.1 8340.08 4736.73 11672.4 10552 32815.9 5548.35 5105.3 4811.05 3364.94
threshold=-0.4314652590590351 -0.46011305959140225 -0.34232886447005195 -0.2941842384571618 -0.30731099516723714 -0.28149164924989722 -0.27539635606015961 -0.24975224137977012 -0.4776251776854728 -0.50468444032855697 -0.5227111490628632 -0.67188636605246066 -0.6447559175398162 -0.6941039515615498 -0.68295722950652327 -0.55788627734009877 -0.70679654076881426 -0.58745394958975561 -0.31665892883138674
decision_type=2 2 2 2 2 2 2 2 2 2 2 2 2 2 2 2 2 2 2
left_child=1 8 -2 4 18 -5 -7 -8 9 10 11 13 -13 16 -15 17 -1 -14 -4
right_child=2 -3 3 5 -6 6 7 -9 -10 -11 -12 12 15 14 -16 -17 -18 -19 -20
leaf_value=0.041843316068216785 6.8493212390513651 -10.15782918590509 -2.4288827657699583 11.154861573129892 -16.877784097059205 -5.9915240063811792 6.9839902420838671 -0.030231416712390123 5.7123408634215593 -4.2628202124645833 9.49581303803817 -9.9589880181521906 -1.2786535909098964 -0.18248523945181533 23.304669574648141 -4.1832016499146167 -5.3200191259384155 7.6034019549687706 6.7430017992854117
leaf_count=1272 42 30 20 36 22 33 24 2624 32 57 23 41 31 58 20 46 46 30 20
internal_value=0 -0.349687 0.208994 0.0051201 -9.19448 0.215048 -0.081635 0.0666832 0.0120156 -0.212864 0.0895147 -0.192058 -5.57138 0.378242 11.6797 -0.0740837 -0.290586 6.17914 4.31412
internal_count=4507 1686 2821 2779 62 2717 2681 2648 1656 1624 1567 1544 148 1396 78 107 1318 61 40
shrinkage=0.5


Tree=54
num_leaves=20
num_cat=0
split_feature=3 2 3 0 0 2 0 3 2 3 0 2 0 3 3 2 2 0 0
split_gain=419.86 23843.6 14267.6 4211.02 4116.83 3365.9 6353.23 3465.37 5194.32 6637.64 4299.1 2553.13 13353.7 9144.51 2395.51 12437.5 10610 4874.09 3453.56
threshold=-0.66897781941647938 -0.66121308938792078 -0.68484803971310515 -0.68140818841349893 -0.62427725424726999 -0.70868164728388883 -0.72584018549089058 -0.74515487684028325 -0.77197305781184622 -0.79911362584881085 -0.81471370146803268 -0.39538600059997392 -0.34179652420313872 -0.45313964933831002 -0.29761466447543578 -0.30677802586083353 -0.28146462622017621 -0.27831770846288451 -0.2687958861018464
decision_type=2 2 2 2 2 2 2 2 2 2 2 2 2 2 2 2 2 2 2
left_child=2 -2 5 -4 -3 6 7 8 9 10 -1 13 -13 -6 15 -14 -16 -18 -19
right_child=1 4 3 -5 11 -7 -8 -9 -10 -11 -12 12 14 -15 16 -17 17 18 -20
leaf_value=-0.012749078943439286 16.504769390279595 -6.6788540378860803 -14.362052826654343 -4.2245525121688843 0.3524158567600294 2.6628652088410032 -7.1410935511812568 5.5974203745524092 -5.7322125822305683 6.746003819008668 -7.0722625746645713 -11.16748054822286 2.3229272398683758 9.0590104341506965 9.2698873012296623 -13.22828426361084 -7.4451386820186265 5.0347662655746239 -0.036866970915891639
leaf_count=1093 22 23 21 20 218 113 32 27 40 36 22 27 36 35 31 20 22 34 2635
internal_value=0 0.205306 -0.453749 -18.8339 -0.028934 0.0991375 -0.373346 -0.00792535 -0.261892 0.127422 -0.30408 0.0713151 -0.203102 3.11377 0.012002 -6.46215 0.145195 -0.0667079 0.0554796
internal_count=4507 3103 1404 41 3081 1363 1250 1218 1191 1151 1115 3058 2805 253 2778 56 2722 2691 2669
shrinkage=0.5


Tree=55
num_leaves=20
num_cat=0
split_feature=2 0 2 2 0 1 2 1 1 1 2 0 2 1 1 1 1 2 1
split_gain=386.476 667.978 511.979 364.485 15940.3 5116.1 11373.3 4316.41 2974.6 3256.29 3825.21 2651.32 18205.2 10054.4 5434.49 10635.4 2620.11 9694.83 3476.3
threshold=1.5033531506682236 1.4451321388850182 1.4305680285610725 -0.91754013745562268 -0.92897239585970415 -0.95195495116275552 -1.0472906936084609 -1.0792958411611087 -1.2050418263848528 -1.2336928103598832 -1.2213420725603441 -0.68458212920051154 -0.68652965359910378 -0.69568781671942903 -0.6447559175398162 -0.67022345885095425 -0.70524132815376894 -0.70868164728388883 -0.78164395208718307
decision_type=2 2 2 2 2 2 2 2 2 2 2 2 2 2 2 2 2 2 2
left_child=1 2 3 4 5 6 7 8 9 -1 -11 12 13 16 15 -13 17 18 -5
right_child=-2 -3 -4 11 -6 -7 -8 -9 -10 10 -12 14 -14 -15 -16 -17 -18 -19 -20
leaf_value=-0.2767940340153982 1.7048209381825996 -1.6291704196778556 1.707556620917537 0.13635566216617373 -14.247204613685607 6.1341646891651731 -11.432750745253129 4.5887851768732073 -3.6806602206146506 9.1222401380538933 1.0275260474946764 0.1307906781105285 13.32998016784931 -10.035746791146018 0.0095411550368058404 -12.47220072379479 4.8981731475183841 -7.9071499762996549 3.6703908281209312
leaf_count=682 33 63 44 199 20 33 22 50 57 20 54 47 29 22 2930 26 38 31 107
internal_value=0 -0.0251493 0.0210286 -0.0131687 -0.565539 0.0429329 -0.412929 0.159442 -0.395178 0.130047 6.43057 0.137932 2.47258 0.705739 -0.193256 -8.71589 1.92467 1.03706 2.74423
internal_count=4507 4474 4411 4367 938 918 885 863 813 756 74 3429 426 397 3003 73 375 337 306
shrinkage=0.5


Tree=56
num_leaves=20
num_cat=0
split_feature=3 0 3 3 0 3 0 3 1 1 1 3 3 3 3 3 1 0 3
split_gain=375.434 9724.14 9555.21 10957.6 3920.42 8054.89 6312.45 9236.35 8235.15 5294.69 3955.74 2435.92 1909.62 2316.75 5366.13 4231.39 2696.8 1619.51 6345.11
threshold=0.22451875732761148 0.18508082038175766 0.37528267610149801 0.44511164540665155 0.50881960671626814 0.55302914342370701 0.66117193843366462 0.62920620084751089 0.6859231159671465 0.479002526256813 0.59360327871427099 0.33402010333027093 0.12770723947413556 0.080096578584258157 0.089618710762233628 0.073748490465607844 0.1097199938026482 0.039076370238386636 0.032485917694380757
decision_type=2 2 2 2 2 2 2 2 2 2 2 2 2 2 2 2 2 2 2
left_child=1 12 11 -4 9 -6 7 10 -8 -5 -7 -2 13 15 -15 17 -16 18 -1
right_child=2 -3 3 4 5 6 8 -9 -10 -11 -12 -13 -14 14 16 -17 -18 -19 -20
leaf_value=-0.056030815285032523 2.9086923870173367 -11.102589520812035 -8.9389550054774567 0.44768249446695502 -7.7631280661532376 -3.9133088390032449 -9.5018761054329257 12.84208057237708 0.031538384033831766 9.4473467973562393 4.0994338628857632 8.8964588267462599 3.0889175723617277 -8.7393411731719972 2.4489582380236583 4.0585602654351129 -2.739078164100647 -1.3137039977018949 7.2659440507491428
leaf_count=2157 33 20 34 44 33 24 23 23 1499 26 43 35 48 25 43 63 60 244 30
internal_value=0 -0.237205 0.351174 -0.100997 0.251432 -0.0604574 0.25615 8.39387 -0.225055 7.58083 2.4584 11.9813 -0.0726514 -0.187077 -4.3363 0.0258744 -1.1464 -0.183812 0.0888156
internal_count=4507 2690 1817 1749 1715 1645 1612 90 1522 70 67 68 2670 2622 128 2494 103 2431 2187
shrinkage=0.5


Tree=57
num_leaves=20
num_cat=0
split_feature=3 2 1 1 3 1 1 1 2 2 1 1 1 2 1 2 3 3 3
split_gain=338.228 971.585 276.688 9375.24 8014.01 3377.12 10734.4 14770.6 9366.48 3301.13 3237.24 3205.17 7496.7 5940.8 2566.72 2823.55 3983.06 3048.31 2090.29
threshold=1.4988942731026047 1.4622137338250514 0.52356754010864137 0.46308531293735172 0.57842466994236685 0.37712917756959768 0.29117622564450679 0.16383851908881655 0.33246205590101091 0.19955009379230024 0.4503483588391195 0.66682245998379297 0.6859231159671465 0.62677027942653873 0.12882064978600175 0.1141066895795577 0.080096578584258157 0.1150110632368349 0.067403576391016101
decision_type=2 2 2 2 2 2 2 2 2 2 2 2 2 2 2 2 2 2 2
left_child=1 2 3 5 -4 6 7 14 -8 -9 -7 13 -13 -6 15 16 18 -17 -1
right_child=-2 -3 4 -5 11 10 8 9 -10 -11 -12 12 -14 -15 -16 17 -18 -19 -20
leaf_value=-0.095086795026745968 -1.5055105686187744 3.3270351795310322 6.5952088046581183 -7.0255963206291199 -0.32282586395740509 6.4167290345216408 -15.624716988205909 13.624625062942505 -1.9882911105147179 5.2746525304070833 -1.4074009552597999 9.0807564077170007 -0.017952690789014576 -10.374395796230861 -4.4600749304800322 8.4311971127986904 -3.7405156803457706 0.76956865755287374 2.0696922125469923
leaf_count=2377 37 22 47 48 49 39 20 20 34 29 20 23 1441 21 33 20 73 37 117
internal_value=0 0.0249234 -0.0078646 -0.193075 0.327997 0.0428919 -0.117136 0.161455 -14.0776 17.3656 7.52896 -0.0660928 0.249983 -6.67659 -0.155822 -0.0455998 -0.200175 6.91572 0.0129372
internal_count=4507 4470 4448 2867 1581 2819 2760 2706 54 49 59 1534 1464 70 2657 2624 2567 57 2494
shrinkage=0.5


Tree=58
num_leaves=20
num_cat=0
split_feature=0 0 1 0 2 1 2 1 2 1 0 0 2 0 1 0 2 2 1
split_gain=494.162 8125.31 7320.75 1835.85 5626.28 4037.3 3080.16 3392.64 3955.78 4104.77 2107.63 1370.69 1285.75 1075.71 4768.34 3793.78 2304.05 2954.31 13674.4
threshold=-0.90358404350438859 -0.89088828035633794 -0.9217154292984423 -0.92897239585970415 -1.0219741293972782 -1.0649703491735936 -1.1580506620323865 -1.1891246130653916 -1.199190078875559 -1.2336928103598832 -1.2749351155848758 -1.0622810828550242 -1.2213420725603441 -0.82740946461608356 -0.78164395208718307 -0.7639306488758294 -0.70868164728388883 -0.69285879465189948 -0.67659034417873876
decision_type=2 2 2 2 2 2 2 2 2 2 2 2 2 2 2 2 2 2 2
left_child=2 -2 3 4 5 6 7 8 9 10 -1 -8 -11 -3 -15 -16 -17 -18 -19
right_child=1 13 -4 -5 -6 -7 11 -9 -10 12 -12 -13 -14 14 15 16 17 18 -20
leaf_value=0.1353645612398171 -9.892889153389703 1.8077006038182821 7.415321099758148 4.1938374546857977 -6.2838615366390771 5.8809823791186018 -6.356360362126277 6.1993496417999268 -5.0809151762061653 7.1865310928095942 -3.9608278753179493 -1.0574453408303468 2.4259636531005033 -4.4151965975761414 5.8056610652378629 -2.5932207970425138 3.3398969945582477 -6.7113169541954996 0.12087171358163999
leaf_count=649 21 78 35 26 35 30 26 23 36 23 33 23 37 62 28 86 66 75 3115
internal_value=0 -0.174087 0.629818 0.101625 -0.133825 0.360705 -0.0416926 0.429132 0.0752756 0.571955 -0.125677 -7.73823 8.5017 -0.0567523 -0.14021 0.0196685 -0.0774489 0.0574937 -0.0795194
internal_count=4507 3531 976 941 915 880 850 801 778 742 682 49 60 3510 3432 3370 3342 3256 3190
shrinkage=0.5


Tree=59
num_leaves=20
num_cat=0
split_feature=3 1 1 1 0 0 3 0 3 3 0 0 1 1 0 1 3 3 3
split_gain=850.569 14989.8 13616.6 10395.3 9144.09 4499.89 8675.56 4240.72 3299.43 1966.89 5677.23 4218.17 5664.67 3420.89 3942.09 2174.61 3149.96 5596.3 11094
threshold=-0.1039979768566011 -0.14495541930873218 -0.039901811400287784 -0.074919680703102579 -0.014880623140829477 -0.2687958861018464 -0.23413060924487403 -0.20690404075509852 1.0000000180025095e-35 -0.35474745754328868 -0.45288127780779736 -0.3037092347589862 -0.28502689651999136 -0.46648312836184991 -0.48779462646493726 -0.51741821098412599 -0.55788627734009877 -0.66262973129782898 -0.62454120258592705
decision_type=2 2 2 2 2 2 2 2 2 2 2 2 2 2 2 2 2 2 2
left_child=1 5 3 -2 -4 9 -7 -8 -6 10 13 -11 -13 14 15 16 17 -1 -19
right_child=2 -3 4 -5 8 6 7 -9 -10 11 -12 12 -14 -15 -16 -17 -18 18 -20
leaf_value=0.03303247819365205 -1.0725049495697021 10.652661503237837 10.104713667522777 -17.000312603655317 -5.737120458712945 -11.54128909483552 3.0687662959098816 -5.2636795181494493 -0.074509126555173055 5.3052305522663836 -5.2312979831987496 -4.6398727551102636 3.1506926055465425 5.8114655282762318 -5.6404872680532518 3.1948270273705321 -3.6611846078116939 11.537731034681201 -0.532188189790604
leaf_count=1419 20 34 22 21 26 24 37 26 2427 58 49 40 56 27 29 60 53 32 47
internal_value=0 0.488349 -0.386448 -18.4613 -0.0870263 0.126685 -6.9035 -0.740042 -0.269057 0.453758 0.146523 3.87724 -0.190753 0.458368 0.274561 0.482575 0.254062 0.52212 8.71379
internal_count=4507 1991 2516 41 2475 1957 87 63 2453 1870 1716 154 96 1667 1640 1611 1551 1498 79
shrinkage=0.5


Tree=60
num_leaves=20
num_cat=0
split_feature=0 0 1 0 1 3 3 3 3 1 0 1 1 0 3 0 0 1 0
split_gain=514.58 7010.79 5734.13 14337.3 10780.3 6729.6 5713.94 3256.8 8722.74 3611.15 3192.94 3120.93 2568.74 2400.45 4772.18 4894.12 3398.53 2165.3 4855.22
threshold=-0.67188636605246066 -0.66553848447843522 -0.68932411483430778 -0.69092683683375078 -0.70524132815376894 -0.7134144362470316 -0.73563274466230777 -0.78641427556745158 -0.82133193426408702 -0.81029175261955022 -0.68458212920051154 -0.76891018143161405 -0.83894592003724366 -0.86549358011944988 -0.91337921198451666 -0.9226276882264649 -0.89088828035633794 -0.95195495116275552 -1.0559332012809988
decision_type=2 2 2 2 2 2 2 2 2 2 2 2 2 2 2 2 2 2 2
left_child=2 -2 3 4 5 6 7 8 12 -10 -4 -9 13 14 15 17 -16 18 -1
right_child=1 -3 10 -5 -6 -7 -8 11 9 -11 -12 -13 -14 -15 16 -17 -18 -19 -20
leaf_value=0.087642237353241628 -9.0072572299025282 -0.049829590521594851 9.8566118530605156 -11.56853421834799 7.8076546179211661 -7.1428089812397957 6.4081201752026873 -7.8769449827571707 1.4794354915618897 10.153089799483617 1.7691331597474904 -0.96258932059886404 -5.186394589642684 -4.7001658208095112 7.1533974617719647 -6.7727963968559548 0.40683684689658028 3.4393324149979487 -6.847615895936122
leaf_count=859 22 3089 23 26 46 32 36 24 20 30 26 51 24 26 40 27 35 45 26
internal_value=0 -0.226347 0.504417 0.117868 0.575573 0.0329626 0.401583 0.0313027 0.454116 13.3673 11.1306 -6.35037 -0.142609 0.0894556 0.328539 -0.273456 8.01001 0.111864 -0.232211
internal_count=4507 3111 1396 1347 1321 1275 1243 1207 1132 50 49 75 1082 1058 1032 957 75 930 885
shrinkage=0.5


Tree=61
num_leaves=20
num_cat=0
split_feature=2 1 2 0 2 2 2 1 0 1 0 0 1 2 2 2 2 1 0
split_gain=336.649 518.929 329.372 8215.18 4663.8 3683.14 5920.11 3866.61 8503.66 2721.57 18632.4 16196.7 10045.2 9388.3 2710.76 2308.12 1322.6 20390.9 9271.57
threshold=1.5033531506682236 1.4594996832929645 -0.39538600059997392 -0.31322788317923805 -0.4491868641192634 -0.28779060270244633 -0.30045204937856346 -0.27547656852831459 -0.24975224137977012 -0.0876534513586716 -0.043446090223943877 -0.14183825462133792 -0.0144310866464866 -0.18652751042824009 0.016005003261223668 0.0065112916820300485 0.22328437274028429 0.19567294572773911 0.15968612014486969
decision_type=2 2 2 2 2 2 2 2 2 2 2 2 2 2 2 2 2 2 2
left_child=1 2 4 -4 -1 6 -5 -7 -9 11 -11 13 -12 -10 15 -14 17 18 -16
right_child=-2 -3 3 5 -6 7 -8 8 9 10 12 -13 14 -15 16 -17 -18 -19 -20
