tree
version=v2
num_class=1
num_tree_per_iteration=1
label_index=0
max_feature_idx=3
objective=regression
feature_names=Column_0 Column_1 Column_2 Column_3
feature_infos=[-1.9685401485263661:1.685283571716963] [-1.9718649119220397:1.6765808517472069] [-1.9754213196800714:1.6911848019815459] [-1.9796688216029852:1.6970117341412934]
tree_sizes=1664 1672 1678 1671 1667 1673 1658 1664 1662 1664 1667 1656 1645 1645 1635 1629 1580 1635 1602 1647 1561 1622 1649 1666 1585 1571 1562 1641 1560 1582 1625 1586 1623 1655 1562 1603 1568 1611 1610 1570 1565 1549 1633 1620 1624 1621 1607 1625 1607 1584 1576 1614 1547 1599 1586 1553 1590 1562 1549 1577 1667 1607 1615 1575 1556 1574 1549 1579 1560 1554 1563 1571 1568 1574 1568 1570 1558 1561 1546 1593 1588 1572 1552 1605 1632 1598 1567 1595 1608 1573 1597 1603 1583 1601 1601 1609 1581 1558 1577 1612

Tree=0
num_leaves=20
num_cat=0
split_feature=3 3 3 3 3 3 3 3 3 3 3 0 3 3 3 3 3 2 3
split_gain=2.20172e+12 4.64105e+11 1.39393e+11 6.33638e+10 6.12544e+10 2.26756e+10 1.58462e+10 9.03877e+09 8.88879e+09 7.49502e+09 6.31612e+09 2.17539e+09 1.34189e+09 1.33262e+09 1.31135e+09 1.29695e+09 1.1738e+09 1.08277e+09 1.02629e+09
threshold=-0.40154073830028825 0.60190398006599122 -1.206305249544114 0.11796009380374504 1.1029336714729923 -1.646818866242463 -0.78250801517657931 0.36431893285041334 0.8641941779638499 -0.12678252043193286 1.3769992215652092 -1.424505877609529 -1.8132207549968526 1.2322316563522187 0.73235641123878181 0.25487742422049697 -1.0069323746455214 -0.55272234324079206 -0.0078745521947874934
decision_type=2 2 2 2 2 2 2 2 2 2 2 2 2 2 2 2 2 2 2
left_child=2 3 5 9 8 12 16 15 14 -2 13 -7 -1 -6 -3 -5 -4 -8 -11
right_child=1 4 6 7 10 11 17 -9 -10 18 -12 -13 -14 -15 -16 -17 -18 -19 -20
leaf_value=38196.368737602563 56058.315709871204 65851.352758172492 46745.391677112922 60726.775686947731 71247.585957191812 42268.323702289854 51751.410247346386 63974.159527823067 69305.944139741448 57931.154193756098 74899.87424548011 44162.94556991657 39941.779469496068 72900.67989658576 67280.354120204254 61967.28128596786 48684.511234445767 53623.346299348035 59210.580264506345
leaf_count=422 568 333 169 428 219 408 155 529 530 316 370 241 149 275 310 415 145 154 311
internal_value=0 11692.2 -29208.4 2748.41 22963.1 -35423.1 -17038.3 7385.17 18256.8 -2575.13 29352.6 -31379.3 -40019.4 27012.7 15757.6 5351.92 -22041.3 -11954.3 -191.477
internal_count=6447 4604 1843 2567 2037 1220 623 1372 1173 1195 864 649 571 494 643 843 314 309 627
shrinkage=1


Tree=1
num_leaves=20
num_cat=0
split_feature=1 3 1 3 3 3 1 2 3 3 2 3 3 1 3 3 3 3 3
split_gain=5.54596e+11 1.07174e+11 4.66327e+10 1.88503e+10 9.86448e+09 6.77489e+09 3.91759e+09 2.72381e+09 1.73326e+09 1.53312e+09 8.86339e+08 7.49981e+08 7.14889e+08 6.16798e+08 3.9752e+08 3.29101e+08 3.28586e+08 2.81924e+08 2.59052e+08
threshold=-0.28824917538662725 0.54071832650707174 -1.0876225870795306 1.0255857698041695 0.070396906508886872 -1.5769979544076806 -0.68667431630788212 1.4626322453808249 0.7769180381703723 0.30959817853545518 -1.3650953165499671 1.1839758012812218 -0.17480748624421685 -1.8702974666716472 0.943158304443663 0.19784777731840972 0.46083064299240711 -0.91111333227966662 1.5584781789135513
decision_type=2 2 2 2 2 2 2 2 2 2 2 2 2 2 2 2 2 2 2
left_child=2 4 5 8 12 13 17 11 -3 15 -7 -5 -2 -1 -10 -6 -11 -4 -9
right_child=1 3 6 7 9 10 -8 18 14 16 -12 -13 -14 -15 -16 -17 -18 -19 -20
leaf_value=-10477.012035101232 -1160.274457373939 3620.6981801213446 -5418.4399291992186 6091.8138681873934 749.37523410285723 -8012.5498057330706 -2679.6034157762251 8173.6952248597754 4501.2839679610261 1940.1190890357607 -6747.9230498493016 7101.8784516433188 -238.18399559613317 -9477.428390232064 5344.4628969663154 1406.6935576315486 2767.1985810019755 -4317.5640154582698 9242.4715997869316
leaf_count=284 313 592 200 293 345 467 412 117 354 378 197 493 640 338 231 425 176 82 110
internal_value=0 6174.96 -13931.1 11169.5 1371.25 -17496.2 -7324.86 14331.9 8447.71 3137.12 -15274.7 13450.7 -1082.06 -19867.7 9668.46 2224.36 4405.75 -10196.7 17383.2
internal_count=6447 4467 1980 2190 2277 1286 694 1013 1177 1324 664 786 953 622 585 770 554 282 227
shrinkage=0.5


Tree=2
num_leaves=20
num_cat=0
split_feature=2 1 2 2 1 1 1 1 2 1 2 1 1 1 2 2 2 1 1
split_gain=1.39127e+11 2.76545e+10 1.11268e+10 3.74276e+09 3.14882e+09 1.45036e+09 1.37985e+09 7.02038e+08 6.43859e+08 5.40536e+08 2.74076e+08 2.64053e+08 2.27354e+08 1.91662e+08 1.17228e+08 8.69305e+07 7.05997e+07 6.52803e+07 4.60379e+07
threshold=-0.32347227120792238 0.65907139571572348 -1.2817422224081982 0.1638585107199628 1.0382289995976086 -0.6332298385677253 -1.7232448714818851 1.3102682725582353 0.4570474973664625 -0.065984373111039427 1.5249436239861081 -1.502516884660628 0.95152508292044435 -0.95722264890236697 -0.49854864467724375 -1.9047165053745989 0.29638644282821408 -0.2306759397094626 0.023472048857463405
decision_type=2 2 2 2 2 2 2 2 2 2 2 2 2 2 2 2 2 2 2
left_child=2 3 6 9 12 13 15 -6 16 17 -9 -8 -3 -4 -7 -1 -5 -2 -11
right_child=1 4 5 8 7 14 11 10 -10 18 -12 -13 -14 -15 -16 -17 -18 -19 -20
leaf_value=-5415.7287844540024 -753.01720141800195 2179.4489652359607 -2942.8956567114528 647.04966880672578 3168.8620967741936 -1677.5078801005875 -4350.1430584842828 3775.1807788096685 1498.4800210808439 6.1813249370326169 4570.3134077023233 -3729.2410789886653 2758.3356456163197 -2234.7500797193879 -1099.7503552393082 -4977.0653949231391 927.62587430789995 -389.63459292037982 293.34379892047025
leaf_count=178 169 689 273 455 465 147 339 355 489 230 156 346 225 147 218 309 442 460 355
internal_value=0 3066.9 -7036.47 950.955 5977.72 -4122.95 -8987.93 7226.8 2073.85 -331.026 8035.84 -8073.04 4643.91 -5390.09 -2664.87 -10274.8 1570.61 -974.537 360.885
internal_count=6447 4490 1957 2600 1890 785 1172 976 1386 1214 511 685 914 420 365 487 897 629 585
shrinkage=0.5


Tree=3
num_leaves=20
num_cat=0
split_feature=3 3 1 3 3 1 3 3 3 3 3 0 3 3 3 3 0 1 3
split_gain=3.49006e+10 7.92564e+09 1.66183e+09 1.34062e+09 7.62473e+08 4.50351e+08 2.7653e+08 1.54436e+08 1.35777e+08 1.11245e+08 8.12826e+07 6.8757e+07 5.19804e+07 3.74178e+07 3.35215e+07 3.35142e+07 2.75189e+07 2.45466e+07 2.45269e+07
threshold=-0.47773419367554648 0.68040632802837864 -1.2026543707133877 0.038995967323931964 1.1486497446981474 -1.5406161454015723 0.43196948565329413 -0.23530047202699761 1.4996014179417612 0.99164504877337267 -0.85870147055183754 -1.7723462027141845 0.22647804539880981 1.5991146884470224 1.3072706654339121 1.1029336714729923 -1.9359257902401761 -1.4839833490322818 -1.206305249544114
decision_type=2 2 2 2 2 2 2 2 2 2 2 2 2 2 2 2 2 2 2
left_child=2 3 5 7 9 11 12 -2 14 -3 -4 16 -5 -10 -6 -11 -1 -7 -19
right_child=1 4 10 6 8 17 -8 -9 13 15 -12 -13 -14 -15 -16 -17 -18 18 -20
leaf_value=-2930.0969837116745 -496.46091977755231 1134.5051480338311 -1321.6103275406313 196.90624765992638 1645.8633163206039 -2029.8201788364177 733.23637775813836 -104.19560246704691 2108.4841070342482 1574.5481704892848 -912.08186312853275 -2260.7611375114411 411.0046621516899 2581.549198035038 1887.6069660859951 1227.5704897244771 -2547.1779540418706 -1760.0953632783608 -2161.0189379315043
leaf_count=53 384 712 249 504 248 179 612 724 114 253 236 239 648 66 340 96 409 338 43
internal_value=0 1417.96 -3817.78 381.778 3045.04 -4422.82 923.257 -480.286 3803.93 2495.71 -2244.67 -4956.96 634.673 4563.88 3571.29 2958.21 -5182.21 -3754.19 -3610.69
internal_count=6447 4701 1746 2872 1829 1261 1764 1108 768 1061 485 701 1152 180 588 349 462 560 381
shrinkage=0.5


Tree=4
num_leaves=20
num_cat=0
split_feature=3 3 3 2 3 3 3 1 3 3 3 3 2 3 3 3 3 3 3
split_gain=8.75088e+09 1.66864e+09 8.59789e+08 3.09973e+08 1.38648e+08 1.25518e+08 6.7499e+07 5.87203e+07 4.85688e+07 2.94914e+07 2.72947e+07 2.31418e+07 1.88025e+07 2.07656e+07 1.8209e+07 3.28443e+07 1.6963e+07 1.53635e+07 1.46404e+07
threshold=-0.25400250198274282 0.5169367328596427 -1.0574971223036476 1.0676292561550216 -1.5257405389734162 -0.064904199096874685 -0.60426150745021767 0.80463305053934364 1.4335670899498705 0.17522062996454515 -0.12678252043193286 -1.8974953344270624 -1.3139441848590629 -1.206305249544114 0.60190398006599122 0.62637824148955901 1.6256669531990064 -1.2486734285179317 1.3769992215652092
decision_type=2 2 2 2 2 2 2 2 2 2 2 2 2 2 2 2 2 2 2
left_child=2 5 4 7 11 10 -4 14 18 -7 -2 -1 -6 17 -3 -16 -10 -14 -5
right_child=1 3 6 8 12 9 -8 -9 16 -11 -12 -13 13 -15 15 -17 -18 -19 -20
leaf_value=-1380.0447578999533 -50.808444974803123 572.39277433644372 -586.20435662973125 878.59557760783605 -972.46695243491126 66.314884514969023 -275.25935322104715 658.34538495995309 1043.8143047932454 205.0048693412613 -295.70476812802389 -1180.537201785133 -744.32812564931021 -911.39041465570119 96.738724360099212 449.64801555899948 1382.7821161096747 -265.32286482590894 668.19369892238342
leaf_count=201 357 203 305 560 421 617 408 603 229 1012 167 525 47 121 78 426 44 26 97
internal_value=0 796.648 -1703.83 1400.87 -2175.6 168.007 -816.545 1087.44 1842.37 304.949 -257.715 -2471.55 -1826.24 -1568.66 891.913 790.062 2196.89 -1147.45 1695.06
internal_count=6447 4393 2054 2240 1341 2153 713 1310 930 1629 524 726 615 194 707 504 273 73 657
shrinkage=0.5


Tree=5
num_leaves=20
num_cat=0
split_feature=3 3 0 3 3 0 3 3 3 3 3 3 3 3 3 3 3 2 3
split_gain=2.20338e+09 3.8985e+08 2.59793e+08 6.93957e+07 5.23158e+07 3.39493e+07 2.39625e+07 1.60688e+07 3.54653e+07 1.2759e+07 2.21966e+07 1.17952e+07 2.88796e+07 1.01829e+07 3.02793e+07 1.98859e+07 1.73529e+07 9.85173e+06 1.35223e+07
threshold=-0.21867644539966855 0.68918011985946881 -1.0863598415920637 1.2853361858561863 0.32345153405822935 -1.7723462027141845 -0.62457976221695322 0.36431893285041334 0.39040941908497145 -0.079219333137074729 -0.12678252043193286 -0.78250801517657931 -0.85870147055183754 0.90206001639276601 0.8641941779638499 0.82332677917166597 0.73235641123878181 -0.23186524445239434 -0.15587456702975874
decision_type=2 2 2 2 2 2 2 2 2 2 2 2 2 2 2 2 2 2 2
left_child=2 4 5 13 9 -1 11 -6 -9 10 17 12 -4 14 15 16 -3 -2 -19
right_child=1 3 6 -5 7 -7 -8 8 -10 -11 -12 -13 -14 -15 -16 -17 -18 18 -20
leaf_value=-661.88494242218155 349.81993796608663 422.92497597694398 -307.65864818736844 529.5143672839564 340.34824244305491 -492.44867173465246 -138.74547701250074 -258.16125026941302 177.47527276346815 49.001236015904837 -232.5475844075857 -466.15311147426735 269.08620706697303 355.26194689879043 -29.857133611043295 505.78554825643891 169.27189852765216 -91.922507206031256 175.95898200424625
leaf_count=462 22 100 227 571 128 821 557 50 712 1221 121 87 24 748 75 103 207 140 71
internal_value=0 417.572 -818.465 770.817 159.052 -1106.92 -404.954 352.851 297.78 49.5393 -117.617 -615.005 -505.023 637.347 524.488 631.355 503.79 62.8324 -3.56458
internal_count=6447 4269 2178 1804 2465 1283 895 890 762 1575 354 338 251 1233 485 410 307 233 211
shrinkage=0.5


Tree=6
num_leaves=20
num_cat=0
split_feature=3 2 0 2 3 3 3 3 3 3 3 3 3 3 3 3 3 3 3
split_gain=5.5474e+08 1.24588e+08 4.62404e+07 2.27116e+07 1.45519e+07 3.2067e+07 1.10528e+07 9.5052e+06 1.20738e+07 1.1784e+07 8.41295e+06 7.71677e+06 6.48376e+06 6.28517e+06 6.01273e+06 2.48145e+07 7.54145e+06 5.1483e+06 4.31096e+06
threshold=-0.34381842362206233 0.51819635025149779 -1.3233159648518111 1.2582602237612586 -0.40154073830028825 -0.4407919122814819 1.2322316563522187 -0.034657706205484314 -0.0078745521947874934 0.018215934039770627 -0.385378490190385 -1.922893152885482 1.2031396097543927 1.6413674227914838 1.3769992215652092 1.4053986003868963 1.3340538194446092 -0.41955010047989477 -1.508700911680404
decision_type=2 2 2 2 2 2 2 2 2 2 2 2 2 2 2 2 2 2 2
left_child=2 7 11 6 5 -4 12 -2 -9 -10 -6 -1 -3 14 16 -16 -5 -7 -13
right_child=1 3 4 13 10 17 -8 8 9 -11 -12 18 -14 -15 15 -17 -18 -19 -20
leaf_value=-422.28158996582033 -32.239066628979181 148.62729410186594 -138.38691081838007 239.55940904946164 -588.42486890157068 121.31489531199138 -147.17472133328837 254.24102620609472 -168.62174322833755 37.362495341484369 -223.24344249134478 -300.56522183993161 335.24715648094815 530.31896718343103 -112.39876978771359 265.03630450667953 418.57500512672192 448.81489785512287 -233.25321706569162
leaf_count=100 753 1533 652 145 24 24 31 61 73 1421 46 676 48 21 51 298 99 24 367
internal_value=0 190.538 -451.595 359.331 -262.173 -218.7 296.991 27.743 72.4005 54.5953 -696.897 -579.202 308.586 522.997 503.958 419.762 624.386 570.13 -553.76
internal_count=6447 4534 1913 2226 770 700 1612 2308 1555 1494 70 1143 1581 614 593 349 244 48 1043
shrinkage=0.5


Tree=7
num_leaves=20
num_cat=0
split_feature=3 1 3 1 3 3 1 3 3 3 2 1 1 1 1 3 3 3 3
split_gain=1.4351e+08 3.80295e+07 8.14899e+06 1.48576e+07 8.50284e+06 6.26003e+06 6.52573e+06 6.02578e+06 1.50021e+07 1.11259e+07 5.18918e+06 6.68413e+06 3.74252e+06 3.5857e+06 3.9365e+06 1.36411e+07 5.53708e+06 3.94776e+06 3.46266e+06
threshold=-0.60426150745021767 0.80463305053934364 0.16529239183989033 0.11522222523541505 0.047538869896309399 0.14889925447127414 0.14871103961336743 -1.4681336689245466 -1.4202241477416193 -1.394364550765774 -0.55272234324079206 -0.50088020914253006 -0.57588597833150545 1.5937763175661057 0.84234237303068193 0.89097733197454676 0.80970431290760458 0.8641941779638499 0.87758575496919822
decision_type=2 2 2 2 2 2 2 2 2 2 2 2 2 2 2 2 2 2 2
left_child=7 2 3 4 10 6 -5 -1 -9 -10 12 -12 -2 14 16 17 -3 -16 -19
right_child=1 13 -4 5 -6 -7 -8 8 9 -11 11 -13 -14 -15 15 -17 -18 18 -20
leaf_value=-154.91306783052184 7.9444732893080943 -32.788657143002467 36.512532903216481 -174.15739605914462 113.2804635178809 -32.118411416044601 -494.16667066301619 110.43139575719833 -345.56281021118161 -100.30326237029176 -268.61204831416791 -12.272946747056787 303.04187289151281 223.57210901700535 32.64236819042879 109.19721101064809 254.26012142428331 -319.76888089656831 -56.60888120651245
leaf_count=901 21 21 1746 66 153 52 21 80 50 615 26 1161 22 65 34 1279 84 25 25
internal_value=0 87.3596 26.4025 -27.0817 4.2413 -338.734 -502.802 -254.808 -188.269 -237.488 -23.4131 -35.7756 317.849 217.306 207.129 192.757 393.701 -197.61 -376.378
internal_count=6447 4801 3268 1522 1383 139 87 1646 745 665 1230 1187 43 1533 1468 1363 105 84 50
shrinkage=0.5


Tree=8
num_leaves=20
num_cat=0
split_feature=3 2 2 3 3 1 2 3 3 3 3 1 3 1 3 3 3 2 2
split_gain=3.95389e+07 6.84722e+06 4.53951e+06 1.31819e+07 1.29559e+07 5.40101e+06 4.47836e+06 4.18406e+06 3.4906e+06 8.84646e+06 6.13771e+06 3.52303e+06 3.25666e+06 5.14654e+06 3.61475e+06 1.1664e+07 1.14381e+07 2.8216e+06 2.34935e+06
threshold=-0.20112886173748787 0.94028618875907544 -1.0521433926592543 -1.0069323746455214 -0.96075452290294094 -0.20727964473308494 0.95135343361583458 -0.17480748624421685 -0.10415537307806831 -0.12678252043193286 -0.1397123189198555 0.92285315280233438 0.97825347176802435 0.97125137084170399 1.1029336714729923 1.1264843758617087 1.0761505174622956 -0.97553294769492338 -0.18350417449008513
decision_type=2 2 2 2 2 2 2 2 2 2 2 2 2 2 2 2 2 2 2
left_child=2 7 -1 -4 17 -6 -3 18 9 10 -9 -10 13 -8 16 -16 -14 -5 -2
right_child=1 6 3 4 5 -7 12 8 11 -11 -12 -13 14 -15 15 -17 -18 -19 -20
leaf_value=-72.287304800795496 58.450987553596498 268.88054859161377 228.68258674939474 -404.46760559082031 -16.054813638707508 -209.27920818328857 27.207026555504598 -44.25328549005652 18.482335724027386 -241.64111332183188 234.80997703552245 -163.02809451244497 64.908643719448918 -259.93983778953555 -195.74392066103346 60.412930696070489 331.28149017022582 -161.16847220334139 245.363958292994
leaf_count=1341 40 25 48 26 749 38 71 93 2707 47 25 27 227 20 47 816 49 22 29
internal_value=0 56.8317 -107.914 -52.2373 -81.5318 -50.7692 118.755 30.6476 24.8551 -116.393 29.7406 33.3796 110.239 -71.8043 124.783 92.9247 224.399 -585.911 274.017
internal_count=6447 4223 2224 883 835 787 1255 2968 2899 165 118 2734 1230 91 1139 863 276 48 69
shrinkage=0.5


Tree=9
num_leaves=20
num_cat=0
split_feature=3 3 1 1 3 3 3 3 3 3 1 3 3 2 2 3 3 3 3
split_gain=1.12586e+07 1.25932e+07 1.01457e+07 3.16443e+06 5.02059e+06 3.66821e+06 2.89643e+06 9.86125e+06 9.37073e+06 2.5977e+06 9.91736e+06 4.75589e+06 2.56632e+06 2.55453e+06 1.03136e+07 5.98052e+06 4.9621e+06 1.03043e+07 9.86518e+06
threshold=0.33822844661585522 0.36431893285041334 0.38542649466848267 -1.0505784533669327 -1.0069323746455214 -0.96075452290294094 0.25487742422049697 0.2611114342057454 0.23340472316019692 -1.206305249544114 -1.2638746759015758 -1.1934908956855479 0.276350125280797 0.4479797967485295 0.48471560950836051 0.43196948565329413 0.60190398006599122 0.64023159701233323 0.5797386112295525
decision_type=2 2 2 2 2 2 2 2 2 2 2 2 2 2 2 2 2 2 2
left_child=3 -2 -3 9 -5 -6 8 -8 -7 10 -1 -11 -9 15 -15 -4 18 -18 -16
right_child=1 2 13 4 5 6 7 12 -10 11 -12 -13 -14 14 16 -17 17 -19 -20
leaf_value=-37.252800740483636 224.30562085609932 -208.62578023970127 16.641238664325915 168.9647379875183 -146.47775465250015 -6.6070342337461296 -339.56669934590656 -124.76235949318364 167.99397795200349 -237.78246602145109 240.63250061959931 -35.273110961914064 -3.9648230584092841 -134.81573173374807 44.16886674967882 261.75682753485603 -135.56638755844634 26.737085150780143 288.87990929098692
leaf_count=1187 77 48 76 40 48 1949 27 53 80 44 33 85 258 103 214 37 103 1934 51
internal_value=0 50.1342 38.1768 -34.833 -13.453 -19.273 -13.723 -99.4298 0.55437 -73.7418 -59.4725 -208.692 -49.1018 46.8585 39.9544 193.801 53.8064 37.0606 182.528
internal_count=6447 2643 2566 3804 2455 2415 2367 338 2029 1349 1220 129 311 2518 2405 113 2302 2037 265
shrinkage=0.5


Tree=10
num_leaves=20
num_cat=0
split_feature=3 2 1 1 2 1 3 3 2 3 3 1 3 3 3 3 1 3 1
split_gain=3.01192e+06 6.18944e+06 3.75559e+06 2.20548e+06 1.91535e+06 2.53602e+06 5.30456e+06 3.12356e+06 1.7306e+06 6.36581e+06 6.07006e+06 4.55188e+06 7.77723e+06 7.0941e+06 3.04931e+06 1.54506e+06 3.94633e+06 4.11835e+06 3.51339e+06
threshold=-0.22606490167848145 -0.23186524445239434 -0.23755720293780896 -1.95034949556141 -0.19233936996396855 -0.15406454243387299 -0.1475625537160942 -0.17480748624421685 -0.34137516729973877 -0.40154073830028825 -0.41955010047989477 -0.28824917538662725 -0.26393074010739764 -0.30964681333255256 -0.36760001726949137 1.3072706654339121 1.3623364976527228 1.4053986003868963 1.2932944899283141
decision_type=2 2 2 2 2 2 2 2 2 2 2 2 2 2 2 2 2 2 2
left_child=2 -2 3 -1 -3 7 -7 -6 9 10 -5 13 -13 -10 -11 18 -17 -18 -8
right_child=1 4 -4 8 5 6 15 -9 11 14 -12 12 -14 -15 -16 16 17 -19 -20
leaf_value=-156.47169993473932 255.71550292968749 -71.941788870018797 -139.66620858240935 -11.2578418126202 194.71214046478272 -228.61114811897278 4.6029193979199654 11.08128512989391 0.94936990737915039 -232.89440727233887 241.87484486897787 -223.13263815460783 66.986595887642409 360.55973687767982 -43.773926123594627 107.66041209292776 -102.50126464026314 31.423801453696523 -205.5544127345085
leaf_count=26 25 77 59 1793 40 24 3532 55 32 47 24 33 77 24 39 131 70 319 20
internal_value=0 15.3104 -30.5141 -23.5068 12.4043 15.2757 11.5295 176.799 -19.8696 -28.4115 -15.8286 78.0531 -40.0983 310.136 -294.261 14.2923 65.2024 14.6484 6.8392
internal_count=6447 4293 2154 2095 4268 4191 4096 95 2069 1903 1817 166 110 56 86 4072 520 389 3552
shrinkage=0.5


Tree=11
num_leaves=20
num_cat=0
split_feature=1 3 3 0 0 0 3 0 0 1 1 0 3 1 0 3 1 3 3
split_gain=1.34581e+06 4.85608e+06 3.357e+06 3.79259e+06 2.9582e+06 1.39733e+06 7.40128e+06 7.21542e+06 3.04912e+06 4.95066e+06 3.42166e+06 4.02592e+06 2.25241e+06 1.69096e+06 1.53273e+06 2.1189e+06 2.04846e+06 1.92085e+06 2.53914e+06
threshold=0.33932203103856196 0.36431893285041334 0.4063407779361618 0.41140782237881196 0.36847597070696986 0.11157730989643132 0.1401254626401838 0.14241438184996949 0.058720352730561302 0.053749607062187447 0.033105817377148329 0.041178305810883921 0.11796009380374504 0.064300877345651888 0.28699777909320523 0.28142968897248088 0.27716128654249972 0.25487742422049697 0.23340472316019692
decision_type=2 2 2 2 2 2 2 2 2 2 2 2 2 2 2 2 2 2 2
left_child=5 -2 4 -4 -3 8 7 12 9 10 -1 -12 -7 -10 16 -16 17 18 -8
right_child=1 2 3 -5 -6 6 14 -9 13 -11 11 -13 -14 -15 15 -17 -18 -19 -20
leaf_value=-4.4038355083799257 141.58029566416099 55.126866080544211 198.32756482637845 6.3592075684854033 -162.97806001159381 35.90656121571859 -9.237085494937169 -423.75025233768281 -45.405289468311125 -221.3504896897536 294.44428516569593 0.10013027374561016 -172.83606732956 112.85406489150469 -195.66844976515998 -28.384168289524194 106.28483778497447 -67.292511436933026 93.508029509923958
leaf_count=2842 67 22 26 2465 53 24 288 21 21 26 21 26 28 86 21 192 46 96 76
internal_value=0 17.3891 10.4497 16.7258 -198.001 -12.0046 -49.3936 -352.778 -2.20579 -8.29151 -4.38198 263.231 -152.987 163.588 -18.591 -89.754 11.365 -8.75544 24.4304
internal_count=6447 2633 2566 2491 75 3814 792 73 3022 2915 2889 47 52 107 719 213 506 460 364
shrinkage=0.5


Tree=12
num_leaves=20
num_cat=0
split_feature=2 0 3 0 3 0 0 3 3 0 2 3 3 0 0 2 3 3 0
split_gain=1.1939e+06 1.12392e+06 9.11567e+06 9.09291e+06 5.02051e+06 4.13309e+06 1.58721e+06 1.51719e+06 4.89609e+06 1.89621e+06 1.61041e+06 1.38011e+06 2.92016e+06 1.1482e+06 1.11437e+06 5.00005e+06 3.659e+06 2.56773e+06 1.08793e+07
threshold=-1.9198525902522257 1.4463885906397778 1.4996014179417612 1.4814726844791326 1.4199446236858091 1.5147102470637845 1.4076114342910173 1.3449056146041156 1.3769992215652092 1.3459834536653086 1.3133639429010053 1.5991146884470224 1.5584781789135513 1.5802621066057367 -1.8676733787382207 -1.8488687697738937 -1.8838497792371298 -1.8132207549968526 -1.7723462027141845
decision_type=2 2 2 2 2 2 2 2 2 2 2 2 2 2 2 2 2 2 2
left_child=-1 4 3 -3 6 -4 7 9 -9 10 14 12 -7 -14 16 -16 -2 -17 -19
right_child=1 2 5 -5 -6 11 -8 8 -10 -11 -12 -13 13 -15 15 17 -18 18 -20
leaf_value=-53.664996406026916 -8.1621915773739886 -36.583319012711691 200.05409714271283 -406.21990646634782 153.98768836480599 45.615218752906436 -113.87063668568929 138.86089606016455 -76.50659931779262 -131.8769872100265 93.113631025273747 48.211511016654022 -63.558413132377289 -227.36614389419555 -141.12146286737351 91.80787076604993 146.40730734738437 -260.54025726318361 1.1725296980801081
leaf_count=102 126 41 29 28 54 42 30 71 42 27 47 66 23 20 63 76 55 40 5465
internal_value=0 1.7254 -64.1275 -373.162 4.41526 54.3356 1.70221 2.84713 117.626 0.648462 1.86421 -12.0711 -96.3136 -279.496 0.376644 -2.10028 77.6129 1.06205 -1.45821
internal_count=6447 6345 249 69 6096 180 6042 6012 113 5899 5872 151 85 43 5825 5644 181 5581 5505
shrinkage=0.5


Tree=13
num_leaves=20
num_cat=0
split_feature=1 2 2 1 1 0 2 1 2 2 2 2 1 2 0 0 1 0 1
split_gain=402964 3.76083e+06 1.64441e+06 3.65746e+06 1.1099e+06 5.42591e+06 2.07172e+06 2.63086e+06 2.52314e+06 1.55119e+06 1.42697e+06 1.02032e+06 4.8932e+06 2.62625e+06 2.29886e+06 1.31041e+06 2.13547e+06 1.91331e+06 1.65315e+06
threshold=1.4958330042826427 1.5249436239861081 1.4233388760364487 1.4070647086369743 1.2827432196448498 1.2963579261951685 1.2082716177906023 1.1549810990385521 1.1224772196363135 1.1761859079117627 1.1436351877448236 0.85091121138642312 0.84234237303068193 0.83998346961609371 0.87350226886820836 0.95890433939821673 0.97973826215666449 0.93720759715545776 0.96024134967634966
decision_type=2 2 2 2 2 2 2 2 2 2 2 2 2 2 2 2 2 2 2
left_child=2 -2 3 4 6 -6 7 8 11 -9 -10 13 -13 -1 -14 17 18 -16 -17
right_child=1 -3 -4 -5 5 -7 -8 9 10 -11 -12 12 14 -15 15 16 -18 -19 -20
leaf_value=-1.0628304471980354 -216.99121440540659 3.8337536742671943 58.633936082758012 -187.59933897165152 249.43208056229813 7.2286619860589791 -63.43423528785889 203.1347949815833 -146.50682653745881 44.66766263956719 -9.0169610977172852 246.14812784609586 -113.22585885184152 -163.52538780212402 21.477904176712038 5.7013070033146782 22.683052456045484 138.72926538817737 -136.4552542664284
leaf_count=4990 22 156 120 26 26 209 130 23 46 47 32 23 35 25 120 39 286 49 43
internal_value=0 -46.9184 1.33219 -0.93034 0.658909 68.0513 -2.03083 0.787661 -1.58362 193.471 -180.201 0.899841 40.0528 -3.74543 21.8682 38.0529 4.57678 110.948 -137.688
internal_count=6447 178 6269 6149 6123 235 5888 5758 5688 70 78 5610 595 5015 572 537 368 169 82
shrinkage=0.5


Tree=14
num_leaves=20
num_cat=0
split_feature=3 3 1 3 1 0 3 3 0 0 3 3 0 1 0 1 1 3 3
split_gain=485561 1.30529e+07 1.00307e+07 1.63174e+07 3.81454e+06 1.82496e+06 7.23945e+06 6.81708e+06 1.89982e+06 1.48515e+06 1.13992e+06 2.19977e+06 1.73042e+06 1.30946e+06 834819 1.12656e+06 824561 1.33306e+06 1.30173e+06
threshold=-1.5769979544076806 -1.54871402021535 -1.7112944110086568 -1.646818866242463 -1.5991298203866109 -1.424505877609529 -1.4494547278946728 -1.4093723525821129 -1.328486252364979 -1.4422556592953604 -1.206305249544114 -1.1934908956855479 -1.2527784709221608 -1.0876225870795306 -1.3739570845120375 -1.386957537512598 -1.0505784533669327 -1.0069323746455214 -0.98557511821457811
decision_type=2 2 2 2 2 2 2 2 2 2 2 2 2 2 2 2 2 2 2
left_child=2 -2 -1 -4 -5 6 -3 -7 14 -8 12 -12 -10 -13 15 -9 -15 -18 -19
right_child=1 5 3 4 -6 7 9 8 10 -11 11 13 -14 16 -16 -17 17 18 -20
leaf_value=-9.8744322114737741 -246.10117608529549 3.0578390069007875 547.32741477272725 -91.788865072386599 183.0216931882112 -251.83958812996192 127.41032900129046 -80.754839492294025 16.562508883801375 295.07580902099608 -111.11524789983577 122.88131410425359 161.26368350452847 -56.214873737759063 -147.60294050216675 56.085764794122603 92.25836007595062 -115.54906956354777 1.1743062713665775
leaf_count=549 54 250 22 28 23 27 28 53 88 25 44 22 27 63 25 21 40 24 5034
internal_value=0 -2.8359 26.558 374.811 64.2906 1.74317 77.2861 -2.44292 0.0443804 412.996 2.58818 0.421425 101.072 2.31158 -137.218 -83.8434 1.27381 2.67894 1.24092
internal_count=6447 5825 622 73 51 5771 303 5468 5441 53 5342 5227 115 5183 99 74 5161 5098 5058
shrinkage=0.5


Tree=15
num_leaves=20
num_cat=0
split_feature=3 0 3 2 0 0 3 0 2 0 3 3 0 0 0 3 0 3 2
split_gain=348401 515034 2.22656e+06 1.21778e+06 1.45482e+06 1.1615e+06 3.04438e+06 1.63858e+06 1.48469e+06 1.10553e+06 714477 2.7072e+06 943936 1.49572e+06 1.4439e+06 4.32002e+06 4.06826e+06 1.63398e+06 4.07711e+06
threshold=1.6413674227914838 1.5377918877475705 1.5153018875342383 1.5640044881864348 1.5802621066057367 1.4463885906397778 1.4820538342795804 1.4653155360004824 1.4128761445542184 1.39330081706707 1.3525249601416414 1.3769992215652092 1.2963579261951685 1.3065138480960345 1.2617354651694896 1.2322316563522187 1.2035697306463486 1.1029336714729923 1.0963668919595475
decision_type=2 2 2 2 2 2 2 2 2 2 2 2 2 2 2 2 2 2 2
left_child=1 2 5 -3 -5 8 7 -7 9 10 12 -12 14 -14 15 16 17 18 -1
right_child=-2 3 -4 4 -6 6 -8 -9 -10 -11 11 -13 13 -15 -16 -17 -18 -19 -20
leaf_value=0.14567152804730607 64.297127314976279 -131.05166145801545 141.07233451093947 90.629018430356624 -48.773055643331809 -32.610869216918942 46.155255439953926 -219.99382046290808 70.489326227505998 -107.39096204439799 141.70916276229056 -51.028071131025044 -150.57006700222308 -14.913828762628698 70.798424575063919 -166.29678985400076 163.73504210773268 -47.977943709237238 194.91330888536243
leaf_count=5556 21 25 28 27 61 20 39 28 75 24 38 35 26 93 72 39 38 175 27
internal_value=0 -0.420243 0.777514 -67.3357 -12.0039 -0.475991 -115.218 -283.835 1.13462 -0.578315 0.264591 98.6018 -0.926682 -89.106 0.849742 -0.886983 1.345 -0.80727 2.17518
internal_count=6447 6426 6313 113 88 6285 87 48 6198 6123 6099 73 6026 119 5907 5835 5796 5758 5583
shrinkage=0.5


Tree=16
num_leaves=20
num_cat=0
split_feature=1 1 3 3 3 3 0 1 1 3 1 1 1 0 0 3 1 0 1
split_gain=356969 962933 3.1403e+06 1.66147e+06 1.0813e+06 996924 838262 738787 507521 875836 641528 663287 840834 281976 614551 522440 590564 1.4784e+06 936013
threshold=1.5937763175661057 1.4958330042826427 1.5153018875342383 1.5584781789135513 1.4485748917662093 1.5737168699886033 1.5377918877475705 1.6380457776684676 1.4070647086369743 1.4199446236858091 1.3951371857078405 1.3799984066054785 1.3623364976527228 1.3547544771251472 1.3459834536653086 1.3449056146041156 1.2827432196448498 1.2746611839524098 1.2428318929204407
decision_type=2 2 2 2 2 2 2 2 2 2 2 2 2 2 2 2 2 2 2
left_child=1 4 -3 6 8 -5 -4 -2 10 -10 11 12 13 14 15 16 17 18 -1
right_child=7 2 3 5 -6 -7 -8 -9 9 -11 -12 -13 -14 -15 -16 -17 -18 -19 -20
leaf_value=-0.40850393280097852 73.69230844757773 -215.64307576959783 132.94565482573077 -155.88574333190917 60.946633092344626 -7.4021926293006306 -3.5726238748301631 -40.293398857116699 -120.05489253997803 -1.3130057074806907 83.561435984528586 -81.376518402099606 95.652929223102078 -43.644665196135236 85.523143495832173 -72.289824333190921 41.27571042193923 -105.99257018349387 73.633358877758653
leaf_count=5812 44 22 22 20 73 26 23 21 24 44 23 25 23 37 21 25 86 33 43
internal_value=0 -0.750956 -92.2422 -10.2756 0.898193 -143.921 126.339 73.7323 -0.527346 -86.4438 0.426035 -0.201979 0.466405 -0.258262 0.276647 -0.321147 0.282546 -0.919071 0.270541
internal_count=6447 6382 113 91 6269 46 45 65 6196 68 6128 6105 6080 6057 6020 5999 5974 5888 5855
shrinkage=0.5


Tree=17
num_leaves=20
num_cat=0
split_feature=2 1 1 2 0 2 0 1 1 2 1 1 1 0 2 0 1 2 2
split_gain=244832 512623 2.4658e+06 1.58236e+06 467885 1.86817e+06 1.35347e+06 1.15262e+06 415507 4.43608e+06 1.21804e+06 1.77978e+06 1.37891e+06 1.79069e+06 1.75631e+06 865921 689381 1.07445e+06 428823
threshold=-1.926013976569539 -1.8702974666716472 -1.8532778089535371 -1.8713752677178916 -1.8367901435033149 -1.8072038479602119 -1.7723462027141845 -1.7232448714818851 -1.7112944110086568 -1.6427064585451459 -1.5216238588913364 -1.502516884660628 -1.4839833490322818 -1.424505877609529 -1.4011336138776491 -1.4422556592953604 -1.5772244657763752 -1.5566795552468073 -1.3157112239538395
decision_type=2 2 2 2 2 2 2 2 2 2 2 2 2 2 2 2 2 2 2
left_child=-1 3 -3 -2 -4 -6 -7 -8 -9 -10 16 -12 -13 15 -15 -14 -11 -18 -16
right_child=1 2 4 -5 5 6 7 8 9 10 11 12 13 14 18 -17 17 -19 -20
leaf_value=-28.400906259218853 6.876577898943224 -157.20153228759764 -39.370855236375654 130.95844993591308 104.47720848959545 -96.771470308303833 107.60448387145996 -40.699266368342983 210.62050689697264 8.436093890666962 77.3366321460406 -79.713121630527354 40.037479426409746 -115.63454482049653 -32.0500498752968 147.66931862831115 -153.76937889099122 -38.106097270460687 0.67821582096749167
leaf_count=75 179 25 74 30 43 36 25 62 25 50 75 54 74 33 102 25 25 102 5333
internal_value=0 0.668572 -0.983155 49.3747 0.293401 1.25788 -0.225421 0.937391 0.0386012 0.894671 -0.894645 1.644 -0.397837 1.14474 -1.26852 134.434 -82.5904 -121.749 0.127993
internal_count=6447 6372 6163 209 6138 6064 6021 5985 5960 5898 5873 5696 5621 5567 5468 99 177 127 5435
shrinkage=0.5


Tree=18
num_leaves=20
num_cat=0
split_feature=2 3 1 3 1 3 2 2 2 2 2 1 3 3 3 2 2 1 1
split_gain=245230 544472 225872 6.23011e+06 668604 557989 626483 1.03686e+06 468147 465859 1.01215e+06 181728 1.39009e+07 3.79679e+06 7.7999e+06 3.73625e+06 2.07896e+06 1.57004e+06 1.40975e+06
threshold=1.6542164840776654 1.6256669531990064 1.4306903790542969 1.4485748917662093 1.4201391087708324 1.5584781789135513 1.5430790252219739 1.5249436239861081 1.5846974460068457 1.48658027521793 1.4626322453808249 0.63406947265273172 0.61968245298688485 0.56588525570677828 0.60190398006599122 0.61980109820115703 0.58980793461876335 0.57305560536139388 0.68659644862910885
decision_type=2 2 2 2 2 2 2 2 2 2 2 2 2 2 2 2 2 2 2
left_child=1 2 4 -4 11 6 7 9 -7 10 -5 13 -13 17 16 -16 -15 -1 -14
right_child=-2 -3 3 5 -6 8 -8 -9 -10 -11 -12 12 18 14 15 -17 -18 -19 -20
leaf_value=-0.25748935632732806 -53.943439347403391 76.96818807850714 -282.05456819534299 70.81809004147847 80.479906155512879 -85.236627905265138 101.64245525995891 -84.817717357115313 3.1395146347755611 70.222492456436157 -77.657354354858398 -390.34696923131526 -48.283098262951789 268.28699666803533 -110.57115911483764 108.22253435850143 89.955253601074219 -134.16974223743784 5.4090698122466074
leaf_count=4308 21 23 20 24 26 23 24 22 43 48 22 23 133 44 50 32 26 22 1513
internal_value=0 0.352571 -0.199112 -31.25 0.936959 20.4839 56.2183 25.7907 -55.3165 71.5288 -0.38381 0.260549 -8.64675 3.57743 158.921 -50.3765 404.099 -1.87575 2.14128
internal_count=6447 6426 6403 226 6177 206 140 116 66 94 46 6151 1669 4482 152 82 70 4330 1646
shrinkage=0.5


Tree=19
num_leaves=20
num_cat=0
split_feature=2 3 1 3 1 3 3 2 1 3 1 3 3 3 3 1 2 1 1
split_gain=263454 4.72944e+06 3.22409e+06 2.5334e+06 2.43798e+06 2.35429e+06 2.34958e+06 1.49033e+06 1.44179e+06 3.21455e+06 1.34437e+06 1.99828e+06 1.71694e+06 1.4227e+06 2.92703e+06 1.0913e+06 1.63184e+06 946278 931410
threshold=0.74837644286056559 0.70118636131253986 0.65907139571572348 0.64715827477372045 0.80463305053934364 0.73235641123878181 0.66978542212758507 0.68420502310288611 0.85495802228265017 0.87758575496919822 0.88729995945587814 0.943158304443663 0.96901790141950828 1.0255857698041695 1.0347751623009434 0.77008910913304496 0.75837416405469693 1.0382289995976086 0.95152508292044435
decision_type=2 2 2 2 2 2 2 2 2 2 2 2 2 2 2 2 2 2 2
left_child=1 2 3 -1 15 -3 -4 -8 -6 -10 -11 -12 18 -14 -15 16 -2 -16 -13
right_child=4 5 6 -5 8 -7 7 -9 9 10 11 12 13 14 17 -17 -18 -19 -20
leaf_value=0.50387781953037447 95.214331054687506 156.35477463513203 -187.64332766146273 143.92837093722434 51.523745941737339 6.6282848497716396 57.620823928288054 -88.687556888746172 -156.17883731337156 -113.15076804161072 70.007910198635528 -29.416654684326865 45.548678478117914 -174.85004638671876 96.456180334091187 -114.35813999877257 -74.777498245239258 -4.0548489668186276 -141.52704407274723
leaf_count=4526 20 73 37 31 126 41 28 46 34 26 99 44 155 25 24 68 48 964 32
internal_value=0 3.77204 -1.14255 2.95911 -10.8336 205.012 -169.532 -66.6553 0.578737 -8.62373 -1.0803 3.2799 -7.60182 1.87477 -11.7773 -139.138 -49.5598 -3.22657 -153.242
internal_count=6447 4782 4668 4557 1665 114 111 74 1529 1403 1369 1343 1244 1168 1013 136 68 988 76
shrinkage=0.5


Tree=20
num_leaves=20
num_cat=0
split_feature=2 0 2 3 3 3 2 0 2 3 3 3 3 2 0 3 3 3 2
split_gain=180641 1.66184e+06 741087 531743 1.34204e+06 1.22098e+06 2.35207e+06 985230 707832 531128 460088 296379 214968 259704 377118 875400 874883 745789 911061
threshold=1.3328943750011686 1.2963579261951685 1.303366221706874 1.2733299444031154 1.2322316563522187 1.2174547437945926 1.2082716177906023 1.2889718011763571 1.1926937731392817 1.3197386854044091 1.2520881326015283 1.2853361858561863 1.3525249601416414 1.367770146608603 1.4223836843286404 1.3769992215652092 1.4335670899498705 1.4619664687715577 1.48658027521793
decision_type=2 2 2 2 2 2 2 2 2 2 2 2 2 2 2 2 2 2 2
left_child=1 3 -3 4 5 6 8 11 -1 -4 -6 -5 -2 -14 15 -15 -16 -18 -19
right_child=12 2 9 7 10 -7 -8 -9 -10 -11 -12 -13 13 14 16 -17 17 18 -20
leaf_value=0.20701425934583859 39.452918896135294 -157.72795796394348 -0.94463580449422202 44.353142553567885 -136.15788534413213 112.89339514573415 -156.3185923496882 -43.256618772234233 94.434293270111084 -101.9356864846271 -33.794804890950523 127.57728842030401 -42.744344051067642 -39.206995045697248 -76.60133358926484 67.664248473716498 74.553565301393206 -103.04206981658936 8.782624767545391
leaf_count=5731 53 20 30 20 23 24 24 21 20 23 21 23 26 27 33 66 38 20 204
internal_value=0 -1.47923 -151.436 0.373966 -0.619012 0.701114 -0.234307 91.0297 1.06941 -89.5419 -174.606 177.737 18.9418 11.2652 17.7487 73.2742 0.244105 19.5714 -2.40345
internal_count=6447 5980 73 5907 5843 5799 5775 64 5751 53 44 43 467 414 388 93 295 262 224
shrinkage=0.5


Tree=21
num_leaves=20
num_cat=0
split_feature=1 0 0 2 1 0 2 2 2 0 2 2 0 0 0 2 0 2 2
split_gain=129407 1.1853e+06 632447 297260 1.00366e+06 300958 675252 511494 158093 2.39076e+06 1.9855e+06 2.0938e+06 2.20801e+06 1.33042e+06 1.11052e+06 1.04059e+06 2.4209e+06 1.35041e+06 3.9855e+06
threshold=1.5531768645188622 1.5377918877475705 1.5802621066057367 1.4521695138985946 1.4306903790542969 1.4997071806193236 1.5249436239861081 1.48658027521793 0.51284873193835778 0.5111205101327676 0.55911725560422088 0.57911269799248333 0.58590502594823435 0.56466991651915122 0.57459502201317925 0.46658020827249458 0.47072763893614206 0.39520112904927857 0.38218084098250299
decision_type=2 2 2 2 2 2 2 2 2 2 2 2 2 2 2 2 2 2 2
left_child=1 3 -2 4 8 7 -7 -5 9 15 13 14 -13 -10 -12 17 -17 18 -1
right_child=2 -3 -4 5 -6 6 -8 -9 10 -11 11 12 -14 -15 -16 16 -18 -19 -20
leaf_value=-0.076179338405491598 90.738891850347102 -102.94161278860909 -2.4908969813379747 41.988305131594338 -100.28140881538391 125.42743434906006 -4.5005809783935549 -43.49302959044774 42.077620420191025 -149.93694693953901 -17.239262840964578 136.93735726674399 0.14445904745378982 182.46978235244751 -167.35532094751085 -186.14901535034178 2.044547752097801 46.989138642152149 -200.34965599060058
leaf_count=3915 23 28 87 42 25 20 20 30 108 27 22 30 1768 20 28 25 54 150 25
internal_value=0 -0.590275 34.0052 0.320837 -0.601961 51.3796 120.927 12.7422 0.207991 -3.26512 7.58309 -0.759403 4.85375 128.028 -202.609 -1.34417 -115.021 0.851534 -2.6939
internal_count=6447 6337 110 6309 6197 112 40 72 6172 4196 1976 1848 1798 128 50 4169 79 4090 3940
shrinkage=0.5


Tree=22
num_leaves=20
num_cat=0
split_feature=3 3 1 2 1 2 1 1 1 2 2 3 3 3 1 1 1 2 2
split_gain=145570 155667 7.33165e+06 3.60379e+06 3.03772e+06 755693 2.26355e+06 828049 1.22105e+06 7.00619e+06 5.16676e+06 828884 737822 5.15911e+06 2.43671e+06 1.28866e+06 1.16613e+06 2.5174e+06 1.19935e+06
threshold=-1.9489605501941687 0.11796009380374504 0.12737912360549367 0.10666224528377018 0.10604720759761989 0.14944319178888987 0.14871103961336743 0.16568482224328848 0.19848551029840616 0.19687424117500082 0.19082910742971218 0.1835326432782097 -0.021035239941423003 -0.0078745521947874934 0.012691403133054087 0.023472048857463405 -0.046258085189779828 -0.037955954315058375 -0.085852013989268464
decision_type=2 2 2 2 2 2 2 2 2 2 2 2 2 2 2 2 2 2 2
left_child=-1 3 -3 4 12 6 -4 -7 9 11 -10 -9 16 -14 -15 -16 18 -18 -2
right_child=1 2 5 -5 -6 7 -8 8 10 -11 -12 -13 13 14 15 -17 17 -19 -20
leaf_value=-38.079634704589843 -1.2807883451908404 -244.21667948076802 -36.715556008475168 167.09072211294463 -188.54847099667504 -62.877021542135275 172.54241025447845 80.174344778060913 -237.70318089360777 -168.07160549897415 0.141994583936806 186.74216696378346 192.96694326400757 -80.439948662467629 135.08611179351806 13.221250418397576 -169.63657894134522 47.621966203053795 48.352280146442354
leaf_count=25 2479 31 28 33 21 53 24 36 23 26 3151 37 40 69 25 164 30 24 128
internal_value=0 0.296478 -4.33212 5.53341 1.89402 0.110495 119.73 -1.75968 0.248168 109.614 -3.16304 268.376 4.58372 51.7702 -0.0381286 58.6819 -0.700603 -146.154 2.31225
internal_count=6447 6422 3409 3013 2980 3378 52 3326 3273 99 3174 73 2959 298 258 189 2661 54 2607
shrinkage=0.5


Tree=23
num_leaves=20
num_cat=0
split_feature=0 3 1 0 3 0 3 1 3 0 3 3 0 3 3 0 3 1 0
split_gain=186720 4.51428e+06 2.16128e+06 2.64029e+06 1.04428e+06 971452 1.06106e+06 1.59905e+06 922435 557567 3.25547e+06 1.043e+06 2.22042e+06 1.00136e+06 2.67275e+06 1.53089e+06 1.30786e+06 531210 1.8869e+06
threshold=-0.12870256962178125 -0.10415537307806831 -0.17837833917403015 -0.17671238224405622 -0.15587456702975874 -0.18876099868099253 -0.19166240213025881 -0.20727964473308494 -0.1397123189198555 -0.011909467761823963 -0.014108562180035892 0.047538869896309399 0.048795247236533307 0.070396906508886872 0.084250262031661097 0.084110157482725947 0.056543550986112641 -0.091789110217338335 -0.089002147645669299
decision_type=2 2 2 2 2 2 2 2 2 2 2 2 2 2 2 2 2 2 2
left_child=2 -2 5 -4 -5 6 7 -1 -6 10 17 12 -11 16 -15 -16 -13 -3 -19
right_child=1 9 3 4 8 -7 -8 -9 -10 11 -12 13 -14 14 15 -17 -18 18 -20
leaf_value=1.1549258377730873 -138.20157220462957 55.949449634552003 204.35833764959264 -34.60223420858383 119.69131063160144 -102.45936385444973 105.39232621590297 -123.57604342240553 6.3279098132077385 -17.155718929192115 194.02668483734132 -10.154046498812162 -184.37800146185833 -160.47122298754178 121.30914915524997 -0.47193687577026555 148.43680099340585 -145.00417119806463 11.111120650486917
leaf_count=2193 60 40 27 40 38 23 24 26 34 145 25 26 23 26 26 3462 26 22 161
internal_value=0 -4.15123 6.97682 128.014 60.3452 -0.447815 1.64886 -0.613091 132.317 -0.0489891 45.8665 -3.09854 -80.0985 0.529048 -1.50942 0.87167 138.283 7.50472 -15.3137
internal_count=6447 4042 2405 139 112 2266 2243 2219 72 3982 248 3734 168 3566 3514 3488 52 223 183
shrinkage=0.5


Tree=24
num_leaves=20
num_cat=0
split_feature=3 3 3 1 1 3 1 1 3 1 3 3 3 1 2 1 2 2 3
split_gain=136700 203222 915568 874408 123385 761470 609278 541718 882608 500072 392776 1.50598e+06 1.35967e+06 1.34071e+06 493236 778361 386019 1.84476e+06 1.52238e+06
threshold=1.6413674227914838 1.5584781789135513 1.5393143704403804 1.5128067869125637 1.2827432196448498 1.2943408669459895 1.2756325809755584 1.2657694370149288 1.2322316563522187 1.2111780820700475 1.1029336714729923 1.1126310203389342 1.0761505174622956 1.0607077928102069 1.1926937731392817 1.1235566636291037 1.045518016955908 1.0313352031688845 1.0468275816057568
decision_type=2 2 2 2 2 2 2 2 2 2 2 2 2 2 2 2 2 2 2
left_child=1 2 3 4 6 -6 7 8 9 10 12 -12 13 16 15 -13 17 -1 -18
right_child=-2 -3 -4 -5 5 -7 -8 -9 -10 -11 11 14 -14 -15 -16 -17 18 -19 -20
leaf_value=0.03961244452519383 40.275124527159193 -23.858016855261297 97.674922386805221 -102.02663085574196 99.077449018305003 3.4144126910189683 -78.299336547851567 74.888454411799714 -73.487436777207904 59.717012722151622 -139.81904180844626 42.37301911248101 83.434005639990986 -129.44512176513672 50.063873946666718 -44.899781701917 -138.36769924993101 138.96762784322104 35.241855825696675
leaf_count=5439 21 89 24 21 22 382 25 24 41 35 24 36 49 20 32 88 23 24 28
internal_value=0 -0.263236 0.403215 -0.337909 0.342005 17.2476 -0.817956 -0.153702 -0.769961 0.263913 -0.459834 -46.4374 1.02252 -0.445939 -10.5604 -39.125 0.491473 1.2999 -86.1053
internal_count=6447 6426 6337 6313 6292 404 5888 5863 5839 5798 5763 180 5583 5534 156 124 5514 5463 51
shrinkage=0.5


Tree=25
num_leaves=20
num_cat=0
split_feature=2 1 1 1 0 1 2 0 0 1 2 0 1 2 1 1 2 1 0
split_gain=127531 273540 538208 237420 967667 782670 875436 226106 346224 253683 584064 525841 447812 224589 848587 1.04384e+06 210587 634471 284786
threshold=1.6542164840776654 1.5531768645188622 1.4958330042826427 1.4623441899046903 1.4814726844791326 1.4430766528653203 1.4393817309758685 1.4076114342910173 1.4223836843286404 1.350638350164534 1.3940432278862038 1.3459834536653086 1.3799984066054785 1.3328943750011686 1.3102682725582353 1.2932944899283141 1.2884858924877018 1.2657694370149288 1.2414236213677579
decision_type=2 2 2 2 2 2 2 2 2 2 2 2 2 2 2 2 2 2 2
left_child=1 2 3 5 -5 6 7 9 -9 11 12 13 -11 14 15 16 17 18 -1
right_child=-2 -3 -4 4 -6 -7 -8 8 -10 10 -12 -13 -14 -15 -16 -17 -18 -19 -20
leaf_value=0.070765728669262243 -38.90086961927868 27.654022003827471 -44.502797645681042 118.69429168701171 -27.594226772968586 -92.108462209286898 82.784051835536957 -84.477206659317019 3.7840542602539062 80.547274936329231 -35.340394232008194 -56.698138841768589 -9.6859131932258613 44.795205022607533 -82.599673394233946 111.61869245483761 -36.210112726688386 70.404756903648376 -46.509617892178625
leaf_count=5806 21 89 68 20 26 23 32 20 25 44 27 41 20 28 31 21 40 32 33
internal_value=0 0.254254 -0.518949 0.440868 72.019 -0.0882326 0.594825 -0.261067 -70.8863 0.257982 52.6631 -0.532612 104.699 0.239781 -0.179776 0.682599 -0.108071 0.384603 -0.384981
internal_count=6447 6426 6337 6269 46 6223 6200 6168 45 6123 91 6032 64 5991 5963 5932 5911 5871 5839
shrinkage=0.5


Tree=26
num_leaves=20
num_cat=0
split_feature=3 1 2 2 3 3 2 2 1 3 2 3 2 3 1 2 1 2 1
split_gain=114656 1.56668e+06 549759 658021 341719 885848 800350 255781 240461 217824 543716 215479 2.41488e+06 988348 822822 374184 285742 893972 544418
threshold=1.3449056146041156 1.3455920904637468 1.3217341280867896 1.303366221706874 1.3769992215652092 1.3936232481925381 1.367770146608603 1.4128761445542184 1.3455920904637468 1.4335670899498705 1.4521695138985946 1.1839758012812218 1.1580505066758968 1.1361817247276507 1.2240231067629608 1.2380322762289466 1.1143816459913085 1.1071318801290422 1.0746996947078447
decision_type=2 2 2 2 2 2 2 2 2 2 2 2 2 2 2 2 2 2 2
left_child=1 2 3 11 6 -6 8 -7 -2 -9 -11 12 13 16 -13 -16 17 18 -1
right_child=4 -3 -4 -5 5 7 -8 9 -10 10 -12 14 -14 -15 15 -17 -18 -19 -20
leaf_value=-0.21940547124385978 43.142092433842748 -130.81888945206353 -62.553434916904997 61.923499395680984 -89.334298677444451 54.858207420066549 -26.004014549584223 -27.254145804871904 116.25990249799645 83.160002666970954 2.7979794505142395 -63.743767861397039 119.82826562154861 -91.020547668139145 61.874910278320314 -7.3559850387358932 42.623888944968201 -78.861355993482803 60.63335913580817
leaf_count=5542 22 23 35 43 25 27 29 47 23 23 248 62 42 30 25 89 39 36 37
internal_value=0 -1.1469 -0.145017 0.590671 15.5065 3.09972 77.5402 16.2713 161.027 8.33732 19.2367 -0.307333 0.752002 -1.0133 -34.7719 15.6525 -0.0527725 -0.645243 0.368342
internal_count=6447 6003 5980 5945 444 370 74 345 45 318 271 5902 5726 5684 176 114 5654 5615 5579
shrinkage=0.5


Tree=27
num_leaves=20
num_cat=0
split_feature=3 2 3 3 2 2 2 3 0 0 3 3 0 3 2 0 2 3 0
split_gain=113552 7.20213e+06 5.32418e+06 580268 2.39392e+06 606913 2.47462e+06 4.04404e+06 1.50898e+06 748874 512148 3.99084e+06 2.21614e+06 1.37937e+06 832142 726738 1.92791e+06 1.83204e+06 828765
threshold=-0.78250801517657931 -0.84730636075158905 -0.72132236161765984 -0.65598070140190801 -0.62944904077714792 -0.52249667451434878 -0.47529813027228734 -0.47773419367554648 -0.55409720742395774 -0.59125864892485325 -0.36760001726949137 -0.40154073830028825 -0.4070671562682408 -0.385378490190385 -0.45855775990071879 -0.28173384735528262 -0.30952196256494852 -0.27732231711274608 -0.32951284357071969
decision_type=2 2 2 2 2 2 2 2 2 2 2 2 2 2 2 2 2 2 2
left_child=1 -1 -2 -4 -5 8 7 -7 9 -6 11 12 14 -13 -8 16 18 -17 -12
right_child=2 -3 3 4 5 6 10 -9 -10 -11 15 13 -14 -15 -16 17 -18 -19 -20
leaf_value=-0.18232811795476248 -236.0965949098269 301.83741752505301 -77.574356608092785 143.59129136184166 -33.912826771431781 -9.371533802577428 -91.924509660057396 285.00590910911558 -126.62044230374423 74.641985336939499 46.089246023268927 -246.64952471142723 168.21950426968661 -69.408979923828795 27.989078008211575 -144.89119720458984 139.2197529848884 -0.2459960629053719 -55.131887435913086
leaf_count=1514 24 20 24 29 47 28 23 20 33 24 42 21 22 23 39 22 34 4419 39
internal_value=0 7.5107 -2.34509 -0.0386113 0.726577 -0.991211 0.669578 226.571 -76.5571 5.56352 -1.64539 -64.0298 63.7652 -308.002 -32.99 0.107293 78.5926 -1.92509 -5.29371
internal_count=6447 1534 4913 4889 4865 4836 4732 48 104 71 4684 128 84 44 62 4556 115 4441 81
shrinkage=0.5


Tree=28
num_leaves=20
num_cat=0
split_feature=0 0 2 1 2 0 2 0 1 0 1 0 1 2 1 0 0 1 2
split_gain=80207.6 87631.2 448638 1.24273e+06 386451 240153 164654 285714 655142 327151 123253 377337 847412 628359 1.10325e+06 548896 292629 582343 355359
threshold=1.6490453958434192 1.4339245046705333 1.48658027521793 1.4430766528653203 1.4128761445542184 1.4223836843286404 1.5846974460068457 1.4997071806193236 1.5128067869125637 1.5560263838877615 1.3799984066054785 1.3459834536653086 1.3455920904637468 1.3217341280867896 1.3361876973850066 1.3656028482465268 1.2181111642771338 1.2111780820700475 1.1926937731392817
decision_type=2 2 2 2 2 2 2 2 2 2 2 2 2 2 2 2 2 2 2
left_child=1 4 3 -3 10 -6 7 -4 -9 -10 11 13 -13 16 -15 -14 17 18 -1
right_child=-2 2 6 -5 5 -7 -8 8 9 -11 -12 12 15 14 -16 -17 -18 -19 -20
leaf_value=-0.3860716427538412 30.850316547212145 28.045601815888375 -26.925881640116373 -104.58331721707394 70.058486953377724 0.21501202583312989 -16.082404497897986 97.988860855102544 -25.783934128590118 49.403259500213288 -27.754989409446715 -53.680723762512208 121.4524732208252 3.3812435935525333 -140.31625010750511 22.572695855051279 21.167310699693257 -75.104891850398133 55.102146674846779
leaf_count=5731 21 33 30 38 32 20 66 25 39 23 40 20 25 34 22 32 161 26 29
internal_value=0 -0.201636 -18.4051 -85.8778 0.547504 86.3912 7.77276 30.3017 59.3201 4.21618 -0.181887 0.182113 69.7409 -0.710112 -106.143 131.882 0.282696 -0.887432 -0.213408
internal_count=6447 6426 254 71 6172 52 183 117 87 62 6120 6080 77 6003 56 57 5947 5786 5760
shrinkage=0.5


Tree=29
num_leaves=20
num_cat=0
split_feature=3 1 1 2 3 3 1 1 1 3 1 1 2 3 3 1 2 2 1
split_gain=104002 1.08674e+06 357941 270365 125974 110767 532569 270303 199573 121612 113648 109594 2.34669e+06 941810 1.52352e+06 1.18035e+06 1.10236e+06 421357 1.36845e+06
threshold=1.3197386854044091 1.2932944899283141 1.3361876973850066 1.303366221706874 1.3072706654339121 1.5584781789135513 1.5128067869125637 1.4958330042826427 1.4623441899046903 1.6413674227914838 1.4804648497393356 0.89853935606217716 0.91206006427145836 0.832793238778895 0.8641941779638499 0.88729995945587814 0.85997891200435617 0.74837644286056559 0.74348155798343896
decision_type=2 2 2 2 2 2 2 2 2 2 2 2 2 2 2 2 2 2 2
left_child=1 3 -2 11 -3 6 7 8 -4 -7 -10 13 -13 17 16 -16 -15 18 -1
right_child=2 4 5 -5 -6 9 -8 -9 10 -11 -12 12 -14 14 15 -17 -18 -19 -20
leaf_value=0.079344583416793388 52.938897438538383 -110.77571561336518 -1.7089671548855663 -58.058991670608521 -54.656736707687379 -18.864840743247044 58.817736213857479 -52.161153212837554 59.182044278020442 23.436021032787504 9.4768862516983692 -142.4776963909467 0.16325042087765476 53.623955522264751 -58.046806599231473 80.185974286950156 190.37444896697997 -23.055490713045387 103.824353992939
leaf_count=4749 39 20 233 20 20 89 44 23 23 21 23 30 742 56 47 23 20 193 32
internal_value=0 -1.15828 13.9274 -0.046818 -165.432 6.06327 14.8511 -0.124109 8.46571 -21.5784 68.6589 0.347178 -10.7596 2.02187 81.185 -25.2549 179.222 -0.301778 1.54745
internal_count=6447 5952 495 5912 40 456 346 302 279 110 46 5892 772 5120 146 70 76 4974 4781
shrinkage=0.5


Tree=30
num_leaves=20
num_cat=0
split_feature=2 1 1 3 1 1 1 2 3 2 3 3 1 3 1 3 1 1 3
split_gain=103957 178382 151124 824097 210539 112755 84163 5.0762e+06 1.30325e+06 1.17972e+06 1.10278e+06 1.93123e+06 2.55853e+06 1.23115e+06 1.30011e+06 1.35603e+06 1.06343e+06 2.02118e+06 831157
threshold=1.6542164840776654 1.5937763175661057 1.4958330042826427 1.5153018875342383 1.5325330748338231 1.5531768645188622 0.37212271909367967 0.37148560435622308 0.36431893285041334 0.39520112904927857 0.33822844661585522 0.30959817853545518 0.31661386238501893 0.2925123733907003 0.23702058437714588 0.24079317943900982 0.1762360925267529 0.16568482224328848 0.11796009380374504
decision_type=2 2 2 2 2 2 2 2 2 2 2 2 2 2 2 2 2 2 2
left_child=1 2 6 -4 -5 -6 8 -8 10 -9 11 13 -13 14 16 -16 17 18 -1
right_child=-2 -3 3 4 5 -7 7 9 -10 -11 -12 12 -14 -15 15 -17 -18 -19 -20
leaf_value=1.8263328065144129 -35.121944427490234 31.841625842858445 -105.06836089220914 39.795744012903285 -43.981246185302737 1.2966717373241077 247.3053304581415 -98.132571037610376 -115.0021971988678 1.6557280344606009 62.637440541211298 -149.97797847747802 12.50843506417376 62.373299724016434 -143.31973308987088 -23.685699811253524 35.497591475365866 -139.83026024011465 -39.000941695502171
leaf_count=3034 21 44 22 27 20 44 21 30 25 2327 68 50 47 78 27 193 213 26 130
internal_value=0 0.229555 -0.20792 -36.4529 5.53657 -25.7054 0.445404 5.13231 -2.41902 0.771236 -0.947305 -3.20721 -142.495 0.443402 -2.23274 -76.7361 2.58382 -1.98408 0.297706
internal_count=6447 6426 6382 113 91 64 6269 2378 3891 2357 3866 3798 97 3701 3623 220 3403 3190 3164
shrinkage=0.5


Tree=31
num_leaves=20
num_cat=0
split_feature=3 2 3 3 1 3 3 3 1 1 2 1 2 1 3 3 3 1 3
split_gain=61463.6 1.84072e+06 1.04327e+06 786056 2.44665e+06 412201 2.21611e+06 852297 406732 707199 480529 399368 391160 372938 237597 205948 144932 144711 848657
threshold=-1.5769979544076806 -1.5431012548343128 -1.6002023249083277 -1.646818866242463 -1.7112944110086568 -1.8132207549968526 -1.8241418169339729 -1.7768326078236989 -1.8702974666716472 -1.8847251819070798 -1.9047165053745989 -1.9182598713732213 -1.8514960779016538 -1.7232448714818851 -1.8974953344270624 -1.5623364864794114 -1.8395190415642524 -1.502516884660628 -1.4907608162784112
decision_type=2 2 2 2 2 2 2 2 2 2 2 2 2 2 2 2 2 2 2
left_child=2 15 3 4 5 6 8 -7 9 10 11 -1 -10 -9 -12 -2 -14 -3 -19
right_child=1 17 -4 -5 -6 7 -8 13 12 -11 14 -13 16 -15 -16 -17 -18 18 -20
leaf_value=-6.3870679198351121 -126.85691553115845 15.562257312434284 102.7658433501537 -86.332927093505859 167.74506118080834 -88.807096628042373 149.6003155517578 50.252854493948128 -92.688870495557779 60.190133714675902 -84.727003678031593 48.105175526936847 -27.906870416296062 -21.089439607435658 -18.526095288269449 -63.877497319821956 16.0746360375331 -91.990067381858822 0.33805998680770949
leaf_count=133 25 152 26 25 22 39 25 26 20 50 23 45 67 62 33 27 26 25 5596
internal_value=0 -1.00897 9.44894 0.894995 8.49398 -4.60969 10.4222 -54.5582 -7.76282 12.4273 -10.6396 14.7781 -58.5061 -0.0220691 -91.4315 -188.312 -31.2219 0.678155 -0.145159
internal_count=6447 5825 622 596 571 549 422 127 397 284 234 178 113 88 56 52 93 5773 5621
shrinkage=0.5


Tree=32
num_leaves=20
num_cat=0
split_feature=3 2 0 3 0 3 0 0 0 0 0 0 2 2 0 3 3 0 0
split_gain=65714.1 5.05837e+06 1.86775e+06 1.78861e+06 1.32899e+06 1.43734e+06 1.00933e+06 1.57622e+06 854410 771165 686496 2.48301e+06 1.48757e+06 551997 617182 478527 389939 373357 2.01933e+06
threshold=0.46083064299240711 0.47681043461067535 0.45849436937373544 0.44235950229537474 0.43379701384208441 0.37678695282091013 0.3587816816197798 0.35116474019413041 0.48157601005752149 0.45849436937373544 0.53350970159604005 0.5420499086490409 0.51284873193835778 0.33405227616424332 0.33385350968129085 0.52848119579528785 0.35577603027803589 0.57459502201317925 0.56466991651915122
decision_type=2 2 2 2 2 2 2 2 2 2 2 2 2 2 2 2 2 2 2
left_child=3 2 -2 4 5 6 7 13 -3 -5 12 -12 -10 -1 -15 -14 -8 18 -13
right_child=1 8 -4 9 -6 -7 16 -9 10 -11 11 17 15 14 -16 -17 -18 -19 -20
leaf_value=0.34595836245495343 -70.348910760879519 96.827007210772976 -286.43630409240723 35.542830838606911 -94.275594118479134 63.042388525637953 -23.590435374866832 130.87364449708357 -110.9409693784492 159.83286581436792 155.45451285288885 -24.074439851605163 48.657984706333707 -107.99407592773437 -5.1336654118129186 -40.892355111929085 -114.03681677121382 -1.2134833318483493 150.55654506683351
leaf_count=3772 20 23 20 26 37 91 22 23 43 24 26 49 35 25 35 26 26 2099 25
internal_value=0 -4.19301 -356.785 2.43094 0.0993461 1.84699 -1.04967 0.744757 1.87048 190.404 -0.0448559 3.70985 -79.4353 -0.821803 -95.9843 20.978 -145.164 0.0342058 69.845
internal_count=6447 2366 40 4081 4031 3994 3903 3855 2326 50 2303 2199 104 3832 60 61 48 2173 74
shrinkage=0.5


Tree=33
num_leaves=20
num_cat=0
split_feature=3 0 3 1 3 1 3 0 1 3 1 3 0 1 3 1 3 1 0
split_gain=53872.5 2.44089e+06 1.42861e+06 3.91589e+06 1.4024e+06 3.04123e+06 2.10687e+06 595288 2.81469e+06 1.17245e+06 4.08491e+06 1.3345e+06 1.20129e+06 668893 734162 666048 582425 539862 393593
threshold=-0.15587456702975874 -0.15663135484916238 -0.17480748624421685 -0.17837833917403015 -0.12678252043193286 -0.1462657774417471 -0.11616161453113931 -0.065920506961883271 -0.065984373111039427 -0.034657706205484314 -0.036509628949622473 -0.0078745521947874934 0.010248907294610627 0.033105817377148329 0.047538869896309399 -0.091789110217338335 -0.072292655375687617 -0.0033648777330874493 0.18520774367770879
decision_type=2 2 2 2 2 2 2 2 2 2 2 2 2 2 2 2 2 2 2
left_child=1 2 3 -1 5 -2 -6 8 15 10 -9 -11 17 -14 -15 -8 -17 -13 -16
right_child=4 -3 -4 -5 6 -7 7 9 -10 11 -12 12 13 14 18 16 -18 -19 -20
leaf_value=-0.901422548040543 -19.096813550809536 -143.61900130907694 -114.41260882660195 198.07771072387695 -147.84574667612711 188.43669583720546 40.774543126424156 1.4976697768483842 206.33328332901002 76.834291525054397 -249.93600836254302 -115.92778272782603 53.721754559015821 -72.01353645324707 16.679031186103821 -64.71788184587345 38.560861682891847 -22.614056141145767 -0.97805434854174611
leaf_count=2257 41 30 27 25 24 31 63 70 20 57 21 31 59 35 350 43 20 31 3212
internal_value=0 -3.83093 -0.14873 2.55691 2.18125 140.516 -0.286566 1.48056 64.1618 -0.886602 -113.051 1.81723 -0.510778 1.83001 0.0976795 8.84356 -63.862 -138.542 1.51384
internal_count=6447 2339 2309 2282 4108 72 4036 4012 146 3866 91 3775 3718 3656 3597 126 63 62 3562
shrinkage=0.5


Tree=34
num_leaves=20
num_cat=0
split_feature=2 2 2 1 1 2 1 1 1 2 1 3 1 1 1 3 1 1 3
split_gain=74338.7 464581 232927 242171 419433 408825 143071 226594 325875 410576 314476 1.09146e+06 633045 951149 846736 387503 642432 632828 272375
threshold=1.2224544315776258 1.2082716177906023 1.2380322762289466 1.2428318929204407 1.2827432196448498 1.2784881712935705 1.1919105450306777 1.1549810990385521 1.1235566636291037 1.1436351877448236 1.0994722423298915 1.091850987054773 1.0475187049558763 1.0382289995976086 1.0607077928102069 1.0073455183658504 0.99464766581808151 1.0019876799283178 1.0347751623009434
decision_type=2 2 2 2 2 2 2 2 2 2 2 2 2 2 2 2 2 2 2
left_child=1 6 -2 -4 5 -5 7 8 10 -10 11 12 13 15 -14 16 -1 -17 -19
right_child=2 -3 3 4 -6 -7 -8 -9 9 -11 -12 -13 14 -15 -16 17 -18 18 -20
leaf_value=-0.17068815655930522 53.372815569241844 -68.587512664794929 57.350163745880124 -90.133483720862344 5.9071001058548607 -7.204371602052734 -38.022124481201175 34.836519002914429 -89.633059957753062 2.9334169626235962 39.832875215277383 -85.989857309573409 124.02276833852132 -99.701351443926498 2.0872088841029575 91.778204154968265 -89.95036354064942 -20.777697673839768 46.289862155914307
leaf_count=5356 24 25 20 23 554 42 25 46 23 25 49 37 24 24 35 30 20 41 24
internal_value=0 -1.14966 10.0297 6.39713 2.89783 -73.097 -0.559174 -0.230062 -0.795383 -82.8427 -0.0971076 -0.796156 0.344246 -0.762012 103.376 0.109378 -1.00938 63.4193 7.97142
internal_count=6447 5784 663 639 619 65 5759 5734 5688 48 5640 5591 5554 5495 59 5471 5376 95 65
shrinkage=0.5


Tree=35
num_leaves=20
num_cat=0
split_feature=0 1 1 0 3 0 3 0 3 0 1 0 0 3 0 1 3 1 1
split_gain=63025.5 2.91592e+06 822912 551805 507944 1.03328e+06 523769 1.8208e+06 468519 2.33619e+06 1.48967e+06 2.11044e+06 907781 1.21318e+06 1.2791e+06 883415 677422 564353 560371
threshold=0.78283758426229688 0.77008910913304496 0.81711107452674514 0.83033960078952851 0.87758575496919822 0.87350226886820836 0.85218793651077884 0.84580430004766516 0.70118636131253986 0.70777608875862463 0.65907139571572348 0.66622913552780982 0.74239854978430364 0.74413176343314003 0.76271039358603543 0.67581580290469956 0.64715827477372045 0.72031463844800625 0.68659644862910885
decision_type=2 2 2 2 2 2 2 2 2 2 2 2 2 2 2 2 2 2 2
left_child=1 8 -2 -4 5 6 7 -5 10 -10 16 -12 17 -14 -15 -13 -1 -11 -17
right_child=2 -3 3 4 -6 -7 -8 -9 9 12 11 15 13 14 -16 18 -18 -19 -20
leaf_value=0.042308501356005196 51.830065482928433 -151.32796609401703 70.929985745085617 -58.106759255932225 1.4419752783588276 -120.95259182269757 -60.190894349416098 125.33409651120503 133.22700238839175 12.702019736880349 -201.24099922180176 41.392055958509445 135.84614305496217 -79.70815518924168 85.84944572448731 -122.58133631167205 74.20766029050273 -89.921931624412537 -19.575930872271137
leaf_count=4526 81 32 27 31 1367 26 30 24 39 21 21 32 20 28 20 23 31 37 31
internal_value=0 -1.78595 5.47382 0.189375 -2.39865 -67.4556 -14.0945 43.8803 0.207808 52.5766 -1.64486 -118.276 -13.6236 64.7672 -21.4516 -48.8763 1.09367 -105.53 -126.897
internal_count=6447 4861 1586 1505 1478 111 85 55 4829 165 4664 107 126 68 48 86 4557 58 54
shrinkage=0.5


Tree=36
num_leaves=20
num_cat=0
split_feature=1 0 2 1 1 0 2 1 0 0 0 2 0 0 2 1 0 2 1
split_gain=64888.7 122959 222569 93247.4 180343 513324 803803 270961 170521 137675 241093 124692 302700 115676 491515 1.1758e+06 443825 399078 580454
threshold=1.6380457776684676 1.6231939582775787 1.6016703215224639 1.5531768645188622 1.5128067869125637 1.4997071806193236 1.48658027521793 1.5325330748338231 1.5802621066057367 1.4463885906397778 1.4339245046705333 1.4233388760364487 1.4076114342910173 1.2181111642771338 1.1761859079117627 1.1549810990385521 1.1389411367317479 1.1926937731392817 1.2111780820700475
decision_type=2 2 2 2 2 2 2 2 2 2 2 2 2 2 2 2 2 2 2
left_child=1 2 3 4 5 6 9 -6 -5 10 11 12 13 14 15 16 -1 -16 -19
right_child=-2 -3 -4 8 7 -7 -8 -9 -10 -11 -12 -13 -14 -15 17 -17 -18 18 -20
leaf_value=0.18216553647071124 -27.748293377104261 35.087869033813476 -51.43611599150158 55.555859157017302 -69.52046166295591 67.740179334368023 -86.195158040082006 8.0960776589133516 -7.4342314113270156 29.87639686388847 -47.971013876108024 31.909134126478627 -59.808694112868537 9.3715696342869439 -95.14354863374129 113.15592595805292 -64.075871785481766 31.326765954494476 -73.793706486622497
leaf_count=5660 21 25 21 21 23 28 27 22 22 39 26 31 21 334 23 23 27 29 24
internal_value=0 0.181362 -0.092011 0.246294 -0.0686264 0.382522 -0.221364 -63.1492 46.6567 0.523956 0.151268 0.556068 0.236718 0.647982 -0.396571 0.666758 -0.245821 -80.2862 -32.5499
internal_count=6447 6426 6401 6380 6337 6292 6264 45 43 6237 6198 6172 6141 6120 5786 5710 5687 76 53
shrinkage=0.5


Tree=37
num_leaves=20
num_cat=0
split_feature=3 2 0 3 3 3 0 0 3 2 3 3 2 0 3 0 3 0 3
split_gain=60916.7 1.7987e+06 891202 732269 1.56517e+06 461250 1.2192e+06 1.09246e+06 425037 3.97277e+06 1.89598e+06 414313 399434 2.46793e+06 805152 429540 922897 380410 440706
threshold=0.21631891801544204 0.19687424117500082 0.21613714219398206 0.25487742422049697 0.2611114342057454 0.16529239183989033 0.16258773580759847 0.19305550151019604 0.11796009380374504 0.1275877082482309 0.10687740938552566 0.19045932103959681 0.078064112565673846 0.058720352730561302 0.10133606717641598 0.041178305810883921 0.047538869896309399 0.27845757204020438 0.26757633344970666
decision_type=2 2 2 2 2 2 2 2 2 2 2 2 2 2 2 2 2 2 2
left_child=1 5 -3 -2 -5 6 8 11 10 -10 12 -7 13 15 -14 -1 -17 18 -6
right_child=3 2 -4 4 17 7 -8 -9 9 -11 -12 -13 14 -15 -16 16 -18 -19 -20
leaf_value=0.011045067060210337 37.468267781879092 -128.76576065435643 -0.025012874603271486 -119.88603648432979 -26.549828720092773 26.705677156448363 -86.621944645556013 117.32792500087193 -199.02465438842773 31.243682975199686 138.30995361328124 -54.380472266155742 -90.542077471228211 127.45093516299599 29.070805152257282 -120.49508850470833 14.67751123223986 0.14382367147438563 60.557119819353211
leaf_count=2862 136 41 20 27 20 50 41 28 26 67 25 23 34 38 24 23 28 2881 53
internal_value=0 -2.97396 -173.111 3.17719 -0.0966362 0.200825 -1.92012 66.727 0.326212 -66.2648 2.3674 2.31597 0.0887993 1.70405 -82.0942 -1.59891 -92.5654 2.09403 73.3844
internal_count=6447 3330 61 3117 2981 3269 3168 101 3127 93 3034 73 3009 2951 58 2913 51 2954 73
shrinkage=0.5


Tree=38
num_leaves=20
num_cat=0
split_feature=3 2 3 3 3 0 0 0 0 0 2 3 2 3 3 0 0 3 2
split_gain=51128.2 2.90703e+06 1.25558e+06 2.06896e+06 499304 2.12255e+06 1.52765e+06 897014 880528 2.96862e+06 873721 715536 619492 1.04442e+06 881173 649478 984541 764499 424242
threshold=0.76445001819987557 0.76627933895238198 0.73235641123878181 0.74413176343314003 0.66008807326164309 0.66622913552780982 0.65699647925429538 0.65145688549018677 0.68515608088851432 0.70777608875862463 0.72652095931990668 0.64023159701233323 0.61980109820115703 0.60190398006599122 0.59128307416519765 0.58590502594823435 0.5420499086490409 0.5492612290794493 0.68420502310288611
decision_type=2 2 2 2 2 2 2 2 2 2 2 2 2 2 2 2 2 2 2
left_child=2 -2 4 -4 5 7 -6 11 18 -10 -11 12 13 14 15 16 -1 -18 -8
right_child=1 -3 3 -5 6 -7 8 -9 9 10 -12 -13 -14 -15 -16 -17 17 -19 -20
leaf_value=0.17032696134540665 187.25041348593575 0.0057627927985720506 -175.62629279383907 -5.0276440015205974 146.45043713113537 -155.72012961249459 -87.075817942619324 77.495284621779987 146.00070816592165 -74.417697104012092 42.751961341271034 -80.356228453772403 79.937962770462036 -73.204086775682413 97.809777633003563 67.524815859113417 -108.50740772969014 -10.475307597670444 5.7078300389376553
leaf_count=4267 21 1604 27 52 23 22 28 37 38 41 26 28 24 49 23 35 37 43 22
internal_value=0 4.85108 -1.6348 -126.667 0.447753 -1.57828 52.4074 -0.0777335 16.7213 68.7324 -57.8977 -1.35104 -0.354588 -1.21798 0.397079 -0.627594 -1.72 -111.63 -92.502
internal_count=6447 1625 4822 79 4743 4565 178 4543 155 105 67 4506 4478 4454 4405 4382 4347 80 50
shrinkage=0.5


Tree=39
num_leaves=20
num_cat=0
split_feature=0 3 1 0 0 3 0 3 3 0 3 1 3 1 1 3 3 0 1
split_gain=49916.6 121670 314966 243545 202904 206149 518293 188010 109274 89478.6 708421 305660 539933 318237 832054 386516 812457 320513 232072
threshold=1.6490453958434192 1.5584781789135513 1.5325330748338231 1.5802621066057367 1.5147102470637845 1.4996014179417612 1.4814726844791326 1.4619664687715577 1.5991146884470224 1.4463885906397778 1.4335670899498705 1.3951371857078405 1.3769992215652092 1.350638350164534 1.3623364976527228 1.3525249601416414 1.3449056146041156 1.3342118169165778 1.2827432196448498
decision_type=2 2 2 2 2 2 2 2 2 2 2 2 2 2 2 2 2 2 2
left_child=1 2 4 -3 5 6 7 9 -5 10 11 12 13 15 -15 16 17 18 -1
right_child=-2 3 -4 8 -6 -7 -8 -9 -10 -11 -12 -13 -14 14 -16 -17 -18 -19 -20
leaf_value=0.016503268787029967 24.337422688802082 19.18385808221225 59.900414553555578 -66.798420429229736 -43.281406588024566 43.751760836000798 -76.641390887173742 44.40708533922831 -21.533810824155807 29.920280265808106 -82.412778854370117 36.110173904289631 -64.82921776175499 113.70324470883324 -28.796138095855714 69.384420859813687 -98.414657683599557 -51.447162739932537 28.382333298252053
leaf_count=5888 21 29 22 20 27 27 22 24 40 25 26 59 32 21 20 20 21 30 73
internal_value=0 -0.159069 0.356604 -36.8762 -0.0595117 0.311924 -0.0640817 0.476199 -73.244 0.135071 -0.106066 0.588727 -0.103536 0.579118 88.3827 -0.0176899 -0.479388 0.208869 0.727758
internal_count=6447 6426 6337 89 6315 6288 6261 6239 60 6215 6190 6164 6105 6073 41 6032 6012 5991 5961
shrinkage=0.5


Tree=40
num_leaves=20
num_cat=0
split_feature=2 1 3 3 3 1 1 2 2 3 2 3 2 2 3 1 2 3 3
split_gain=61661.3 393401 430320 286349 296477 295790 258110 180553 143668 134983 241631 619113 382136 971024 998643 367057 1.29132e+06 529661 268643
threshold=1.4521695138985946 1.4306903790542969 1.4199446236858091 1.5153018875342383 1.5393143704403804 1.5531768645188622 1.3951371857078405 1.6016703215224639 1.5044831713097466 1.3769992215652092 1.367770146608603 1.3449056146041156 1.3217341280867896 1.3133639429010053 1.2943408669459895 1.2428318929204407 1.2784881712935705 1.2853361858561863 1.1839758012812218
decision_type=2 2 2 2 2 2 2 2 2 2 2 2 2 2 2 2 2 2 2
left_child=1 2 6 8 -5 -6 9 -7 -2 10 11 12 13 14 15 18 -17 -18 -1
right_child=3 -3 -4 4 5 7 -8 -9 -10 -11 -12 -13 -14 -15 -16 16 17 -19 -20
leaf_value=0.28909795218379275 17.769404726869919 -62.905624694824219 -60.820724618845972 -57.77017806923908 47.415262222290039 -35.835839699476196 41.310096841109427 7.1970093264029575 62.096293563842771 -32.41460794210434 -45.386303243965941 60.145226966503053 -42.741513949174148 105.15808899836107 -96.021752348652598 95.794947715032663 -79.119404917177945 28.185632519100022 -27.865274506945944
leaf_count=5726 68 25 29 23 30 39 38 65 25 32 29 43 52 22 27 42 23 23 86
internal_value=0 -0.621165 -0.114076 15.3974 -10.6503 7.35322 0.459633 -17.8806 59.3705 -0.0517678 0.289559 0.726489 -0.130244 0.615822 -0.162549 0.71555 64.8162 -50.9338 -0.255003
internal_count=6447 6197 6172 250 157 134 6143 104 93 6105 6073 6044 6001 5949 5927 5900 88 46 5812
shrinkage=0.5


Tree=41
num_leaves=20
num_cat=0
split_feature=2 1 1 0 1 2 1 0 1 0 2 0 0 1 2 0 2 0 2
split_gain=66106.2 1.16983e+06 180208 217413 188884 409014 204822 415622 171604 415475 326337 401574 215409 418076 171661 125574 484277 452708 171976
threshold=1.3328943750011686 1.3249483007787075 1.3361876973850066 1.3459834536653086 1.350638350164534 1.4128761445542184 1.4201391087708324 1.4339245046705333 1.4430766528653203 1.4814726844791326 1.5044831713097466 1.5147102470637845 1.5377918877475705 1.5531768645188622 1.6542164840776654 1.2889718011763571 1.2784881712935705 1.3065138480960345 1.2380322762289466
decision_type=2 2 2 2 2 2 2 2 2 2 2 2 2 2 2 2 2 2 2
left_child=1 15 -2 -4 -5 -6 -7 -8 -9 -10 -11 -12 -13 -14 -15 16 18 -17 -1
right_child=2 -3 3 4 5 6 7 8 9 10 11 12 13 14 -16 17 -18 -19 -20
leaf_value=0.21310987274412674 47.028344192504882 -94.327440839825258 -47.544727772474289 -31.76051865854571 43.117868651806468 -35.519511405159449 71.558041334152222 40.33976356188456 -51.231534713353867 64.144106819516139 -59.197433398320122 53.788309465755113 -56.468216602618881 24.286065816879272 -26.196292650131952 -51.420117445967414 60.720709887417883 33.949144601821899 -31.52435423329819
leaf_count=5803 25 33 20 31 71 34 22 24 39 21 26 22 26 85 21 44 33 24 43
internal_value=0 -0.894849 11.4587 6.78684 11.6151 17.5722 2.33746 11.0605 0.0559096 -8.00645 10.321 -3.4419 15.9657 0.69727 28.5697 0.147035 0.641236 -42.5796 -0.0406673
internal_count=6447 5980 467 442 422 391 320 286 264 240 201 180 154 132 106 5947 5879 68 5846
shrinkage=0.5


Tree=42
num_leaves=20
num_cat=0
split_feature=1 0 1 0 3 1 3 0 1 0 1 0 0 3 3 0 3 0 0
split_gain=62243.1 2.19934e+06 717544 531621 1.23069e+06 1.06581e+06 1.79455e+06 561313 995135 482172 1.07624e+06 927043 728992 349721 341698 320196 297951 756504 566397
threshold=0.012691403133054087 0.020404829195476485 -0.0033648777330874493 -0.029913147495177067 -0.0078745521947874934 -0.077223769717338506 -0.072292655375687617 -0.082539288254209212 -0.099473187488991768 -0.14255155403205289 -0.1614045565441091 -0.10539011253115739 -0.15663135484916238 -0.021035239941423003 0.028375061423138389 -0.04353131549861082 -0.17480748624421685 -0.17671238224405622 -0.20948831201503237
decision_type=2 2 2 2 2 2 2 2 2 2 2 2 2 2 2 2 2 2 2
left_child=2 -2 3 5 13 7 -7 8 9 10 16 -11 -12 -5 -3 -8 17 18 -1
right_child=1 14 -4 4 -6 6 15 -9 -10 11 12 -13 -14 -15 -16 -17 -18 -19 -20
leaf_value=0.20764236083147636 149.15089302062989 -52.801302433013916 -64.405044359631006 127.69485428700081 -36.825712254553132 -180.62816438220796 -5.9975787695543268 -67.782594801982242 73.882265409697652 -70.355552557061927 139.53548121452332 43.967630043029786 25.167618437817222 44.870257453918455 0.78228114867197152 -76.642518496513361 -45.23290742410196 83.195022017867473 -53.091120813407152
leaf_count=2202 25 30 45 26 33 21 81 30 46 61 22 25 38 25 3602 20 37 27 51
internal_value=0 2.71398 -3.55736 -1.50403 76.8232 -3.97659 -95.2762 0.410388 2.03624 -0.685439 1.97592 -74.2441 134.205 174.189 0.679371 -39.9734 -1.44823 -0.00364306 -1.99771
internal_count=6447 3657 2790 2745 84 2661 122 2539 2509 2463 2377 86 60 51 3632 101 2317 2280 2253
shrinkage=0.5


Tree=43
num_leaves=20
num_cat=0
split_feature=2 1 2 2 1 2 2 1 3 2 1 2 1 2 3 2 1 1 2
split_gain=63012.1 3.60664e+06 833493 526425 5.82215e+06 4.01771e+06 1.26272e+06 3.30893e+06 717347 524010 456934 771031 453698 744715 834606 435975 278637 223283 216143
threshold=-0.17513398930430082 -0.16897394609529012 -0.19233936996396855 -0.029818274273323651 -0.025155544622850957 -0.01470543991010202 -0.049116201229437419 -0.057726857237023789 -0.064904199096874685 -0.0051727290040699163 -0.20727964473308494 -0.21326483292842927 -0.077223769717338506 -0.14374579485760977 -0.15587456702975874 -0.13770066111232113 -0.084793159268519505 -0.091789110217338335 0.0071500436305569513
decision_type=2 2 2 2 2 2 2 2 2 2 2 2 2 2 2 2 2 2 2
left_child=1 2 10 4 6 -5 7 8 12 -7 -1 -12 13 14 -2 -15 17 -17 -11
right_child=3 -3 -4 5 -6 9 -8 -9 -10 18 11 -13 -14 15 -16 16 -18 -19 -20
leaf_value=-0.11467563409874909 5.4588516675508938 -183.76476351420084 74.49055037627349 -208.94674458711043 262.76325611446214 71.40543776292067 87.911770527179428 -181.9792742395401 -69.888132342585806 -35.068695624900421 -112.80000901222229 13.940423329671225 81.234500388304397 -72.745679907176807 117.46297987576189 2.8426250681585197 53.178394187580459 -50.095398845672605 0.58719486539673316
leaf_count=2192 39 27 37 23 23 26 39 25 27 43 24 24 24 23 29 98 22 25 3677
internal_value=0 -4.19227 0.116075 2.3314 38.1153 -1.21946 6.17672 -15.0291 15.3654 1.33887 -2.34286 -98.8596 31.4763 18.155 106.451 -17.5837 2.70506 -15.8343 0.350087
internal_count=6447 2304 2277 4143 374 3769 351 312 287 3746 2240 48 260 236 68 168 145 123 3720
shrinkage=0.5


Tree=44
num_leaves=20
num_cat=0
split_feature=0 2 0 0 0 2 0 2 3 2 0 3 0 2 3 2 0 0 3
split_gain=55011.7 4.13442e+06 3.63714e+06 436545 524212 698245 1.6779e+06 1.22554e+06 2.38091e+06 672240 513968 557080 928935 692634 465441 437394 665395 511620 705638
threshold=-0.18876099868099253 -0.17513398930430082 -0.19933239011416651 -0.16701809315686608 -0.053456420992638816 -0.037955954315058375 -0.029913147495177067 1.0000000180025095e-35 -0.0078745521947874934 -0.15304600061959231 -0.11946991334826686 -0.10415537307806831 -0.089002147645669299 -0.0779468390915833 -0.1397123189198555 0.015985239104440368 1.0000000180025095e-35 0.020404829195476485 0.028375061423138389
decision_type=2 2 2 2 2 2 2 2 2 2 2 2 2 2 2 2 2 2 2
left_child=2 -2 -1 -3 9 -6 -7 8 -8 -5 14 -12 -13 -14 -11 16 -9 -17 -19
right_child=1 3 -4 4 5 6 7 15 -10 10 11 12 13 -15 -16 17 -18 18 -20
leaf_value=-0.21824593861399078 -150.14588264797044 -73.108844423294073 184.40254056012188 94.883085693631855 -70.931445634790833 129.12157279968261 -0.43381260081035333 -1.0240606367588043 -207.46505828130813 22.923414054669831 89.525806673111461 -43.39787586875584 114.42291937828064 19.354380500025865 -51.14600453029076 -66.482499944752661 111.93479946526614 91.582464445204963 -0.33854748752712377
leaf_count=2231 46 20 27 28 35 25 41 32 21 38 31 46 25 82 48 29 22 21 3599
internal_value=0 -2.14465 3.97871 1.1657 1.88063 -1.26667 0.0317094 -1.68284 -141.115 42.2781 26.983 56.8112 32.0435 83.1333 -36.8353 0.651689 89.9924 -0.670427 0.389392
internal_count=6447 4189 2258 4143 4123 3825 3790 3765 62 298 270 184 153 107 86 3703 54 3649 3620
shrinkage=0.5


Tree=45
num_leaves=20
num_cat=0
split_feature=2 2 0 0 3 3 0 3 3 2 2 3 0 3 0 3 0 0 2
split_gain=55374.6 893803 1.0833e+06 896124 1.19469e+06 717508 626884 1.24145e+06 809752 763486 1.26183e+06 624192 457212 1.35716e+06 1.1634e+06 1.01369e+06 1.00556e+06 1.3208e+06 603098
threshold=0.85997891200435617 0.82789320212551643 0.84580430004766516 0.80220308079599334 0.79585095738483036 0.8641941779638499 0.75486263575354817 0.74413176343314003 0.73235641123878181 0.74837644286056559 0.77860211158700887 0.71226904573075933 0.65699647925429538 0.64715827477372045 0.65145688549018677 0.68040632802837864 0.70777608875862463 0.68515608088851432 0.62817128338694139
decision_type=2 2 2 2 2 2 2 2 2 2 2 2 2 2 2 2 2 2 2
left_child=1 3 -3 6 -5 -2 7 8 11 -8 -11 12 14 -14 18 -15 17 -17 -1
right_child=5 2 -4 4 -6 -7 9 -9 -10 10 -12 -13 13 15 -16 16 -18 -19 -20
leaf_value=0.22800083192616422 96.801903820037836 -11.886090746112899 -137.29210897592398 -12.050503292083739 141.03217656795795 1.4175601266405096 54.368639516830441 86.921791867512027 -100.85329551696778 -120.95205960622648 -9.2662409291122891 62.960730540446747 -139.8606254328852 45.508164574118219 103.77438856937268 -97.131097030639651 -141.92425198554992 82.406791868663973 -60.690534126467824
leaf_count=4482 20 51 26 25 26 1387 20 41 20 41 66 39 23 51 27 20 20 21 41
internal_value=0 -1.54849 -108.462 0.110252 131.983 5.54683 -1.25895 0.581505 -0.915912 -70.6021 -104.123 -0.0658245 -1.1146 -58.4658 0.587031 -13.0294 -100.019 -10.3453 -0.648425
internal_count=6447 5040 77 4963 51 1407 4912 4785 4744 127 107 4724 4685 135 4550 112 61 41 4523
shrinkage=0.5


Tree=46
num_leaves=20
num_cat=0
split_feature=3 2 1 1 3 1 2 3 3 1 2 1 3 1 2 3 1 2 1
split_gain=45021.2 163040 66062.3 73658.6 555056 312659 182992 67674.6 1.80366e+06 2.23933e+06 987167 1.19597e+06 1.19759e+06 698750 3.64936e+06 567094 473211 1.82353e+06 1.18901e+06
threshold=1.6413674227914838 1.6332910211132046 1.5937763175661057 1.4958330042826427 1.5153018875342383 1.5325330748338231 1.5846974460068457 0.48853735403795551 0.46083064299240711 0.47167166046375719 0.49959593872753261 0.50745422925115846 0.54071832650707174 0.44139410225903314 0.43635453954605136 0.5492612290794493 0.58502900337871655 0.58980793461876335 0.56319246140076407
decision_type=2 2 2 2 2 2 2 2 2 2 2 2 2 2 2 2 2 2 2
left_child=1 2 3 7 -5 -6 -7 8 13 -10 -9 -12 -13 -1 -15 -14 18 -18 -17
right_child=-2 -3 -4 4 5 6 -8 10 9 -11 11 12 15 14 -16 16 17 -19 -20
leaf_value=-0.62152401878020547 23.113207998729887 -42.097346679024078 28.073198619342985 -83.939109282060102 49.68380829139992 -35.184319585561752 20.041349569956463 79.332034099392772 -182.07541510264079 30.809056917826336 -114.97263066064228 67.981774031226308 -76.370021820068359 216.72872508655894 -35.703781360533178 -24.231421894497341 -100.01649220784505 1.8419707148707904 103.40447503167229
leaf_count=4018 21 23 21 22 27 40 24 41 30 21 22 67 24 22 41 36 45 1865 37
internal_value=0 -0.151067 0.150824 -0.0334301 -25.3377 9.12269 -28.9494 0.422684 -1.94016 -188.834 4.99137 1.98537 4.44558 0.395439 104.895 0.0550943 1.90435 -1.11567 80.9215
internal_count=6447 6426 6403 6382 113 91 64 6269 4132 51 2137 2096 2074 4081 63 2007 1983 1910 73
shrinkage=0.5


Tree=47
num_leaves=20
num_cat=0
split_feature=0 2 3 2 3 3 2 3 2 0 2 2 3 0 3 2 0 2 3
split_gain=41473.3 2.57756e+06 434760 379095 298176 636597 271264 700450 566897 776875 642912 477034 299280 257609 179134 1.2386e+06 1.31837e+06 792540 1.27098e+06
threshold=-0.10539011253115739 -0.11328762098711696 -0.10415537307806831 -0.095152219751251002 -0.12678252043193286 -0.1397123189198555 -0.072366715634393772 -0.064904199096874685 -0.01470543991010202 -0.029913147495177067 -0.037955954315058375 -0.0051727290040699163 -0.079219333137074729 -0.057611116315720308 -0.24361248534066213 -0.25372072799305329 -0.23533974958087273 -0.29185157161718173 -0.27732231711274608
decision_type=2 2 2 2 2 2 2 2 2 2 2 2 2 2 2 2 2 2 2
left_child=2 -2 4 -3 5 14 12 -8 9 10 13 -10 -5 -9 17 -16 -17 -1 -19
right_child=1 3 -4 6 -6 -7 7 8 11 -11 -12 -13 -14 -15 15 16 -18 18 -20
leaf_value=1.0398878840357064 -180.04214305877684 66.908391748155864 67.216855545043941 -59.304859435558321 -47.781139004615042 86.234213438901037 71.538167189149291 -4.5635608175526494 67.967349822704605 -109.82172008796975 51.018409040239121 0.0047107897220700174 10.432475051879884 -75.421607888978102 123.69670685477878 -109.05356442928314 13.546017495665962 -159.17658920288085 -12.338850174631391
leaf_count=2000 20 21 25 40 31 22 34 23 26 27 27 3720 25 29 23 24 254 20 56
internal_value=0 -1.98901 3.23426 -0.185907 1.88447 3.14368 -0.898146 0.173492 -1.08785 -73.2052 -23.1567 0.952843 -64.9656 -88.1611 1.57652 24.3749 5.92376 -1.72903 -101.961
internal_count=6447 3992 2455 3972 2430 2399 3951 3886 3852 106 79 3746 65 52 2377 301 278 2076 76
shrinkage=0.5


Tree=48
num_leaves=20
num_cat=0
split_feature=0 0 3 2 3 2 2 0 3 3 3 3 3 2 3 0 3 3 0
split_gain=53872.8 3.96594e+06 1.71498e+06 2.49455e+06 1.32555e+06 1.04537e+06 1.04359e+06 821131 334533 617626 655816 356510 920039 403930 672516 592071 844759 579559 302701
threshold=-0.76898728219000578 -0.6988190945112962 -0.62457976221695322 -0.61526622699012457 -0.91111333227966662 -0.62944904077714792 -0.92591634995474636 -0.95017816155772605 -1.0304830790342379 -1.0069323746455214 -0.98557511821457811 -1.206305249544114 -1.2924269430440269 -1.3650953165499671 -1.3850135357879014 -1.424505877609529 -1.4681336689245466 -1.3241742161170513 -1.0863598415920637
decision_type=2 2 2 2 2 2 2 2 2 2 2 2 2 2 2 2 2 2 2
left_child=4 -2 5 -4 6 -3 7 8 11 -10 -11 12 13 14 15 16 -1 -15 -13
right_child=1 2 3 -5 -6 -7 -8 -9 9 10 -12 18 -14 17 -16 -17 -18 -19 -20
leaf_value=-2.2358149876869744 199.44916229248048 -144.3260121490016 176.99293127059937 0.041975358571032476 -77.403385530438342 0.54119718074798584 110.96462817419143 -97.162163907831371 98.754744211832687 -59.250804583231606 51.63896999359131 -51.153272954244464 66.209407577147857 -107.45712850207374 75.862821710520777 -42.395496374295078 52.003992942663338 -10.515848842160455 -5.0657341073199014
leaf_count=901 25 33 20 4806 57 20 21 22 24 24 30 63 52 21 29 81 78 58 82
internal_value=0 1.62149 -0.41416 1.5506 -5.15345 -179.318 0.586953 -2.58587 0.337375 64.0324 4.70925 -3.30234 2.26918 -3.52515 1.48362 -2.62678 4.17128 -72.5701 -50.18
internal_count=6447 4904 4879 4826 1543 53 1486 1465 1443 78 54 1365 1220 1168 1089 1060 979 79 145
shrinkage=0.5


Tree=49
num_leaves=20
num_cat=0
split_feature=1 0 1 1 0 3 1 3 0 0 1 0 1 1 3 0 3 0 0
split_gain=42957.7 915437 770985 488078 1.13429e+06 1.53658e+06 1.43626e+06 456489 343959 398051 339458 805877 647669 317637 253536 939448 894853 473061 416811
threshold=0.92285315280233438 0.93720759715545776 0.91000812810942111 0.89853935606217716 0.87350226886820836 0.8641941779638499 0.84234237303068193 0.943158304443663 0.83726409299466431 0.814644085124554 0.97973826215666449 0.99445006605124719 0.95152508292044435 0.8262860921645403 1.091850987054773 1.0729276443761198 1.1029336714729923 1.0498460036923338 1.0272259958222234
decision_type=2 2 2 2 2 2 2 2 2 2 2 2 2 2 2 2 2 2 2
left_child=2 -2 3 4 5 6 8 -3 9 -1 12 -12 -9 -11 15 17 -16 18 -13
right_child=1 7 -4 -5 -6 -7 -8 10 -10 13 11 14 -14 -15 16 -17 -18 -19 -20
leaf_value=-0.034377416936782583 -97.334221496582032 66.180809440612791 88.234630279541022 -69.476807098388676 72.639024098714188 -121.45157081805743 130.90095701671783 22.018853087174264 49.260720021384103 -78.754034617851516 81.285127003987625 3.0497398979284545 -60.388272158801556 3.1526419162750243 97.12816719214122 -94.883168943000555 -0.75092314211306743 44.849458694458008 -55.681847779647164
leaf_count=4935 25 25 25 25 54 26 21 38 35 29 30 88 64 20 24 33 864 40 46
internal_value=0 -5.19388 1.2829 0.431652 1.11224 -0.424462 0.82642 -1.41044 -0.265528 -0.959256 -4.13603 0.872317 -59.3752 -90.6455 -3.55776 -35.074 3.78892 -5.73574 -34.2237
internal_count=6447 1277 5170 5145 5120 5066 5040 1252 5019 4984 1227 1125 102 49 1095 207 888 174 134
shrinkage=0.5


Tree=50
num_leaves=20
num_cat=0
split_feature=3 3 1 1 3 1 2 1 1 3 3 2 2 3 3 2 2 1 3
split_gain=41798.3 515247 349399 164525 243592 43888.9 93880.9 364647 67102.4 1.30439e+06 1.78502e+06 569277 630547 443246 478793 255827 242796 224533 207480
threshold=1.4820538342795804 1.4996014179417612 1.4623441899046903 1.5128067869125637 1.5584781789135513 1.4430766528653203 1.4393817309758685 1.4201391087708324 1.0891503474873718 1.0607502039061447 1.0468275816057568 1.045518016955908 1.0313352031688845 1.0138104176098117 1.0073455183658504 1.1224772196363135 1.1071318801290422 1.0746996947078447 1.1486497446981474
decision_type=2 2 2 2 2 2 2 2 2 2 2 2 2 2 2 2 2 2 2
left_child=2 -2 5 -3 -5 6 7 8 9 10 11 12 13 14 -1 16 -10 -11 -17
right_child=1 3 -4 4 -6 -7 -8 -9 15 17 -12 -13 -14 -15 -16 18 -18 -19 -20
leaf_value=-0.13192514985340703 75.859491030375167 -37.35291402680533 -63.130486228249289 36.748300552368164 -8.0129288413307886 -22.827044486999512 27.081794738769531 -65.84482992263068 9.3599599684987744 -95.604422000738296 139.43418662962705 -76.987537259856865 84.665192051367328 -60.762068927288055 70.647081613540649 28.780285783112049 80.481319949740453 -33.31569986758025 -1.5765468803667155
leaf_count=5382 24 28 22 42 110 21 32 21 28 39 23 24 22 30 24 64 21 23 467
internal_value=0 14.0858 -0.460276 -4.26528 8.71061 -0.0153935 0.139189 -0.141093 0.308316 -0.758134 0.866327 -0.300044 0.375698 -0.308077 0.364598 10.5444 79.6811 -144.995 4.16456
internal_count=6447 204 6243 180 152 6221 6200 6168 6147 5567 5505 5482 5458 5436 5406 580 49 62 531
shrinkage=0.5


Tree=51
num_leaves=20
num_cat=0
split_feature=0 0 1 2 1 1 1 0 2 0 2 0 2 2 1 1 2 0 2
split_gain=44951.1 1.65454e+06 1.72774e+06 4.18613e+06 1.30571e+06 508106 342134 804425 657825 2.19533e+06 593202 733627 829159 629371 458794 742494 288976 1.9394e+06 834928
threshold=0.18520774367770879 0.19305550151019604 0.19848551029840616 0.20338438520838861 0.1913748716291149 0.21660617013305164 0.22486368600706727 0.23460245474101091 0.27671650764162098 0.27153307983506858 0.29638644282821408 0.30523227523339619 0.32521708069035998 0.34195745106192849 0.30009883063698767 0.28679505506218467 0.10666224528377018 0.10142138799556548 0.11689247162195096
decision_type=2 2 2 2 2 2 2 2 2 2 2 2 2 2 2 2 2 2 2
left_child=4 -2 -3 -4 16 -5 -7 -8 9 -9 -10 14 -13 -14 15 -12 17 -1 -18
right_child=1 2 3 5 -6 6 7 8 10 -11 11 12 13 -15 -16 -17 18 -19 -20
leaf_value=0.31342219301764984 -124.57658223752622 105.69692267399085 -205.34566287994386 74.113965158877164 117.50648087263107 -65.662336540222171 74.249292095502213 2.7436968249934059 42.880384038443921 -138.89078432804828 -89.233912599086764 56.115595087860569 -56.183410729765889 0.44276292261850847 -104.02170349084415 43.877359563654117 100.62645848592122 -148.68620923703367 6.0888662241786893
leaf_count=2988 27 38 25 23 24 20 36 105 81 37 20 66 50 2637 26 22 27 22 173
internal_value=0 -2.64915 -0.560129 -3.11866 2.63194 0.144011 -0.954676 -0.108118 -1.86562 -68.3221 1.38621 -1.03645 1.49802 -1.22189 -103.645 -39.0179 0.894515 -1.55122 37.7029
internal_count=6447 3213 3186 3148 3234 3123 3100 3080 3044 142 2902 2821 2753 2687 68 42 3210 3010 200
shrinkage=0.5


Tree=52
num_leaves=20
num_cat=0
split_feature=3 1 1 2 2 2 1 1 3 1 2 1 3 2 1 2 3 3 1
split_gain=56014.7 375115 213498 1.08793e+06 352046 163990 260097 198895 200241 115369 230520 104304 234316 133746 124228 77240 318010 170848 409171
threshold=1.3197386854044091 1.2932944899283141 1.3455920904637468 1.3473096939322413 1.3589349511347197 1.5249436239861081 1.4958330042826427 1.5531768645188622 1.5737168699886033 1.3623364976527228 1.3940432278862038 1.4306903790542969 1.4053986003868963 1.4521695138985946 1.4201391087708324 1.2784881712935705 1.2520881326015283 1.2322316563522187 1.2111780820700475
decision_type=2 2 2 2 2 2 2 2 2 2 2 2 2 2 2 2 2 2 2
left_child=1 15 3 -2 -4 6 9 -7 -9 -6 -11 12 -12 -13 -14 16 17 18 -1
right_child=2 -3 4 -5 5 7 -8 8 -10 10 11 13 14 -15 -16 -17 -18 -19 -20
leaf_value=-0.33338984047970421 90.360029711042131 -48.681753039360046 -47.626902468064252 -44.665188459249642 -25.081400705420453 -34.900140555008598 66.661131359281995 46.919028455560856 -6.413246196102012 49.819446423474481 28.39087779433639 50.033351638100363 -52.34380372365316 5.1830103537615608 -1.7281366695057263 -17.946966163317363 53.242616585322786 -42.270127097765602 52.41521982244543
leaf_count=5763 35 40 34 26 23 46 21 22 88 34 27 22 27 68 22 60 28 24 37
internal_value=0 -0.850047 10.2212 65.6166 2.43518 10.7387 26.9287 -14.584 8.50642 16.9096 24.6229 9.2582 -18.0197 32.2929 -59.2368 -0.197047 0.16895 -0.342186 0.00621982
internal_count=6447 5952 495 61 434 400 244 156 110 223 200 166 76 90 49 5912 5852 5824 5800
shrinkage=0.5


Tree=53
num_leaves=20
num_cat=0
split_feature=0 0 3 1 0 1 1 0 0 0 1 0 3 3 1 0 1 0 1
split_gain=52911.5 1.122e+06 1.27191e+06 759015 601636 941138 485485 468373 417166 382610 1.55447e+06 309741 1.06688e+06 403881 2.26762e+06 1.44647e+06 763726 543086 963595
threshold=0.5111205101327676 0.47072763893614206 0.46083064299240711 0.49369170279446556 0.53350970159604005 0.53864928921966193 0.45011036901493856 0.45849436937373544 0.55520644383879902 0.43379701384208441 0.41937405992832477 0.57459502201317925 0.5566496853582622 0.64023159701233323 0.64232698852674719 0.59513768222174879 0.58502900337871655 0.62652871355169781 0.65058450440076288
decision_type=2 2 2 2 2 2 2 2 2 2 2 2 2 2 2 2 2 2 2
left_child=1 6 -3 -4 -2 -6 9 -8 -7 10 -1 12 -10 14 15 16 -13 -15 -19
right_child=4 2 3 -5 5 8 7 -9 11 -11 -12 13 -14 17 -16 -17 -18 18 -20
leaf_value=-0.041347487166809339 -56.189193325042723 155.99219138725945 -24.005535352797736 72.232632970809931 107.24613819122314 -57.50302347992406 -99.624038577079773 2.6245075180417015 -40.001327514648438 -45.533040727509395 112.35955829005087 13.740922021865845 107.83275956373949 80.246491568429136 -145.0507904291153 42.96385098064647 -110.811030626297 -107.11558991386777 0.58226126619274654
leaf_count=3968 50 23 42 40 20 33 24 21 23 45 31 20 26 21 32 85 32 21 1890
internal_value=0 2.09973 104.169 45.8798 -3.90868 -1.44681 -0.521286 -103.816 -3.42518 0.628137 1.65995 -1.71255 76.8825 -3.54556 -50.4241 5.55902 -125.813 0.555096 -1.20246
internal_count=6447 4194 105 82 2253 2203 4089 45 2183 4044 3999 2150 49 2101 169 137 52 1932 1911
shrinkage=0.5


Tree=54
num_leaves=20
num_cat=0
split_feature=2 0 0 2 0 0 0 3 2 0 0 3 3 2 0 2 0 2 2
split_gain=83441.4 3.21335e+06 1.77029e+06 1.02767e+06 663505 496228 778145 525170 879997 483879 462331 1.01333e+06 1.02206e+06 408955 419923 304198 231285 533637 227583
threshold=0.69257520828867036 0.68515608088851432 0.67476934258081067 0.71536071240552757 0.69669690123040739 0.75486263575354817 0.79086999522025436 0.832793238778895 0.85091121138642312 0.83726409299466431 0.65145688549018677 0.62637824148955901 0.66978542212758507 0.76627933895238198 0.78283758426229688 0.81394289348254267 0.74239854978430364 0.7367511856580875 0.55911725560422088
decision_type=2 2 2 2 2 2 2 2 2 2 2 2 2 2 2 2 2 2 2
left_child=1 2 10 4 -2 16 13 9 -9 15 18 -12 -13 -7 -15 -8 17 -5 -1
right_child=3 -3 -4 5 -6 6 7 8 -10 -11 11 12 -14 14 -16 -17 -18 -19 -20
leaf_value=0.87047998877548194 -11.168464826500934 164.2275675912698 -138.31315940359363 56.75373942255974 -126.73481397275572 -89.243279702322823 44.986960117633529 -78.477240227364206 -0.37551856145231433 101.45807959816672 136.03287296295167 -57.963170433044432 77.479319352370041 6.2807017481604284 -79.977628912244526 -22.632455825805664 80.248833656311035 -36.367678499221803 -16.219415024945548
leaf_count=4322 23 30 23 40 27 35 39 37 1429 22 20 30 26 43 21 29 22 25 204
internal_value=0 2.23214 0.116098 -5.79833 -147.149 -1.7412 -5.6109 -0.141447 -4.69342 74.0051 1.49921 78.848 9.84169 -91.5752 -44.0456 32.2985 71.872 41.8756 0.200377
internal_count=6447 4655 4625 1792 50 1742 1655 1556 1466 90 4602 76 56 99 64 68 87 65 4526
shrinkage=0.5


Tree=55
num_leaves=20
num_cat=0
split_feature=0 1 2 0 2 0 2 0 2 0 1 0 0 0 0 2 0 0 0
split_gain=56076.9 666699 505960 219743 382466 330032 858953 453205 422786 1.38179e+06 680656 540553 222674 446487 203896 235556 546777 165967 459729
threshold=0.9842941441503813 0.97125137084170399 0.98971678238401262 1.2035697306463486 1.2224544315776258 1.1555599180240739 1.1761859079117627 1.1906440118634285 1.1320099305423457 1.1140129647932588 1.1235566636291037 1.0865227307388696 1.2617354651694896 1.2746611839524098 1.0729276443761198 1.0557482432940888 1.0369202849094137 0.9672137300443796 0.95890433939821673
decision_type=2 2 2 2 2 2 2 2 2 2 2 2 2 2 2 2 2 2 2
left_child=1 17 -2 5 -5 8 -7 -8 9 11 -10 14 -6 -14 15 16 -4 18 -1
right_child=2 -3 3 4 12 6 7 -9 10 -11 -12 -13 13 -15 -16 -17 -18 -19 -20
leaf_value=0.35635404885192229 -75.022337396939591 76.284116777880442 -9.3342894139837043 68.748094591227442 -29.034397725705748 -121.15323354886925 41.568360988910385 -51.788404024564301 -35.79954271316528 -119.31819594347918 81.096510251363114 48.688316029051073 72.802659946939215 1.7820844843856289 -53.422657003402712 -35.872009004155792 71.833527755737308 37.348805212974547 -72.073892940174446
leaf_count=5237 24 29 122 22 54 23 26 26 20 27 33 46 23 585 25 48 25 30 22
internal_value=0 1.3589 -6.40089 -3.28103 7.7824 -21.2558 -81.3932 -10.22 -8.22025 -23.0873 73.9696 -1.20831 3.47167 8.93744 -21.8215 -10.921 8.93952 0.529803 0.106712
internal_count=6447 5318 1129 1105 684 421 75 52 346 293 53 266 662 608 220 195 147 5289 5259
shrinkage=0.5


Tree=56
num_leaves=20
num_cat=0
split_feature=3 0 1 0 3 3 3 1 3 0 1 3 3 3 0 3 1 0 1
split_gain=49327.7 904818 368468 731722 958707 287388 273589 1.05887e+06 574655 465984 918878 389180 309139 542386 526318 2.64638e+06 1.15946e+06 1.77846e+06 409236
threshold=0.44235950229537474 0.43379701384208441 0.40469403170785251 0.37930126018766558 0.37678695282091013 0.42042502271764892 0.50818602995442363 0.49369170279446556 0.5169367328596427 0.48157601005752149 0.46295539370785177 0.45413485448973284 0.54071832650707174 0.5492612290794493 0.58590502594823435 0.59128307416519765 0.59759877754249591 0.60621686974996614 0.53085052422753598
decision_type=2 2 2 2 2 2 2 2 2 2 2 2 2 2 2 2 2 2 2
left_child=1 2 3 4 -1 -4 7 9 -8 10 11 -2 18 -14 15 -15 -16 -18 -10
right_child=6 -3 5 -5 -6 -7 8 -9 12 -11 -12 -13 13 14 16 -17 17 -19 -20
leaf_value=-0.83685670287135405 33.381918144226077 -78.900795859259532 86.626434326171875 -71.859008259243438 103.83455298163675 10.870699697925199 -74.973821744918823 103.13605660200119 3.1941092809041343 -45.897530504175137 87.859518021345139 -56.662104765574135 -72.858828048706059 -14.489116962641885 116.36556945528302 164.05100010181295 -122.56534236272176 0.078327792783676992 95.529070377349854
leaf_count=3884 20 37 21 36 22 31 25 32 30 37 32 30 25 73 21 29 30 2012 20
internal_value=0 -2.14145 -0.699434 -1.8026 -0.494619 82.9287 3.57293 44.7871 0.825319 1.36254 43.3971 -41.289 2.50805 0.732982 2.4241 72.5446 -1.04284 -3.44698 80.2562
internal_count=6447 4031 3994 3942 3906 52 2416 151 2265 119 82 50 2240 2190 2165 102 2063 2042 50
shrinkage=0.5


Tree=57
num_leaves=20
num_cat=0
split_feature=1 1 3 1 1 3 2 2 2 2 3 2 1 1 3 3 3 3 2
split_gain=33711.5 175002 111901 65804.8 60573.1 69605 295680 204397 152190 743368 89684.1 160695 388443 170027 105680 78870 76953.9 125777 594687
threshold=1.4958330042826427 1.5325330748338231 1.5584781789135513 1.5128067869125637 1.4623441899046903 1.3769992215652092 1.3940432278862038 1.4128761445542184 1.3473096939322413 1.3589349511347197 1.3340538194446092 1.3217341280867896 1.2827432196448498 1.2756325809755584 1.2943408669459895 1.4335670899498705 1.2733299444031154 1.1839758012812218 1.1761859079117627
decision_type=2 2 2 2 2 2 2 2 2 2 2 2 2 2 2 2 2 2 2
left_child=4 3 -3 -2 5 8 -7 -8 10 -10 11 12 13 16 -14 -9 17 18 -1
right_child=1 2 -4 -5 -6 6 7 15 9 -11 -12 -13 14 -15 -16 -17 -18 -19 -20
leaf_value=0.041635040041024002 -14.431680596393088 35.02214241027832 -4.0408791000192812 -52.254156527311906 18.269882160684336 -55.925709099605164 46.489366722106936 -23.160293418533946 91.039520593789902 -13.557133830323512 -26.359869539737701 -39.04170440710508 15.334294926036488 -41.184939117431639 60.072562694549561 5.2086403515874125 27.818628940582276 -16.575424911720411 86.410863161087036
leaf_count=5706 23 22 110 23 46 29 20 49 26 49 32 26 22 25 33 49 25 112 20
internal_value=0 -13.5706 4.93925 -66.6858 0.385319 0.118068 -21.3835 0.850107 0.638268 45.4061 0.0787637 0.361818 0.705008 -0.076365 84.3545 -17.9517 0.274537 0.0374578 0.686618
internal_count=6447 178 132 46 6269 6223 147 118 6076 75 6001 5969 5943 5888 55 98 5863 5838 5726
shrinkage=0.5


Tree=58
num_leaves=20
num_cat=0
split_feature=0 0 2 2 0 0 1 2 0 2 1 2 0 2 2 1 2 1 1
split_gain=48461.7 51340.2 397790 282658 220457 247792 261279 252764 308336 67218 110219 108318 139797 196223 171652 107008 71232.6 95384.6 59983.5
threshold=1.6490453958434192 1.4223836843286404 1.4128761445542184 1.4521695138985946 1.3727581568585003 1.3459834536653086 1.350638350164534 1.3217341280867896 1.3342118169165778 1.5249436239861081 1.4958330042826427 1.5430790252219739 1.5802621066057367 1.5640044881864348 1.6016703215224639 1.6130438546054757 1.4626322453808249 1.4804648497393356 1.1919105450306777
decision_type=2 2 2 2 2 2 2 2 2 2 2 2 2 2 2 2 2 2 2
left_child=1 2 4 -3 5 7 -7 18 -9 10 16 -11 13 -13 -14 -16 -5 -18 -1
right_child=-2 3 -4 9 -6 6 -8 8 -10 11 -12 12 14 -15 15 -17 17 -19 -20
leaf_value=-0.16478176424769977 23.980115708850679 -41.191144398280549 55.823952317237854 25.513890526511453 -38.546856277697792 2.3833884596824646 62.998819582164288 -60.621465025721371 14.125895500183105 -37.751215976217516 42.83802323114304 -17.507799494266511 -51.155951955101706 47.336388179234099 -20.700287623838946 29.832878732681273 9.5665058771769207 -34.369836716424849 8.4388438634929201
leaf_count=5738 21 49 32 22 37 40 32 37 22 23 21 20 22 28 22 20 30 21 210
internal_value=0 -0.156733 0.444322 -13.4491 -0.137515 0.330881 58.6472 -0.368099 -65.4991 1.30077 21.8326 -12.9955 -0.159229 40.636 -30.7556 6.72625 3.46669 -17.0499 0.277955
internal_count=6447 6426 6148 278 6116 6079 72 6007 59 229 94 135 112 48 64 42 73 51 5948
shrinkage=0.5


Tree=59
num_leaves=20
num_cat=0
split_feature=1 0 1 3 1 3 3 1 1 1 3 0 0 1 3 0 3 1 0
split_gain=56268.1 126144 77876.3 460117 404517 132824 41916.2 2.13447e+06 584981 1.42277e+06 2.96568e+06 545678 636075 969665 482891 409537 596242 666049 323921
threshold=1.6380457776684676 1.5973425207117384 1.4958330042826427 1.5153018875342383 1.5325330748338231 1.5737168699886033 0.61968245298688485 0.63406947265273172 0.66870516423540838 0.68659644862910885 0.68918011985946881 0.65699647925429538 0.61591115883715619 0.63406947265273172 0.68040632802837864 0.70777608875862463 0.74413176343314003 0.74348155798343896 0.59513768222174879
decision_type=2 2 2 2 2 2 2 2 2 2 2 2 2 2 2 2 2 2 2
left_child=1 2 6 -4 -5 -6 7 18 11 14 -11 12 -8 -14 -10 -12 17 -17 -1
right_child=-2 -3 3 4 5 -7 8 -9 9 10 15 -13 13 -15 -16 16 -18 -19 -20
leaf_value=-0.37432157243841924 -25.839431535629998 26.764404930851676 -77.998249053955078 53.903363845966481 -40.470156781813678 5.1753614266713459 73.321322822570806 -152.61256193078083 -131.38564376831056 180.63769166365913 49.774623423814774 88.32132263183594 72.075676226615911 -64.572070666261624 -35.780061364173889 -15.231698237932646 0.69531311408731855 -120.7367183140346 38.588432700545702
leaf_count=4386 21 44 22 27 34 30 30 23 25 23 40 35 20 37 28 52 1495 21 54
internal_value=0 0.168885 -0.199 -26.2176 5.1575 -38.1476 0.269991 -1.3749 4.33486 -0.509332 4.73038 71.2005 28.7813 -33.251 -161.754 -0.369454 -2.9184 -91.1649 0.1991
internal_count=6447 6426 6382 113 91 64 6269 4463 1806 1684 1631 122 87 57 53 1608 1568 73 4440
shrinkage=0.5


Tree=60
num_leaves=20
num_cat=0
split_feature=3 1 3 1 1 0 1 1 0 0 3 0 3 1 3 1 3 3 1
split_gain=38088.3 2.93853e+06 1.9792e+06 697244 260705 1.49931e+06 1.07981e+06 1.67363e+06 1.54854e+06 847962 1.3359e+06 2.89988e+06 1.52825e+06 1.79184e+06 4.10829e+06 769490 4.14627e+06 741513 691489
threshold=-0.78250801517657931 -0.89758503425669844 -0.72132236161765984 -0.92751852930000511 -0.57588597833150545 -0.5164741331093865 -0.45821637712678259 -0.47564891063859344 -0.42714818366313462 -0.4070671562682408 -0.40154073830028825 -0.37359877727675106 -0.32788706477087198 -0.28824917538662725 -0.27732231711274608 -0.2306759397094626 -0.23530047202699761 -0.34381842362206233 -0.19925150430001418
decision_type=2 2 2 2 2 2 2 2 2 2 2 2 2 2 2 2 2 2 2
left_child=1 3 -2 -1 -4 -6 7 -7 -8 -10 -11 -12 17 -14 -15 -16 -17 -13 -18
right_child=2 -3 4 -5 5 6 8 -9 9 10 11 12 13 14 15 16 18 -19 -20
leaf_value=0.065479033075224957 -143.91300212343535 139.48322292378074 -24.384834884483123 -85.849463562170669 94.623964603458134 -1.3671891268561869 92.860343339708123 -180.89488292875745 -90.383985262650711 120.36747310472572 -150.42695578932762 33.242710685729982 95.713303983211517 -207.72134232521057 40.253983020782471 -213.09015133069909 -48.145510022704663 152.57080685574076 0.60947906881175617
leaf_count=1472 24 38 107 24 42 34 45 21 26 23 32 30 48 24 114 23 74 23 4223
internal_value=0 4.34988 -1.35818 -2.62567 0.0480886 1.14041 -0.526361 -139.828 1.10899 -0.681429 0.333363 -0.871001 1.2346 -0.751057 -2.82026 -0.586855 -2.72686 170.053 -0.460292
internal_count=6447 1534 4913 1496 4889 4782 4740 55 4685 4640 4614 4591 4559 4506 4458 4434 4320 53 4297
shrinkage=0.5


Tree=61
num_leaves=20
num_cat=0
split_feature=0 1 2 1 2 1 2 1 1 1 2 0 1 2 1 1 2 1 0
split_gain=52411.9 909336 1.51628e+06 1.68263e+06 748046 226524 989700 173240 108859 805578 827392 747015 174298 1.28955e+06 1.27692e+06 354219 1.57007e+06 422088 492531
threshold=0.13373568495286595 0.12737912360549367 0.11689247162195096 0.10604720759761989 0.13967797573880822 0.16568482224328848 0.1638585107199628 0.1555923028417138 0.053749607062187447 0.033105817377148329 0.044815876966586253 0.070722805886130044 -0.091789110217338335 -0.085852013989268464 -0.070113131048047242 -0.2219596729535572 -0.23186524445239434 -0.1210344789378104 -0.12870256962178125
